#include <cstdarg>

/**
* Predict class for features vector
*/
double compute_kernel(double x[], ...) {
	va_list w;
	va_start(w, 93);
	double kernel = 0.0;

	for (int i = 0; i < 93; i++) {
		kernel += pow(x[i] - va_arg(w, double), 2);
	}

	return exp(-0.01 * kernel);
}

int predict(double x[]) {
	double kernels[58] = { 0 };
	double decisions[15] = { 0 };
	int votes[6] = { 0 };
	kernels[0] = compute_kernel(x,   -0.170106317211  , -0.155678153418  , -0.108758702287  , -0.118661032785  , -0.069826514229  , -0.05628615479  , -0.024458769846  , -0.004544021065  , -0.054460660481  , 0.004521103277  , 0.000157020511  , 0.019896591765  , -0.0715600696  , -0.11866235978  , -0.080641873065  , -0.061532313661  , -0.018991342145  , -0.096575634777  , -0.11253662912  , -0.091641253613  , -0.022205161857  , 0.00131812175  , -0.011678776201  , -0.058589541823  , -0.077504541526  , -0.05551121734  , -0.028260876466  , -0.024158732738  , -0.048926255204  , -0.020435830517  , -0.041711957639  , 0.483075198872  , 0.782831822029  , 0.891965194262  , 0.728795051204  , 0.61942421427  , 0.324972373617  , 0.307588891598  , 0.214472049391  , -0.060471347052  , -0.209120591239  , -0.239591429442  , -0.352700695127  , -0.631422598421  , -0.681940162035  , -0.696576576613  , -0.348398715713  , -0.394751728824  , -0.670001671422  , -0.144968651978  , 0.025870235165  , 0.399805910977  , 0.313302686125  , 0.437854853994  , 0.038812909123  , 0.223811566926  , 0.119273883289  , 0.109645122156  , -0.136875797803  , 0.010115914772  , -0.118770123931  , -0.027152481819  , 1.761187345934  , 1.269255645272  , 0.98315866353  , 0.991165163198  , 0.507758343273  , 0.396609336854  , 0.279378996426  , 0.550716308008  , 0.369006454368  , 0.619870841195  , 0.700666249747  , 0.794275419422  , 0.82015008194  , 0.891906941541  , 0.843943531172  , 0.973356375976  , 1.206256702511  , 1.432883135742  , 1.368238816146  , 1.287812527475  , 1.148526685884  , 0.921491074027  , 0.922232482964  , 0.951319362241  , 1.068979237857  , 0.957046118054  , 0.977630376845  , 0.837734782524  , 0.911148405979  , 0.961254994522  , 0.918814720071 );
	kernels[1] = compute_kernel(x,   -0.074562811463  , -0.064161723354  , -0.101441395611  , -0.042125683769  , -0.042346193797  , -0.037732013946  , -0.028530808909  , -0.056624501314  , -0.033509285348  , -0.031976368074  , 0.045777632783  , -0.00429176777  , -0.014408664488  , -0.016279901583  , 0.001631392466  , -0.052552292268  , -0.034267857048  , -0.027296150839  , -0.024980708502  , -0.038510897196  , -0.07004000599  , -0.089689737771  , -0.090374543633  , -0.080960656396  , -0.081026191418  , -0.060760677004  , -0.045231498961  , -0.051888150047  , -0.048685539748  , -0.038439158527  , -0.040495293491  , 0.959111335276  , 0.880567292356  , 0.810048839632  , 0.882174766827  , 0.545389647897  , 0.46929831337  , 0.348956469119  , 0.251032868478  , 0.112920435599  , 0.260190693435  , -0.089180115702  , -0.23342541312  , -0.623542839437  , -0.460731893933  , -0.672321078863  , -0.595434741393  , -0.409753976232  , -0.586163056999  , -0.43640572568  , 0.245734319198  , 0.287690106855  , 0.372851851095  , 0.107559253335  , 0.093791749221  , 0.007613660854  , 0.061482303813  , -0.083256626234  , -0.206591814423  , 0.146600829098  , 0.114868842319  , -0.09851380999  , 1.611872405925  , 1.344212071664  , 1.239396212219  , 0.808582493209  , 0.745028401019  , 0.522835371412  , 0.416229385577  , 0.354756773936  , 0.664476765191  , 0.476872527324  , 0.458093933746  , 0.610267068037  , 0.886335465232  , 0.66310306114  , 0.987623663012  , 0.968182509705  , 1.232969166847  , 1.15029015387  , 1.295735096627  , 1.423587037271  , 1.319754480897  , 1.38750808573  , 1.305376591796  , 1.063592742135  , 0.964377524082  , 0.937315271567  , 0.85658813689  , 0.914618663815  , 0.96686736888  , 1.036309658865  , 0.86704313143 );
	kernels[2] = compute_kernel(x,   -0.088940018182  , -0.129088911903  , -0.154718607855  , -0.102994001014  , -0.056507139641  , -0.047377004307  , 0.023795015606  , 0.036976442115  , -0.026358854947  , 0.009533088448  , 0.09182545701  , 0.036240094654  , 0.045777878377  , -0.023215023066  , -0.000355369334  , -0.013767163927  , -0.007815016567  , -0.025934930402  , -0.074956286973  , -0.05682578226  , -0.077454069065  , -0.08663711595  , -0.068633558737  , -0.049358668716  , -0.088684282215  , -0.064953415133  , -0.046131538337  , -0.045963274428  , -0.03061322962  , -0.053371106594  , -0.028881591846  , 0.91129605277  , 0.825877112009  , 0.69498823969  , 0.510534915475  , 0.501618181605  , 0.174993591534  , 0.357855418108  , 0.208744600508  , -0.007194218422  , -0.217674790005  , -0.240617330991  , -0.28484434991  , -0.149030329647  , -0.386832451992  , -0.331336874297  , -0.437364352894  , -0.664473197189  , -0.428075937507  , -0.321183608796  , -0.402137141992  , -0.200885138914  , -0.179648806105  , 0.240137190171  , 0.181856171841  , 0.322689486696  , 0.135873591024  , 0.070735758939  , 0.31707474414  , 0.229574531461  , -0.078353438247  , 0.16325547755  , 1.452170608492  , 1.323200811013  , 1.285814350817  , 1.108341475038  , 0.72924458847  , 0.594887359873  , 0.492925346113  , 0.457141903401  , 0.626472452257  , 0.365177625152  , 0.522759769952  , 0.697128361796  , 0.713600948029  , 0.690614149207  , 1.079162742792  , 1.038680461873  , 1.1398304557  , 1.231737031487  , 1.351944080362  , 1.308742232159  , 1.121202451272  , 1.344384465418  , 1.211073770256  , 1.123539009787  , 0.859394686918  , 0.753292121063  , 0.951037078635  , 0.963304700978  , 0.856881822952  , 0.848581169932  , 0.942765040316 );
	kernels[3] = compute_kernel(x,   -0.367441517599  , -0.254450406361  , -0.270045098533  , -0.378858369426  , -0.308229921245  , -0.316045552601  , -0.208320488553  , -0.09925401758  , -0.136713613766  , -0.189416228176  , -0.148852553212  , -0.147874871284  , -0.135597552698  , -0.120007888648  , -0.111383555115  , -0.176893109767  , -0.278525145411  , -0.355785436708  , -0.311643245033  , -0.319876212955  , -0.266221498404  , -0.226526815545  , -0.255222707733  , -0.094651978266  , -0.126173908525  , -0.056999126007  , -0.090583360398  , -0.066052599028  , -0.064933819277  , -0.052720700198  , -0.031782620362  , -0.735421818749  , -0.085639389657  , -0.08273360432  , 0.313334953318  , 1.024486695398  , 1.046123663858  , 1.13712378137  , 1.120734255964  , 1.029269640439  , 0.574133628957  , 0.351020618327  , 0.334691461509  , 0.134254904789  , 0.0208938046  , -0.16211929408  , -0.332815850479  , -0.83774091546  , -0.93299312349  , -0.843080849036  , -0.631330483412  , -0.090187693554  , 0.212918493865  , 0.423681556164  , 0.680439844349  , 0.429583460793  , 0.145628536649  , 0.232275655691  , 0.311373595471  , 0.126879459593  , 0.100709466946  , -0.11612747975  , 1.339405306035  , 1.667945707596  , 1.470606116008  , 1.510576369016  , 1.554279380318  , 1.392888107813  , 1.096704606444  , 0.645012338236  , 0.386707837588  , 0.33040342678  , 0.288122843976  , 0.304774073228  , 0.447226875141  , 0.501369224361  , 0.738511897066  , 0.428959888982  , 0.629197536848  , 1.293789109172  , 1.536151805364  , 1.626592069819  , 1.697739839731  , 1.635256573365  , 1.375407584045  , 0.700667015276  , 1.022663379883  , 0.974211320722  , 0.783553509384  , 0.972108518809  , 0.878702225677  , 1.104967686458  , 0.790341868115 );
	kernels[4] = compute_kernel(x,   -0.345035674168  , -0.567280767584  , -0.549466496287  , -0.452834222078  , -0.390261333013  , -0.276958120681  , -0.300648930867  , -0.259417907536  , -0.221609467932  , -0.145953528131  , -0.188927029259  , -0.210354818103  , -0.126240666538  , -0.208540106232  , -0.195539626515  , -0.259359804568  , -0.066844970646  , -0.166150090106  , -0.269558542738  , -0.203438141996  , -0.229745870631  , -0.18214722672  , -0.120534342079  , -0.15656302308  , -0.146472834913  , -0.096769609778  , -0.130171280771  , -0.055298197972  , 0.002042664714  , -0.064991617267  , -0.052680804471  , -0.965851020852  , -0.613952740312  , 0.270733175453  , 1.134677320788  , 0.975044965362  , 1.234246664038  , 1.198776764583  , 0.787606590437  , 0.882458326938  , 0.422220191795  , 0.133586015142  , 0.125771570628  , -0.240473227424  , -0.37539012908  , -0.324399115168  , -0.742027815249  , -0.547030821355  , -0.529428608922  , -0.935818539891  , -0.077011343771  , -0.286947932893  , 0.219651618733  , 0.466557170587  , 0.436120332486  , 0.327947554137  , 0.283986328859  , 0.222036989386  , 0.09868817095  , 0.271883668065  , 0.137578782967  , 0.011711188108  , 1.354734170243  , 1.080523652553  , 1.712671676607  , 1.864746655406  , 1.351492890828  , 1.022131432762  , 0.7548309362  , 0.473837946599  , 0.489438847088  , 0.197427789643  , 0.214045970901  , 0.347773284224  , 0.47141101903  , 0.641170124773  , 0.808611690245  , 1.030355872276  , 1.034395253214  , 1.306704316952  , 1.3474584638  , 1.897194155628  , 1.638934939332  , 1.518304777475  , 1.119666686096  , 1.062857049076  , 0.783371988285  , 0.904235634674  , 0.998726538256  , 0.860589697239  , 0.822099965116  , 0.901507045903  , 1.121322891984 );
	kernels[5] = compute_kernel(x,   0.024120733197  , -0.13011332044  , -0.111583677031  , -0.095685836722  , -0.132865074147  , -0.074026326072  , -0.094459934527  , -0.084432647103  , -0.002440916078  , -0.097129362836  , -0.028402064765  , -0.149089048923  , -0.103223170398  , -0.065277798997  , -0.094124738684  , -0.038183563184  , -0.024776179823  , -0.028582912402  , 0.013946532553  , -0.062513068525  , -0.022340328244  , -0.057937321757  , -0.05935266815  , -0.030215322344  , -0.041833311447  , -0.064764129651  , -0.025348075947  , -0.048000189321  , -0.060845162593  , 0.006531391533  , -0.03321263348  , 1.043467806264  , 0.780999360409  , 0.693897250211  , 0.751978717226  , 0.577284681085  , 0.383668333927  , 0.146752619931  , 0.415866552468  , -0.130070116191  , -0.245005479116  , -0.509420643878  , -0.570253189182  , -0.326696851415  , -0.329911777912  , -0.370233822029  , -0.097089635167  , -0.252140998383  , 0.167303074707  , -0.000271264097  , -0.190906842709  , 0.311280023105  , 0.257340982642  , 0.237694003083  , 0.123974236144  , 0.323779817938  , 0.124280451382  , 0.268455760479  , 0.029350980877  , 0.056166397315  , 0.119136761821  , 0.124927272937  , 1.601867185698  , 1.192652263183  , 1.132835999988  , 1.043498181453  , 0.617589611143  , 0.50942762945  , 0.544899173279  , 0.539836995635  , 0.398302263378  , 0.363899689795  , 0.859893106262  , 0.820643550932  , 0.99181852222  , 1.356023292662  , 1.167898755363  , 1.408366268907  , 1.33774578291  , 1.222555125173  , 1.294585879193  , 1.114252224012  , 1.169504491806  , 1.039882525155  , 0.94621842097  , 1.044309411393  , 0.913165213749  , 0.892972771549  , 1.11275842568  , 0.994207252054  , 0.851067327283  , 0.902640884943  , 0.982639598784 );
	kernels[6] = compute_kernel(x,   -0.188271892142  , -0.194060481342  , -0.259032389189  , -0.22025257997  , -0.216971784422  , -0.272877981292  , -0.19503345985  , -0.129347628276  , -0.068832700157  , -0.035633988369  , 0.046864643495  , 0.037242045085  , 0.022016134817  , 0.077068702333  , 0.074474349124  , 0.138267527591  , 0.101016757853  , 0.022744608492  , 0.074007529536  , 0.102998214463  , 0.052203019065  , 0.004926022577  , -0.000766422856  , 0.009886774191  , -0.051052246908  , -0.020008101648  , 0.034897315288  , 0.026390589391  , -0.025357121745  , 0.036981976756  , -0.05366651758  , -0.708098369366  , -0.272682080882  , 0.016701050592  , 0.805968070599  , 1.283506201164  , 1.131394439761  , 0.691901940216  , 0.857864975719  , 0.653582573321  , 0.308741231579  , 0.175845923892  , -0.457264165359  , -0.341634428088  , 0.014136013589  , -0.144780771131  , 0.026839068034  , -0.348263670558  , -0.576954957521  , -0.592813737606  , -0.320246870057  , 0.017124899899  , -0.275543909599  , -0.351605230526  , -0.408021904945  , 0.228929696944  , 0.183084158897  , -0.025529166015  , 0.16588387255  , 0.120668553591  , 0.056710931001  , 0.063975821842  , 1.530826375376  , 1.461823173369  , 1.979240681057  , 1.733609856528  , 1.557006998669  , 1.074495028974  , 0.891525242686  , 0.558555590198  , 0.252656531238  , 0.445456183268  , 0.371416247641  , 0.537249751364  , 0.393760751726  , 0.706600355039  , 0.608663736513  , 0.738094900836  , 0.943683827952  , 1.001998622417  , 0.890802913641  , 1.050990294659  , 0.768636508117  , 0.958155593029  , 1.262085571963  , 1.154477508347  , 1.133088047915  , 1.154817449071  , 1.37046486158  , 1.086284964157  , 1.132561480644  , 0.791638167772  , 0.835185314985 );
	kernels[7] = compute_kernel(x,   -0.109776267495  , -0.091193062745  , -0.110152473834  , -0.09854712424  , -0.113419438346  , -0.021100783253  , -0.01265823959  , 0.04895653466  , 0.086836718613  , 0.036117949819  , -0.026825966517  , -0.10030536922  , -0.092986069171  , -0.128704647922  , -0.067762586214  , -0.057620430078  , -0.054376488004  , -0.062293514221  , -0.107428005094  , -0.071753368598  , -0.088736578724  , -0.065438532018  , -0.065959271767  , -0.096826213738  , -0.079356942939  , -0.07676468482  , -0.06509021234  , -0.075849642201  , -0.076514183668  , -0.055121199231  , -0.07218511807  , 1.056638473449  , 1.079175283327  , 0.78673481222  , 0.407513075321  , 0.454576630336  , 0.457005766001  , -0.081872245477  , 0.317867571541  , 0.053680326549  , -0.251235203547  , -0.253219884201  , -0.512715203873  , -0.578586076647  , -0.555648239454  , -0.47490004557  , -0.406621609184  , -0.159872449313  , -0.331280158343  , 0.092229841107  , 0.391398341287  , 0.157678335051  , 0.529259761517  , 0.380355384607  , 0.15803049465  , 0.262339481688  , 0.346805253007  , -0.093051959083  , 0.022984033017  , -0.070665173475  , 0.163710910519  , 0.1646687795  , 1.721641945323  , 1.436451695072  , 0.922360311147  , 0.878506858148  , 0.687400843849  , 0.586388849129  , 0.421059085531  , 0.06324544368  , 0.321612318827  , 0.328144381728  , 0.516324058281  , 0.873441124545  , 1.079791895966  , 1.209587679516  , 1.110932729935  , 1.199232497019  , 1.154633823507  , 1.294742530795  , 1.333587352801  , 1.142976894926  , 1.175910386487  , 1.247467042441  , 1.181018903661  , 1.067445511156  , 0.959861892001  , 0.870509763553  , 1.103902131342  , 1.075223563322  , 1.097780283141  , 1.098088199629  , 0.86285759396 );
	kernels[8] = compute_kernel(x,   -0.27648927952  , -0.308927182414  , -0.265943346874  , -0.222321809926  , -0.173188639652  , -0.139121399348  , -0.055536572216  , -0.052309957589  , 0.013760697219  , -0.00763509031  , 0.012620576816  , 0.000155671645  , -0.003469929173  , 0.034202086246  , 0.039228161662  , 0.00378353159  , 0.110744193887  , 0.065732393034  , -0.002463689378  , -0.003163345753  , -0.013085720044  , -0.016364731971  , -0.050792436146  , -0.013484439092  , 0.014978239738  , -0.003346352439  , 0.030751329486  , -0.01633572855  , -0.052380493063  , 0.001824068477  , -0.005254060228  , 0.569855583728  , 0.706645318466  , 1.088138015105  , 0.927907693369  , 0.789286991306  , 0.806584735574  , 0.505917233497  , 0.65847517861  , 0.07457386645  , -0.285887255764  , -0.179125338116  , -0.703249518897  , -0.387863197786  , -0.580060029518  , -0.608420102945  , -0.713289422369  , -0.407369266916  , -0.391089924611  , -0.107234092287  , -0.431856698802  , -0.403004324787  , -0.174086358702  , 0.156179375287  , 0.027665980861  , 0.229899492712  , -0.014194305244  , 0.223090501317  , 0.117039908021  , 0.08359289992  , -0.168639152002  , -0.0093032632  , 2.143811217039  , 1.75332684042  , 1.639077425796  , 1.136410655875  , 0.868957576103  , 0.316952571927  , 0.332351659529  , 0.139540970984  , 0.026940588849  , -0.018328495749  , 0.619613567107  , 0.557772873705  , 0.835846821058  , 1.075520105942  , 0.931825978452  , 1.220698179413  , 1.277249154937  , 1.207184897957  , 1.329357887202  , 1.276769807842  , 1.237926869402  , 1.166833231339  , 1.179309022807  , 1.161307390952  , 1.020255442428  , 0.909437271759  , 1.02341953511  , 0.898899445337  , 0.97170413791  , 0.977387122661  , 0.90093227415 );
	kernels[9] = compute_kernel(x,   -0.17418017441  , -0.152660831129  , -0.013863362278  , -0.059383823598  , -0.125380970869  , -0.077943459212  , -0.091376192274  , -0.106532611176  , -0.110783622917  , -0.087352406611  , -0.031291418039  , -0.058252809771  , -0.019852159301  , -0.03798198318  , -0.008129207136  , 0.016006227887  , -0.032077768878  , -0.034000336403  , -0.043064064303  , -0.040334672039  , -0.001384752288  , -0.02263276661  , -0.041641938097  , -0.055920554678  , -0.047107418363  , -0.053468493959  , -0.033585138417  , -0.047439710678  , -0.037641302767  , -0.043838791778  , -0.025604005668  , 0.638060600358  , 0.59492563947  , 1.608751158055  , 1.07101915407  , 0.546078606761  , 0.333953772483  , 0.429960592288  , 0.627231969788  , 0.384296394178  , -0.078410637615  , -0.139982983973  , -0.34258444631  , -0.546010423912  , -0.240492076932  , -0.638838860031  , -0.408370818035  , -0.563420106529  , -0.526542433173  , -0.224519850059  , -0.105553234743  , 0.133066608414  , 0.03908266956  , 0.225010058085  , 0.419929178196  , 0.226097566147  , 0.164539475988  , -0.073022104302  , 0.07355365832  , -0.048138084172  , -0.102407905213  , -0.282187725866  , 1.836292745385  , 1.384316681342  , 1.220261434815  , 1.27129050184  , 0.574365518676  , 0.436731747442  , 0.472118675774  , 0.538703234671  , 0.653417831034  , 0.576122890035  , 0.667199768694  , 0.565763038409  , 0.794978938196  , 0.848592629137  , 1.030845320792  , 0.910927356853  , 1.133113349815  , 1.19501745095  , 1.301456050185  , 1.366969606982  , 1.24041093312  , 1.100388900849  , 1.058333978061  , 1.118044221289  , 1.013122158422  , 1.005270353236  , 0.8699680039  , 0.903128981368  , 1.039002545871  , 0.996958652269  , 1.008667546378 );
	kernels[10] = compute_kernel(x,   -0.279593861016  , -0.021445964292  , -0.068749146434  , -0.109506824781  , -0.055567571394  , -0.131503524998  , -0.095455837771  , -0.109561324304  , -0.139666536959  , -0.11080995736  , -0.009208327489  , -0.063044581824  , -0.070215102358  , -0.094491542323  , -0.080812355302  , -0.06956912766  , -0.086684151641  , -0.041792588351  , -0.074439657454  , -0.018577258641  , 0.005757573177  , -0.088266682055  , -0.130075911081  , -0.11052112428  , -0.043408484926  , -0.055822862421  , -0.064600709339  , -0.057512712968  , -0.056987679617  , -0.073959301405  , -0.0088868334  , -1.112633907546  , -0.168730355915  , -0.042788857385  , 0.619346865374  , 1.09891812894  , 0.953551189328  , 0.601965061656  , 0.84517762121  , 0.223928669253  , 0.230063313095  , 0.047629269644  , -0.255778886423  , -0.217393223032  , -0.493074167393  , -0.512234689152  , -0.634270486141  , -0.440850883719  , -0.323094767138  , -0.402156688908  , -0.150942205971  , -0.138878751539  , -0.283961841493  , 0.276904109922  , 0.173889384431  , 0.295698824214  , 0.586491098682  , 0.432977026537  , 0.219767103157  , 0.24359888787  , -0.065835022232  , 0.285300640128  , 1.32379388014  , 1.402761961318  , 1.525123112465  , 1.62835202192  , 1.302096297688  , 1.047641367987  , 0.812173194691  , 0.503181233092  , 0.706201045116  , 0.237853364441  , 0.513600963122  , 0.575875657013  , 0.746591615854  , 0.785345441916  , 0.951916316734  , 0.726730696472  , 1.077385749366  , 1.112847343742  , 0.876259608846  , 1.164839112585  , 1.249858253042  , 1.228407351067  , 1.2489392434  , 0.960541119325  , 1.364821154664  , 0.891884109733  , 0.974565662874  , 0.968069405821  , 0.830906426387  , 0.95754916144  , 0.993155931744 );
	kernels[11] = compute_kernel(x,   -0.242819227573  , -0.225680859425  , -0.102421480597  , -0.144546698712  , -0.048354323358  , -0.008943580236  , -0.081671468703  , -0.065276649648  , -0.145590524163  , -0.102101011734  , -0.048776918502  , -0.078656812461  , 0.012081629484  , -0.076023207475  , 0.000127384271  , 0.085385022544  , 0.002605706172  , 0.06368910339  , 0.043602208039  , -0.012060966689  , -0.080254736615  , -0.030918606507  , -0.050742647378  , 0.039890663457  , 0.053897074278  , -0.006570081383  , -0.022024199591  , -0.044379586269  , -0.050416181202  , -0.098653592932  , -0.025083774664  , -1.079649376474  , -0.231920316393  , 0.642919764091  , 0.701183874481  , 1.01060305366  , 1.008918163206  , 0.699857394045  , 0.679783472276  , -0.093685333589  , 0.001492736594  , 0.010423430328  , -0.045730763536  , -0.121410954339  , -0.632752115791  , -0.247766675264  , -0.354588603391  , -0.140420711431  , -0.195621380756  , -0.08437193327  , -0.152177487278  , -0.08518398783  , 0.304793017807  , 0.028796468583  , 0.23094771855  , 0.033227654768  , 0.302650250947  , 0.346657813618  , 0.124418584495  , -0.032689979653  , 0.083765391289  , -0.053891587819  , 1.329426611251  , 1.526969767094  , 1.537212519317  , 1.639157890236  , 1.165555118677  , 0.851103302503  , 0.88972536049  , 0.635667642138  , 0.478627588622  , 0.291814798867  , 0.474437670541  , 0.59683300936  , 0.664802610606  , 0.796605719288  , 0.835294995353  , 1.116508369496  , 1.290698475193  , 1.124779997011  , 1.323167362372  , 1.268035732891  , 1.164900079691  , 1.295928310466  , 1.156801885073  , 0.81082909976  , 0.983352159048  , 0.94943792388  , 1.016298625903  , 1.061357804862  , 0.919413933698  , 0.771983658587  , 0.986390805516 );
	kernels[12] = compute_kernel(x,   -0.192219955899  , -0.174407464449  , -0.155320018305  , -0.191506597159  , -0.236279162413  , -0.233372596295  , -0.308522975142  , -0.309558775633  , -0.196903295341  , -0.175837018247  , -0.127706519077  , -0.078445518294  , -0.060960066526  , 0.055173152261  , 0.059071372427  , 0.127003355162  , 0.063210328055  , -0.078708010499  , -0.159609712753  , -0.190687082452  , -0.141822628518  , -0.139511331378  , -0.138344153393  , -0.140767039778  , -0.083269459539  , -0.106763252527  , -0.088815059921  , -0.078843730632  , -0.032140588002  , -0.045826820587  , -0.027949243582  , -0.936337788261  , -1.398893908841  , -1.13467463953  , -0.942772602418  , -0.997494602533  , -0.513385005547  , -0.209775662302  , -0.107337642741  , 0.545309809999  , 0.165394796073  , 0.539206706166  , 0.63456810909  , 0.759404173944  , 0.816148490405  , 0.445195056704  , 0.441594142324  , 0.408053645525  , 0.385159180846  , -0.053789599579  , -0.205292403758  , -0.227898365487  , -0.202663275653  , 0.01446873799  , -0.276791100989  , -0.22125170627  , -0.169414634112  , 0.017453143199  , -0.135024598316  , 0.097000275022  , -0.189094799397  , -0.244356022676  , 1.648246051866  , 1.195975496754  , 0.997183898798  , 0.823530028633  , 0.708968351771  , 0.639017953293  , 0.511865815916  , 0.07529146025  , 0.205500346899  , 0.124602372772  , 0.117623125451  , 0.717837668558  , 0.916095770306  , 1.327459538314  , 1.102837244707  , 1.152189061955  , 1.32491064218  , 1.449085793547  , 1.581835164195  , 1.251806344233  , 1.246006601687  , 0.951672280131  , 1.144148553216  , 1.056052798174  , 0.844168890505  , 0.891991004636  , 0.910796815104  , 0.834824713785  , 0.789757594949  , 0.980692941393  , 1.077273437063 );
	kernels[13] = compute_kernel(x,   -0.027433486206  , 0.203981406977  , 0.063822325201  , -0.038895790634  , -0.182955412531  , -0.238120601646  , -0.256582852608  , -0.218045801247  , -0.280900824041  , -0.196314405119  , -0.180169788469  , -0.141425805914  , -0.062087982849  , -0.071066133243  , 0.219744322365  , 0.155517004471  , 0.242256821911  , 0.249003836514  , -0.009794424513  , 0.079615329368  , -0.023131771136  , -0.000383398559  , -0.103775256978  , -0.078724511472  , -0.05380999143  , -0.047721162521  , -0.030960731761  , 0.007210058103  , 0.021430442169  , 0.07223136903  , 0.017777922852  , -0.566699885109  , -0.779095353677  , -1.079244625524  , -0.89588339349  , -1.012110879539  , -0.613297006666  , -0.71412227071  , -0.616085675418  , -0.029737856235  , 0.04201118465  , 0.719844878677  , 0.249706587187  , 0.309230228771  , 0.755571386318  , 0.937942050432  , 0.914172612371  , 1.217458696705  , 0.597940787886  , 0.528740832409  , 0.044634581453  , -0.015498217868  , -0.076715859923  , -0.212917268978  , -0.413640722712  , -0.358310793598  , -0.151795430687  , -0.177701596803  , -0.208402563604  , -0.257169621518  , -0.297054736854  , -0.046356442726  , 1.947555992133  , 1.449466704097  , 1.57946873243  , 1.083073294926  , 0.703327771837  , 0.764272861039  , 0.398259766794  , 0.284591389782  , 0.264144039026  , 0.108922683118  , -0.010010345918  , 0.393645005787  , 0.497600505282  , 0.789016962364  , 1.048799999395  , 1.154769928036  , 1.25078248266  , 1.225709712825  , 1.099934759175  , 1.268409390051  , 1.202774240035  , 1.168300880579  , 1.09953395956  , 1.081351076789  , 1.060868629979  , 0.900356933506  , 0.91235306761  , 1.136254331557  , 0.973278923078  , 0.767335570202  , 0.851752989496 );
	kernels[14] = compute_kernel(x,   -0.165490209314  , -0.184227541261  , -0.200018877875  , -0.216076327936  , -0.276358113699  , -0.235124604334  , -0.217048988523  , -0.153064759096  , -0.291342530448  , -0.210345267722  , -0.079907975045  , -0.05712316412  , 0.069659600572  , 0.04230025793  , -0.003825740744  , -0.066501746064  , -0.005493540892  , -0.097309966064  , -0.069430468124  , -0.106499590396  , -0.094298971908  , -0.058014462588  , -0.056425896203  , -0.067851881892  , -0.045920026608  , -0.032614476522  , -0.040046497651  , -0.084249784997  , -0.04445435681  , -0.021615746106  , -0.015397226764  , -0.780472145086  , -1.285683705487  , -0.920359615282  , -0.92762574698  , -0.611858726262  , -0.35424929774  , 0.034501731659  , 0.113677303155  , -0.103253673302  , 0.985691142684  , 0.511748809895  , 0.993456467745  , 0.840795177953  , 0.706517152683  , 0.469408539514  , 0.492460870343  , 0.266384743037  , 0.14726280539  , -0.094203871859  , -0.315135413607  , -0.429806657023  , 0.036072701707  , -0.313973003005  , -0.26652113754  , 0.105667068653  , -0.038999763047  , 0.081517731587  , -0.077948538488  , 0.146347740394  , -0.245309224321  , 0.147842629546  , 1.508884342701  , 1.528158512993  , 1.05205867626  , 0.800105225458  , 0.713833417283  , 0.53249912898  , 0.388876153457  , 0.314533654349  , 0.139550356539  , 0.362531277525  , 0.312622622431  , 0.514225221622  , 0.986082499694  , 0.753740870989  , 1.33901298968  , 1.356066527605  , 1.478756331673  , 1.281213529926  , 1.378206160307  , 1.093340863822  , 1.06216806506  , 1.098852978723  , 0.855533536279  , 0.910471603506  , 0.990525166141  , 0.994627417574  , 0.786007707998  , 0.955387298966  , 1.107223419893  , 1.041996864847  , 1.158701645195 );
	kernels[15] = compute_kernel(x,   -0.200112864058  , -0.114214857763  , -0.232200513792  , -0.23897817034  , -0.327710415375  , -0.275873147104  , -0.25186819541  , -0.234174076771  , -0.139698864853  , -0.268525963682  , -0.117652868873  , -0.207993926427  , -0.069484267075  , 0.066625153398  , 0.012568100374  , 0.050104445177  , -0.007011733524  , -0.014368948297  , 0.1429343979  , -0.033778112988  , 0.065709194773  , 0.014344130313  , -0.171755003091  , -0.065331351933  , -0.112813376243  , 0.009281462685  , -0.059050752633  , -0.019296452702  , -0.069652170328  , -0.028410187223  , 0.017468662217  , -0.562763450384  , -0.975282920433  , -0.977756200411  , -0.965909595418  , -0.982070831664  , -0.948109021715  , -0.568521726995  , 0.09087324428  , -0.513798786867  , 0.014705978631  , 0.233280334328  , 0.323851788773  , 0.494314434706  , 0.885991413056  , 1.354145867647  , 1.117847416807  , 0.748880480543  , 0.39719907839  , 0.428751417037  , 0.469015967118  , 0.007830110573  , -0.302609372621  , -0.448057337012  , -0.765213352549  , -0.545649617843  , -0.537047810198  , -0.021681565492  , -0.082212055092  , 0.020971309663  , -0.233558534488  , -0.119396891333  , 1.621155688954  , 1.531127529114  , 1.602645274075  , 1.141545261711  , 0.762693785913  , 0.399259182016  , 0.335234644491  , 0.236297643724  , 0.235582814236  , -0.003861729413  , 0.180743668947  , 0.282499681744  , 0.209621593125  , 0.657066166673  , 0.952429912685  , 1.196714177106  , 1.375890884356  , 1.260970231106  , 1.660699573692  , 1.614737212017  , 1.375759017933  , 1.090240215063  , 1.177413738673  , 1.113700693957  , 1.211707564895  , 1.1314494653  , 0.933671121395  , 0.862094831039  , 0.917790270004  , 1.058875064659  , 0.965139431561 );
	kernels[16] = compute_kernel(x,   -0.128483323055  , -0.3234227627  , -0.328504110766  , -0.136566673272  , -0.091696462488  , -0.102439686714  , -0.071905253276  , -0.126649882698  , -0.217141964503  , -0.216811044137  , -0.282955937899  , -0.135211167723  , -0.21136442948  , -0.216530923315  , -0.008400051544  , 0.096534778166  , 0.161747910829  , 0.184776474673  , -0.023012120947  , 0.140497836859  , 0.108367870999  , 0.085120072378  , 0.127572165457  , 0.055016487516  , 0.10740091799  , -0.004659232689  , 0.018255281769  , -0.006772275182  , 0.10901420129  , 0.024668261091  , 0.068778966331  , 1.160254425346  , 0.251930744907  , -0.390819999174  , -0.910806014456  , -1.252374132649  , -1.268260721387  , -1.266776334147  , -1.1704113368  , -0.88540537023  , -0.324332344394  , -0.218374172483  , 0.088166051947  , 0.309944594226  , 0.369632994254  , 1.08760986023  , 0.612837329292  , 0.844336058155  , 1.134322690916  , 0.534689648501  , 0.692801995577  , 0.335514380543  , -0.185699405982  , -0.136198413109  , -0.200650279505  , -0.043017903385  , -0.693236692207  , -0.000703374743  , -0.18531084377  , -0.358657917764  , -0.11226110711  , -0.113664929541  , 1.121008462418  , 1.495434878843  , 2.182040377734  , 1.823542606337  , 1.435789364196  , 1.130688954244  , 0.928497057398  , 0.372692276035  , 0.557628129282  , 0.369807484066  , 0.215207100851  , 0.453622605937  , 0.531307673469  , 0.127120047536  , 0.439164204822  , 0.732080329838  , 0.707805609509  , 1.171161194061  , 1.434547565085  , 1.640006541047  , 1.529047588716  , 1.115363624531  , 1.242332797803  , 1.257329018138  , 1.064965974692  , 0.9424107417  , 1.102913789317  , 0.872652682741  , 0.971194769394  , 1.012132845411  , 1.029584553266 );
	kernels[17] = compute_kernel(x,   0.018764180832  , -0.061696416235  , -0.092885447496  , -0.234267336319  , -0.240376597495  , -0.301516221616  , -0.186836530036  , -0.101727564884  , -0.145465265219  , -0.135647818877  , -0.117224470526  , -0.083844538517  , 0.067392732084  , -0.020303674644  , 0.197971626709  , 0.086635946223  , 0.006006926648  , 0.084434300712  , 0.014021297977  , 0.109713814141  , 0.034893592809  , -0.051129139064  , -0.041239652009  , -0.045533239463  , 0.057390651777  , 0.000794976907  , 0.050095691917  , -0.02469574543  , 0.022762286419  , 0.035342906316  , 0.073174789085  , -0.751525712154  , -0.76255845781  , -0.861824123461  , -1.026444010365  , -0.976579213377  , -0.911852104221  , -0.060719238001  , 0.046296395681  , 0.422869270602  , 0.588630486751  , 0.374826422112  , 0.732837552574  , 0.989967642997  , 0.749905791762  , 0.96337027262  , 0.309290473663  , 0.20690440467  , 0.430254721795  , 0.253449508113  , 0.160919551823  , -0.426692311296  , -0.207821155347  , -0.501990921813  , -0.369180448442  , -0.380276180015  , -0.25413650864  , -0.243475669257  , -0.249073230961  , -0.311151921302  , -0.130641174932  , 0.044830055139  , 2.106160058949  , 1.876284401952  , 1.586716683465  , 0.991721993692  , 0.807842404074  , 0.11027997263  , 0.14586090725  , 0.17431930766  , 0.272943630452  , 0.084982208296  , -0.035789682654  , 0.815990841702  , 0.928279990394  , 1.111872096317  , 1.21747194646  , 1.303582764946  , 1.025604213373  , 1.314979038948  , 1.076892224123  , 1.095021320393  , 0.88530760256  , 1.277096763411  , 1.30865248288  , 1.263532219172  , 1.078241949436  , 0.821873821406  , 0.869725198087  , 0.722813769595  , 1.117019136984  , 0.760250495973  , 0.91069933618 );
	kernels[18] = compute_kernel(x,   -0.03673918959  , -0.024344730531  , -0.096047097924  , -0.198180521705  , -0.245930043387  , -0.192477090687  , -0.173230034216  , -0.287899457034  , -0.238978483142  , -0.258517798753  , -0.237203352558  , -0.219450139906  , -0.334831345695  , -0.069989042671  , -0.12498062564  , -0.002917060893  , 0.092233952591  , 0.141514526116  , 0.209745831703  , 0.020637000527  , 0.117185667894  , -0.073163459645  , -0.104809370354  , 0.055366977432  , -0.034008222908  , -0.042803632668  , 0.023999465202  , -0.003184209343  , -0.022381146023  , 0.059490302791  , 0.008755009357  , 1.218554655367  , 0.420352710909  , -0.273705654264  , -0.923173848848  , -1.436311955678  , -1.311769586062  , -0.789769406956  , -1.026475934555  , -1.147310378456  , -0.479642220357  , -0.094755410317  , -0.188941129178  , 0.778032762253  , 1.102138901332  , 0.397245022458  , 0.326315306847  , 1.077272167905  , 1.355550076889  , 0.910905601813  , 0.80323531777  , 0.389344000861  , 0.117946048832  , 0.539914901733  , -0.163966961259  , -0.570626218499  , -0.03969369784  , -0.307463849456  , 0.025127366426  , -0.113963258388  , -0.248721176878  , -0.307067776124  , 1.002308162204  , 1.620952905336  , 1.591030811931  , 2.198598359896  , 1.922673725517  , 1.335605814341  , 0.743680648435  , 0.858639838071  , 0.357970554038  , -0.080889259805  , 0.246951035282  , -0.080902336501  , -0.10049425646  , 0.281117871858  , 0.253786673177  , 0.631680290589  , 0.454658892188  , 0.844619723893  , 1.034622841403  , 1.236618396544  , 1.541061343126  , 1.616940582251  , 1.452945852052  , 0.965020130196  , 1.204727544552  , 1.194553053399  , 1.064644078251  , 0.947125960052  , 0.822852765863  , 0.699491706939  , 0.928752011417 );
	kernels[19] = compute_kernel(x,   0.124732226526  , -3.10585948209  , -3.789514361576  , -2.025627401678  , -1.488772571532  , -0.775735979875  , -0.702114180666  , -0.547241574054  , -0.858143626233  , -0.705000249326  , -0.827735026384  , -0.391750414244  , -0.837227351132  , -0.675402848937  , -0.960668329743  , -0.854714684738  , -0.430707062719  , -0.913470730847  , -0.777301524367  , -0.553723895797  , -0.979549154074  , -0.225169238588  , -0.644937358971  , -0.651246746394  , -0.059614247155  , -0.278835995333  , 0.162644514797  , -0.036780241705  , -0.037354170262  , 0.146775812744  , 0.129142650017  , -0.02179045829  , -0.844715482903  , 0.50973071869  , 0.543890447922  , -0.644671083948  , 0.233890958587  , -0.254764345146  , -0.01669224657  , -0.001486837077  , -0.193400418291  , -0.073723148205  , 0.149535799303  , -0.273335264787  , 0.157059349355  , 0.111447057936  , -0.034562908837  , 0.07833711556  , -0.274031577253  , -0.035492528632  , -0.027535801531  , -0.130826937728  , 0.012460128705  , 0.072562364246  , 0.083099169935  , -0.044145257964  , 0.0054135895  , -0.280626129745  , -0.158287209117  , -0.13612961363  , 0.013062232803  , 0.055230847285  , -3.013046768869  , -2.670754919325  , 3.696994161436  , 0.599936929099  , 1.036954043642  , 1.3260694319  , 0.397823888453  , 0.553255370582  , 0.912025720351  , 0.701316303133  , 0.793423221044  , 0.813558495972  , 1.092648988843  , 0.739487652962  , 0.694836990169  , 0.747797268184  , 0.946734901576  , 0.5502127145  , 0.550379811061  , 0.844848935595  , 0.610184433706  , 0.747953673679  , 1.802429696498  , 1.036952758805  , 1.280350001613  , 0.884209777058  , 0.952029860379  , 0.961459236678  , 0.824227505863  , 0.925996613491  , 0.92203534241 );
	kernels[20] = compute_kernel(x,   -1.105948315405  , -4.066466225047  , -2.924549855358  , -1.759662677711  , -1.028987805217  , -0.710558863731  , -0.503029089209  , -0.868646484853  , -0.682678385189  , -0.801062901706  , -0.162788051779  , -0.519720146331  , -0.75322676742  , -0.809525219633  , -0.714404169286  , -1.019140645543  , -0.791588363933  , -0.958161465743  , -0.480945766681  , 0.210785084438  , -0.473606511798  , -0.238386375939  , -0.061766409271  , 0.229342418441  , -0.083563254112  , 0.103882807046  , 0.138835231091  , 0.29989476441  , -0.033758530143  , 0.169453944474  , 0.249683221011  , -0.210478856914  , 0.110547257416  , 0.157154193371  , 0.032792728154  , -0.382994632426  , 0.572100742027  , -0.060733717081  , 0.087237006325  , 0.247702142558  , 0.025175055649  , 0.116557910075  , 0.063169857422  , -0.139106316476  , 0.083846353354  , 0.265401583407  , 0.27564172228  , 0.127234135864  , 0.283664182731  , -0.243533055028  , 0.154457174774  , 0.038265662094  , 0.074453471479  , 0.288134518016  , 0.160877305519  , 0.043170539738  , 0.140880632932  , 0.203490797739  , 0.099198236615  , 0.295037905069  , 0.22557631795  , 0.043553713655  , -3.92783515856  , -0.290414676486  , 4.462840657713  , 0.41520718677  , 1.973768832976  , 0.777268770957  , 0.99807630022  , 0.247160818229  , 0.786580745719  , 0.373681065074  , 0.798475026007  , 1.099932579481  , 0.412652203704  , 0.834611939853  , 1.255080042163  , 0.708439393471  , 1.100805500045  , 0.63561258832  , -0.100281854353  , 1.135161934607  , 0.734822666831  , 0.453668084591  , 1.186447902105  , 0.896766051336  , 0.812586959489  , 1.007570735592  , 0.881090726531  , 0.645820071415  , 1.236619941529  , 0.855582009352  , 1.26357826201 );
	kernels[21] = compute_kernel(x,   -0.315909823422  , -0.834612930539  , -0.822283807834  , -0.106087286225  , 0.179589100373  , 0.08239478313  , -0.203578636469  , -0.347331592008  , -0.058705059846  , 0.05945175915  , 0.062843399418  , -0.024108301944  , -0.075408566206  , -0.193766094083  , -0.044956748414  , 0.000836051163  , 0.035503715845  , 0.011576722296  , 0.040432772827  , -0.020304775209  , 0.010475675922  , -0.055856126581  , 0.012804133392  , 0.09882885413  , 0.213644440409  , 0.095131245694  , 0.113281141547  , 0.249598890013  , 0.052276102636  , 0.186739371199  , 0.116131680613  , -0.612401671196  , -0.182735606388  , 1.222331387338  , -1.310780325294  , -1.211264003876  , -0.291106770379  , 0.569074315886  , -0.144756105581  , -0.795754502767  , -0.236838940324  , 0.185532316312  , -0.230113019607  , -0.0848262397  , -0.000618385744  , -0.382623577946  , -0.255463785676  , 0.151880492392  , -0.32092583704  , -0.167615024488  , -0.011712690503  , 0.007318893577  , -0.086499903559  , -0.021447864245  , 0.074329318055  , 0.04754590336  , 0.08982417703  , -0.285831895231  , -0.062801623649  , -0.041238876404  , 0.080451440292  , 0.133251849364  , -3.049239149373  , -0.905297324969  , 2.791946402902  , 3.384212762388  , 2.902679201312  , 0.377455343122  , 0.562311526986  , 0.834499471877  , 1.765070987055  , 1.137445366413  , 0.987293146619  , 1.355291738382  , 1.03839392006  , 0.732948127807  , 0.451806228342  , 1.306200466804  , 1.180381712379  , 1.388742720535  , 1.301426750049  , 1.263536891756  , 1.076194421874  , 1.523995326022  , 0.427224756809  , 0.376860193909  , 0.948094578224  , 0.144875459646  , 0.509799862215  , 0.434524456887  , 0.651247323426  , 0.632334492036  , 1.020343579269 );
	kernels[22] = compute_kernel(x,   0.008050092067  , -3.354882606774  , -3.695838929875  , -1.563672996946  , -1.456487606694  , -0.526061758793  , -0.973252081601  , -0.817355053098  , -0.842978399908  , -0.45013303147  , -0.617332594784  , -0.150226530017  , -0.169567624622  , -0.09879896143  , 0.021843198224  , -0.057630693934  , -0.032443343237  , -0.38828321791  , -0.342954190369  , 0.029621139884  , 0.151376428348  , 0.049890279997  , -0.15601210381  , -0.073500695575  , -0.191244656285  , 0.138131914687  , 0.862928270474  , -0.151654454147  , 0.18538067975  , 0.307495040565  , 0.598962592712  , -1.167552707893  , -0.853827087295  , 2.872474111776  , -0.941618349827  , 0.402473782352  , 0.139066607567  , -0.379192929732  , 0.386456925842  , 0.164316841588  , -0.241664670403  , -0.051356107799  , -0.010837556035  , 0.308082094172  , -0.247662779085  , 0.006205392332  , -0.056533354973  , -0.006385647403  , -0.073895260287  , -0.022837554147  , 0.006065352152  , -0.182044711843  , -0.078800599734  , 0.227905383644  , 0.271279613387  , -0.000753617301  , 0.238748269975  , -0.01071540566  , 0.11620545054  , -0.320319640487  , 0.318658632238  , 0.152925606397  , -4.181986366747  , -1.688676931111  , 3.378308378658  , 0.226046901993  , 1.641809497187  , 0.798393023167  , 1.225137493613  , 1.277758620807  , 0.698197480379  , 1.10431054914  , 1.227231745789  , 0.686738026335  , 0.877630476419  , 0.319209264529  , 0.406858627311  , 1.15237357935  , 1.332829727805  , 0.35275317173  , 0.533534990163  , 0.347722153307  , 0.298045490478  , 0.69326979736  , 1.368283840916  , 1.116617405575  , 0.833572304577  , 1.065675103243  , 0.744130074942  , 0.816840403713  , 0.887096082065  , 0.74226419217  , 1.168366231029 );
	kernels[23] = compute_kernel(x,   -0.160278556009  , -3.391438875005  , -3.546585712417  , -1.677279696193  , -1.282647364369  , -0.992325864396  , -0.818891666435  , -0.857887111433  , -0.419616001215  , -0.962025427339  , -0.426584089226  , -1.030336473843  , -0.296005322703  , -0.447480558574  , -0.90295117094  , -0.218091824431  , -0.262668191211  , -0.563466743597  , -0.046031894867  , -0.116200260256  , -0.134104056474  , 0.069301498826  , 0.02622868739  , 0.180717205536  , 0.241926330971  , 0.088041975144  , 0.201826935928  , 0.110012418977  , 0.035559021499  , -0.145444125393  , -0.056772987502  , -0.661438349861  , -0.441999518027  , 0.820630565685  , -0.15710520832  , 0.084658590332  , 0.235378749393  , 0.077129924664  , 0.254822777292  , 0.035279696243  , -0.157710916085  , -0.00328275688  , -0.089153291701  , 0.007239122601  , 0.343769783939  , -0.037772171035  , -0.04353448671  , 0.065691332947  , -0.092046965133  , -0.060545069927  , 0.230809863541  , -0.075133525163  , 0.024470896781  , -0.097405855708  , -0.197320299861  , -0.059578029174  , -0.240059646321  , -0.041573867892  , 0.133979363526  , -0.125951684649  , -0.020053143125  , 0.188753756914  , -4.056090465603  , -1.478913431267  , 4.396854630183  , -0.943421654295  , 1.639452597954  , 0.877086999953  , 0.416050230468  , 0.833615712746  , 0.470608209038  , 0.82745005594  , 0.783054848688  , 0.734015666151  , 0.916619331436  , 0.953348624791  , 0.609526669216  , 0.660839163595  , 0.720683301826  , 1.551454389423  , 0.871569952459  , 1.493568119162  , 0.483739116797  , 1.044526687444  , 1.501381569374  , 0.398635698275  , 1.468962724856  , 1.058242289192  , 0.485518459327  , 1.309804197736  , 0.796727818101  , 1.214263934873  , 1.190034247849 );
	kernels[24] = compute_kernel(x,   0.276077626063  , -3.110324603605  , -3.549785552791  , -2.03864899599  , -1.476613951584  , -0.939222894391  , -0.798856730989  , -0.921313121953  , -0.580426502145  , -0.712953787769  , -0.910742543538  , -1.035613318397  , -1.093236010727  , -0.626320946753  , -0.723199456282  , -0.877354204355  , -0.695298943253  , -0.656904661815  , -1.16977046319  , -0.639233138534  , -1.005898545184  , -0.496080384989  , -0.6505103141  , -0.918313859505  , -1.018265041311  , -0.53580625296  , -0.075172436093  , -0.306983573519  , -0.666334041058  , -0.145478361772  , 0.033194518713  , -0.437778952609  , -0.715161220747  , 0.576868299365  , 0.079685925816  , -0.281359213146  , 0.512343647487  , 0.008723153137  , 0.031409472635  , 0.182697633902  , 0.09519401532  , 0.139209386353  , 0.020245969913  , 0.06321244362  , 0.109729232384  , -0.09330844022  , 0.125478464525  , 0.14337584681  , 0.017892439091  , 0.311949401681  , 0.057274998739  , -0.031969553233  , 0.293302764722  , 0.191298227508  , -0.057293098473  , 0.061845432014  , 0.064133008366  , -0.153485564199  , 0.079419412341  , 0.044846615061  , 0.037306449422  , -0.046654821325  , -3.620204018074  , -2.999735955485  , 3.95123756816  , -0.215363138713  , 0.882777125371  , 0.725346072784  , 0.454598441825  , 0.755696592125  , 0.651470510254  , 0.508003299663  , 0.020043668507  , 0.371592948334  , 0.334390343609  , 0.549208699764  , 0.785177900446  , 0.699415006009  , 0.692975389781  , 0.682918010684  , 0.511041000421  , 0.766049194514  , 0.92889330784  , 0.556850361078  , 0.773084331625  , 0.477837828022  , 1.112693605465  , 1.042717235365  , 1.357655198586  , 0.676510213802  , 1.173963633609  , 0.806244723454  , 0.717393712733 );
	kernels[25] = compute_kernel(x,   -0.74453082041  , -4.06724251283  , -3.080944877333  , -1.993992183344  , -1.351612182512  , -0.945091745972  , -1.035693275814  , -0.971296900632  , -0.362251723607  , -0.750957915726  , -0.720384694919  , -1.643566228326  , -0.947813278832  , -0.848435132726  , -0.960253492099  , -1.104462001522  , -0.837006418802  , -1.129595554989  , -0.899786537291  , -0.628152175394  , -0.658689521347  , -0.359158375405  , -0.464485249276  , -0.307075797309  , -0.797183485825  , 0.095518282015  , 0.308485194586  , 0.398401113941  , -0.125718489692  , 0.108727505042  , 0.148462882721  , -0.221159694297  , -0.735725788035  , 0.970842278334  , -0.033077008589  , -0.321342895324  , 0.305179337897  , 0.139535704744  , -0.007223784707  , 0.199990339711  , -0.047424935556  , -0.021568881647  , -0.11537998467  , 0.094550511694  , 0.02996604745  , 0.089888067853  , 0.0819259358  , 0.058014324284  , -0.058736541297  , -0.151753263372  , 0.23420076963  , 0.187414945103  , -0.243696774946  , -0.300316781573  , -0.065629312006  , -0.246573528659  , -0.105633753427  , -0.109801307177  , -0.18249861294  , -0.111448260812  , -0.100886236333  , -0.103287768742  , -3.168694149143  , -1.569848659774  , 4.040007766708  , 1.156593766132  , 1.585997276025  , 0.588712580068  , 0.384011859166  , 0.31443321352  , 0.879077656702  , 0.318433696276  , 0.446792252632  , 0.978336848202  , 0.445778757211  , 0.72247517926  , 0.234729298425  , 0.741732840668  , 1.658230026228  , 0.679836410526  , 1.299951501933  , 1.391322403405  , -0.101424354318  , 0.169525513372  , 1.031666294201  , 0.73174662005  , 1.050891222475  , 1.031459115729  , 0.49449000052  , 0.206187548351  , 1.232100525796  , 0.517914999049  , 0.309414224338 );
	kernels[26] = compute_kernel(x,   1.018874777007  , -0.320577698741  , -3.618526035745  , -3.271834584221  , -1.4924593477  , -1.412595530787  , -0.883967590582  , -0.573058669977  , -0.654294405355  , -1.099292929247  , -0.745150606861  , -0.769151835706  , -0.443031832847  , -0.634492662245  , -0.667137027455  , -0.904117712482  , -0.749049931423  , -0.628412534055  , -0.836745177462  , -0.345084886328  , -0.577740967971  , -0.69727615909  , -0.07800713729  , -0.291829804215  , -0.354465384735  , -0.262269862451  , -0.173006544863  , -0.470118384202  , -0.147744098799  , -0.405388125252  , 0.084384645938  , 0.295886383122  , -0.782444347874  , -1.018802947377  , 1.890167018116  , 0.01698787336  , 0.278751870347  , 0.029767109633  , 0.32831564786  , 0.079642203648  , -0.080583235553  , -0.348399394545  , -0.131596373056  , -0.09195079664  , -0.053958281682  , 0.187283510163  , 0.202039118027  , -0.024531870048  , 0.092766482486  , -0.003685495809  , -0.143208796365  , 0.016913648763  , 0.44410257953  , -0.215730730483  , 0.058679659022  , 0.250833144751  , -0.092854292247  , -0.205655022463  , 0.161280114496  , 0.113794097303  , -0.192388823866  , 0.04113919549  , -0.942290511701  , -3.2515452942  , -2.804198487777  , 3.813362178933  , -0.641278385221  , 0.920414550356  , 0.811960158242  , 0.836580128007  , 1.041142738885  , 0.410848430405  , 0.698561320994  , 0.563120772976  , 1.116507949711  , 0.721932502647  , 1.278128787071  , 0.408099059547  , 0.39823432405  , 0.497006118341  , 0.780755700163  , 0.647759896721  , 1.14687408741  , 0.984618400764  , 0.979392195541  , 1.349831181614  , 0.663904808182  , 0.759154335111  , 1.060234713767  , 1.056382802601  , 0.876607263969  , 0.237292279016  , 1.585167359266 );
	kernels[27] = compute_kernel(x,   0.159166396181  , -1.300781062698  , -1.576355771097  , -0.600319067768  , 0.095947453409  , 0.194429160096  , -0.306208835432  , -0.431315066734  , -0.17930436282  , -0.040979991459  , -0.132785191235  , -0.016562189559  , -0.242146941047  , -0.164508829492  , -0.011628120905  , -0.062698230566  , 0.092512873461  , 0.031142875853  , 0.151326329862  , 0.075207810431  , -0.035178250695  , 0.073005769493  , 0.028704576116  , -0.153355827819  , -0.064882930239  , 0.23794801618  , 0.068946114273  , -0.024039561009  , -0.064830004954  , 0.072390935394  , 0.09698047101  , -0.406241716685  , 0.211900123355  , 0.030044155336  , -0.142308429086  , 0.158159900441  , 0.532299393749  , 0.26743615137  , 0.021583205614  , -0.031312588608  , -0.079070884529  , 0.071648596686  , 0.155834303408  , -0.074398525823  , 0.08940759482  , 0.083974877627  , -0.105050350778  , 0.003253874973  , 0.042814521326  , -0.06756434915  , -0.097672629795  , -0.025347392811  , -0.155994096057  , -0.141147329891  , 0.074174548791  , 0.02249077759  , -0.031612169977  , 0.029044602204  , -0.047758026022  , -0.039523084529  , 0.027510302626  , 0.082198309612  , -1.713403800103  , 1.392060347377  , 3.879976697667  , 2.786455555772  , 1.711432315957  , 0.637286884653  , 0.932360884958  , 1.184485380204  , 1.278936454186  , 1.116498877935  , 0.881524295083  , 1.281492270163  , 1.357033227018  , 0.873497148408  , 1.516891862201  , 0.919814762088  , 1.036588336645  , 1.474714472162  , 1.14303841181  , 1.299134617956  , 1.214410247486  , 0.972144729955  , 1.324244522015  , 1.013415750794  , 0.71597442574  , 1.025227690291  , 1.119780861647  , 1.042390208197  , 0.822022712566  , 1.014911645959  , 1.380036220035 );
	kernels[28] = compute_kernel(x,   -0.916063734202  , -2.311176941484  , -3.183130511827  , -1.068099030311  , -0.003759503738  , -0.17122560204  , -0.123794375293  , -0.290214991216  , -0.294767243853  , -0.058112932239  , 0.253784833634  , 0.142083939826  , -0.085956298957  , -0.092339700151  , -0.211439492633  , -0.401127705699  , 0.172950857578  , -0.167650538028  , -0.162595249025  , -0.298245855312  , -0.615646975477  , 0.026161743999  , 0.037706538565  , -0.195971878358  , -0.018113344928  , 0.002556515413  , 0.281725559821  , 0.188395973245  , 0.089005616222  , 0.205410249804  , 0.063133241219  , -3.356574006106  , -2.17597200093  , 1.711999966633  , 3.614700546495  , 0.396557220281  , 0.082755156381  , 0.24954270884  , 0.397108032449  , -0.289335547423  , 0.173518075308  , 0.348396228412  , 0.250717583308  , 0.039475871703  , -0.086655216568  , -0.062186405454  , 0.208297196916  , 0.399330780871  , 0.497110297393  , 0.791277716272  , 0.528694414675  , 0.014051470307  , 0.370827435307  , 0.143484997496  , -0.079682419261  , -0.359033724339  , -0.095325542083  , -0.75660462258  , 0.055795906962  , -0.59755785991  , 0.054578856006  , 0.007337946227  , 0.971945173751  , 0.048181071771  , 2.209428954517  , 0.700660390926  , 0.917414059353  , 1.193762583173  , 0.722300934213  , 0.996356949503  , 1.277501784053  , 1.014392024386  , 1.075458785893  , 1.191382859882  , 0.642983768684  , 0.826742744194  , 1.05948747498  , 1.119925295297  , 1.080761432971  , 0.981577066068  , 1.226371602636  , 1.014556675766  , 1.172282674974  , 1.035100894285  , 0.780210719087  , 0.81754618731  , 0.778747268678  , 0.849153817453  , 1.097447485167  , 1.029820064695  , 0.948502996112  , 0.992344289201  , 0.925950174942 );
	kernels[29] = compute_kernel(x,   -0.915695405185  , -2.707763520225  , -2.477735429815  , -0.349681449421  , 0.065738196889  , 0.071150708041  , 0.048507792414  , 0.005983623675  , 0.261998666675  , 0.216715838906  , 0.126604571056  , 0.166796983185  , 0.362773314202  , 0.062679938689  , 0.149067785503  , 0.230050140128  , -0.085144610269  , -0.213619124812  , 0.198744502413  , -0.10914982844  , 0.043869940495  , 0.046173029379  , -0.25318175966  , -0.081776359427  , 0.129259514303  , 0.092187413148  , 0.054628494469  , -0.00999201362  , 0.162426659999  , 0.14611697585  , 0.276836777965  , -3.898987488901  , -2.039094225133  , 1.978245212999  , 3.218708162761  , 0.933252418712  , -0.495213545714  , -0.032078054241  , 0.49439961201  , -0.330756575936  , -0.333116250176  , -0.14204495779  , -0.780824717308  , 0.025049354748  , -0.20134565121  , 0.222427511694  , 0.491567403776  , -0.201061490822  , 0.066119261541  , -0.208199062282  , 0.315478209961  , -0.198352883518  , -0.375508020574  , -0.453173192735  , -0.983224309838  , -0.24205023451  , 0.372192845469  , -0.350915108628  , -0.232964561554  , 0.042627179029  , 0.113595090828  , -0.439134880147  , 0.73754657274  , 1.630865298022  , 2.54119541939  , 0.081979337792  , 0.235682140171  , 0.528683271738  , 1.044540345724  , 0.470089374927  , 1.018775251065  , 1.287892921269  , 0.6902014368  , 1.190174820315  , 0.956206415552  , 0.664426559903  , 0.885883393387  , 1.01394368932  , 0.923157182993  , 1.069921265538  , 1.124316213895  , 0.992103523846  , 1.073373102078  , 1.000341906114  , 1.084033893016  , 1.012818318258  , 0.832556252208  , 1.078752818655  , 0.788171658558  , 0.971932135143  , 1.037869341637  , 1.039723628408  , 0.997147990538 );
	kernels[30] = compute_kernel(x,   -0.44419892792  , -1.431523626755  , -3.106092545774  , -2.830625295976  , -1.047057373676  , -0.395689485473  , -0.161449879807  , -0.079798938084  , -0.238352733912  , -0.003322079962  , -0.074419449515  , -0.217824499464  , 0.109772090197  , -0.238442267253  , 0.010806381639  , 0.017934700546  , -0.574036560614  , -0.258597900919  , -0.00426963224  , -0.339723126083  , -0.345713422907  , -0.079321503893  , 0.163498883328  , 0.058454188317  , 0.244858119648  , 0.203281352961  , -0.0464883976  , -0.000914443163  , -0.011480343908  , -0.07029123392  , 0.147301913693  , -2.597281888368  , -3.932062853243  , -2.924751613309  , 2.832175124606  , 2.256644852894  , 1.14259808555  , 0.584130576333  , -0.332902814136  , -0.487594535081  , 0.444122990981  , -0.008464811791  , -0.321762272878  , -0.10875344651  , -0.151421515616  , -0.317959679496  , -0.050750527435  , -0.159955596481  , -0.333075158332  , -0.215037623493  , -0.827916792047  , -0.988804079929  , -0.391693107123  , -0.278262251151  , -0.48130725422  , 0.178570166929  , -0.593877606184  , 0.132724278325  , 0.034304988307  , -0.292371142902  , -0.399105335792  , -0.329650238943  , 0.193488870569  , -0.319452921843  , 0.155946601273  , 2.991154960693  , 2.053968775422  , 0.838736622207  , 0.327801075051  , 0.671394002898  , 1.069659158522  , 1.171758391409  , 1.106919010476  , 0.888546551082  , 0.717163581997  , 0.816863497767  , 0.396569549971  , 1.143466975791  , 0.782777443088  , 0.719838614594  , 1.216492868593  , 1.370895099231  , 1.061311864453  , 1.016047466642  , 1.085220814264  , 1.013094992757  , 0.851096680152  , 0.798893669165  , 1.318036068862  , 1.082641063416  , 0.872379053225  , 1.023563161012  , 0.885314994931 );
	kernels[31] = compute_kernel(x,   -0.73411771823  , -3.070417053504  , -3.566086806332  , -1.316685367767  , -1.04060320198  , -0.019575829901  , 0.151417525222  , 0.014501166414  , 0.070521953059  , -0.382076369012  , -0.07991806341  , -0.380346336238  , -0.197677854879  , -0.143641606279  , 0.035412333942  , 0.055799647396  , 0.027694973415  , 0.004810037637  , 0.056227388147  , -0.157131197363  , -0.288856807282  , -0.320876670893  , 0.210001805447  , -0.14209385789  , -0.237591687214  , -0.251659013463  , 0.173396979266  , 0.119262264344  , 0.307103866569  , 0.443113670339  , -0.084138088321  , -3.520615133033  , -2.78220112722  , 1.18223847403  , 3.351679296045  , 0.498498885576  , 0.319860756759  , 0.238695784381  , 0.301097937616  , 0.081930976395  , 0.10019612899  , -0.007804342011  , -0.29107929482  , 0.047131371814  , 0.263853868401  , -0.022723341652  , 0.012687939023  , 0.632372010403  , 0.707378732407  , 0.483778698869  , -0.066777987998  , -0.291776326511  , -0.461618320719  , -0.243049454966  , -0.275682103963  , -0.262785542319  , -0.492366978959  , -0.521270268962  , -0.259351386903  , -0.56765495123  , 0.470304929377  , -0.147893051003  , -0.26108545892  , -0.808189001372  , 2.493664999315  , 1.121372310749  , 1.180604407233  , 1.12993736946  , 0.956751723683  , 0.37109380439  , 1.32252348551  , 1.065133026016  , 0.791449888438  , 0.917876277898  , 1.001514873762  , 0.886040122455  , 1.235386451982  , 1.435877725644  , 1.085142174015  , 0.84368985683  , 0.545680127282  , 1.285344676571  , 0.80495359214  , 0.631672065469  , 1.31989239578  , 0.858061005639  , 0.749840032008  , 0.871781677503  , 0.906134641276  , 0.817446456849  , 0.889891747011  , 1.035594833448  , 1.078750201054 );
	kernels[32] = compute_kernel(x,   -0.490119371369  , -1.00101295695  , -0.682869711307  , -0.232214868464  , 0.028895465068  , 0.037642565768  , -0.043735503501  , -0.051890346343  , 0.021856754357  , 0.023565144347  , -0.002289050648  , 0.008172238641  , 0.025079980783  , 0.031987722926  , -0.000181956353  , 0.00080320721  , 0.02158901862  , 0.015404502905  , 0.022249660062  , 0.024949012215  , 0.030541270073  , 0.020079980783  , 0.034225785789  , 0.023434175778  , -0.010574862059  , -0.021098736333  , 0.012779332936  , 0.067181276478  , 0.091850955757  , 0.116452251452  , 0.132238062863  , -2.745358114107  , -0.397570782808  , 2.416979525102  , 1.027694753165  , 0.102553387009  , -0.114674278267  , 0.315279332936  , 0.118770295099  , 0.103559345747  , 0.04795549069  , 0.025649044243  , 0.084009037837  , -0.1337413021  , -0.034270974974  , 0.059339358558  , -0.079800647847  , -0.078280012811  , -0.0012471007  , -0.025973566364  , -0.005181956353  , 0.067369031432  , 0.030136767168  , 0.0887471007  , 0.238997440638  , 0.253143245643  , 0.147420019217  , -0.069009037837  , -0.262027113511  , -0.186958729927  , -0.327220667064  , -0.288143245643  , 0.453912860867  , 0.494203791002  , 2.056775573962  , 1.218262617012  , 0.833103855057  , 0.575877389394  , 1.018866472069  , 1.124185195591  , 0.840723226426  , 1.108803887085  , 1.138217427827  , 0.944743861463  , 0.880666440042  , 1.033684515716  , 1.002830320721  , 0.993616132132  , 0.97920838999  , 0.978354194995  , 0.97170838999  , 0.99045549069  , 0.952369031432  , 1.024145805005  , 1.03670259139  , 1.097294849248  , 1.138604534932  , 0.885062584984  , 0.917568383584  , 0.859413540742  , 0.924077421421  , 0.904607094295  , 0.917511597199 );
	kernels[33] = compute_kernel(x,   -0.523638993254  , -1.278232577177  , -1.314863572212  , -0.49466430884  , 0.167849597679  , 0.080455288691  , 0.1713222183  , -0.152795924413  , -0.051035869773  , 0.144718935807  , 0.031470872968  , 0.277536146661  , 0.280797564268  , 0.004397324355  , 0.193928265974  , 0.061566813706  , 0.01909345756  , 0.217763274614  , -0.037517122487  , -0.121831318558  , -0.060064276706  , -0.206188713934  , 0.162174487134  , 0.285050336076  , 0.090121769478  , 0.093726787055  , 0.151009376005  , 0.078358512952  , 0.112821789865  , 0.036051769906  , 0.217074655667  , -3.42735365527  , -2.451892209042  , 0.157869548468  , 3.116313172815  , 1.459800323765  , 0.410574219623  , 0.103602249485  , -0.380708504485  , -0.453594112836  , -0.044023380397  , -0.452931218886  , 0.387520007918  , 0.306127300841  , 0.246759967601  , -0.036259768272  , -0.085190914729  , 0.156006124134  , -0.292085193758  , -0.939687881084  , -0.538628544481  , -0.03694109245  , -0.472604794044  , 0.223862715359  , -0.117799055705  , 0.024914532555  , 0.041023519894  , -0.159336759159  , 0.030702508043  , -0.192449625824  , -0.422363056721  , -0.205654908129  , -0.003630840755  , 0.158422706894  , 1.458267432775  , 2.272968459287  , 0.999942495069  , 0.755322326258  , 1.035127920769  , 0.762238150705  , 0.820862245252  , 0.697746196362  , 0.988267361393  , 0.825934981351  , 1.061563863781  , 1.066399087154  , 0.984633676947  , 1.03911065346  , 0.778641778412  , 0.965714469105  , 0.946363395229  , 1.016485854438  , 1.018950508897  , 0.810650853889  , 0.859949402557  , 0.962996478743  , 1.136680830486  , 0.879573217707  , 0.947576131436  , 0.824719672045  , 0.894329348055  , 0.934655692771  , 0.890939270699 );
	kernels[34] = compute_kernel(x,   -0.707913365495  , -1.945780160375  , -3.34753738869  , -3.167373874204  , -0.414248826989  , -0.191665653794  , -0.45119900804  , -0.22142150253  , 0.089246329778  , -0.294815343193  , 0.340404413853  , -0.054845490494  , -0.289409408433  , -0.230239074375  , -0.54029860523  , -0.025538538007  , 0.394411414213  , 0.203711343481  , -0.318426699654  , 0.346911688024  , -0.001414252495  , 0.088592223263  , -0.317954842924  , 0.035919675528  , -0.029999794959  , -0.267131984166  , 0.558370417087  , 0.226360880643  , 0.071800462406  , -0.022166147481  , 0.346138385237  , -3.369840905272  , -2.955095924294  , -1.072372145437  , 2.570981420674  , 1.469045420604  , 0.529601266831  , 0.477479714806  , 0.076424568656  , -0.007083834478  , 0.147929087015  , -0.316420407519  , -0.065212236704  , 0.1424170079  , -0.468982685271  , -0.379477716951  , -0.319186395215  , -0.301286023074  , -0.47349920172  , -0.681633525214  , -0.635314153522  , -0.353816982586  , -0.524284873169  , -0.438191830875  , -0.165939268059  , -0.665494969227  , -0.2207232683  , -0.160290084897  , -0.543130261219  , -0.198349748768  , -0.374132014149  , -0.033498534198  , -0.205994909725  , 0.045021285565  , 0.805727103754  , 3.503665388367  , 1.182654519645  , 1.05931249466  , 0.858401718056  , 0.465437422601  , 0.881736435617  , 0.804616397806  , 1.184161901833  , 0.859501073543  , 0.834841420343  , 1.122581293357  , 1.047174130445  , 1.038466931448  , 1.043529119115  , 1.411083070699  , 1.312871052839  , 1.070069951501  , 1.009297653013  , 1.089723529621  , 0.666131761353  , 1.04880469394  , 0.975700345564  , 0.916993511958  , 1.207240026282  , 0.942548723087  , 1.152663118002  , 1.103552629425  , 1.113632645183 );
	kernels[35] = compute_kernel(x,   -0.553823390546  , -1.005588251104  , -1.042392289271  , -0.17807506891  , 0.294843214743  , 0.146352409416  , 0.07494332501  , 0.236207394624  , 0.118583226641  , 0.224890076351  , 0.235576565357  , 0.159911752136  , 0.107809554255  , 0.154051632842  , 0.190085106372  , 0.224443939097  , 0.228530318064  , 0.248631740046  , 0.288247582365  , 0.201411301458  , -0.041304107876  , 0.031852837812  , -0.002851168282  , 0.139800836435  , 0.279746504466  , 0.460431983516  , 0.191635428304  , 0.307316634461  , 0.226560006929  , 0.110864472482  , 0.086287883297  , -3.247625265351  , -2.117570319876  , -0.241093226596  , 2.611302675062  , 1.596349887237  , 0.580664018525  , 0.838916736458  , 0.901918389539  , 0.110590719829  , -0.248199898231  , -0.195110415461  , -0.467049118995  , -0.235950236083  , -0.623835708474  , 0.119475649267  , 0.052577963959  , -0.141423842339  , 0.230471130854  , -0.477439250936  , 0.311612267591  , 0.222146990605  , -0.220625806821  , -0.279320986221  , -0.148005771705  , -0.166059322743  , -0.01093130971  , -0.361383510222  , -0.07948254103  , 0.200169592172  , -0.672637864338  , -0.514434547558  , 0.076990532769  , 0.730776581702  , 1.260915281779  , 1.820748299718  , 0.921182958524  , 0.994066879318  , 1.013214385628  , 1.004017366109  , 0.980613833689  , 0.767563443546  , 1.007803761959  , 0.886387187837  , 0.89714346532  , 0.833789269773  , 1.034520991673  , 0.942928138264  , 1.023575056821  , 0.904363028741  , 0.983535787549  , 1.001092950959  , 0.87675759519  , 0.925711942225  , 0.863172049074  , 0.931553162227  , 1.047677939657  , 1.021861406673  , 0.940809862452  , 0.953531554066  , 0.976269403464  , 1.021270523389  , 0.920370977035 );
	kernels[36] = compute_kernel(x,   -0.81040375243  , -1.592121936051  , -1.524670699079  , -0.411524242423  , 0.090097059102  , -0.078391386919  , -0.02515023112  , -0.029325474218  , 0.132732649005  , 0.015973687585  , -0.184739236765  , 0.151267718735  , 0.260051056113  , 0.034553479339  , 0.169995039226  , -0.032132715369  , -0.009529109417  , 0.03607345083  , 0.178158188195  , 0.094458362723  , 0.224402690174  , 0.012288981058  , 0.016764493258  , 0.156648870224  , 0.211184045131  , 0.032773684936  , 0.206109768765  , -0.042173121154  , -0.016403264375  , -0.030177679599  , 0.145725076801  , -3.438250048527  , -2.855643364434  , 1.071218367551  , 3.367688812365  , 0.70079799721  , 0.460765568745  , 0.894061694291  , 0.00835065229  , 0.255450802375  , -0.003427426485  , 0.109604232799  , 0.375986084982  , -0.320389441839  , 0.018834699182  , -0.185563420553  , 0.340229257597  , -0.228414879645  , -0.369846234161  , -0.114720562241  , -0.803334753859  , -0.514902789816  , -0.375206268223  , -0.076383178642  , -0.630802775567  , -0.274032363038  , -0.29536762041  , -0.053704200018  , -0.045098256531  , -0.260170629572  , 0.041703723502  , -0.751896340875  , -0.130369208834  , 0.67093158834  , 1.775087373468  , 2.432279241412  , 0.627174513806  , 0.701552849565  , 0.696971576556  , 0.489041052989  , 0.732495776036  , 0.740494428434  , 0.957957876305  , 0.694539416348  , 0.933745933878  , 1.317884339028  , 1.061933658296  , 1.203503493694  , 1.173295885684  , 1.053784237882  , 0.884704922679  , 0.751309044374  , 1.159844596262  , 0.972178921602  , 0.942217403589  , 0.972135774982  , 0.835044582327  , 1.106684660697  , 0.956893793097  , 0.891287846983  , 0.991813947031  , 0.951180374435  , 0.945023837062 );
	kernels[37] = compute_kernel(x,   0.569165458334  , 0.005123001933  , -0.944547952294  , -1.418250163443  , -0.939758510858  , -0.872541071681  , -0.684664872713  , -0.299135558881  , 0.031715246969  , 0.195357986445  , 0.139899350787  , 0.053157645746  , 0.218080533988  , 0.020642047187  , 0.092475289563  , 0.220102904411  , 0.174242971231  , 0.146251453597  , 0.12487070992  , 0.108673829128  , 0.202965580951  , 0.207778472215  , 0.286427169833  , 0.160407962827  , 0.088831514823  , 0.005374883309  , -0.123878491332  , 0.002199559512  , -0.139795716086  , -0.285365474433  , -0.057134913371  , 3.097111330714  , 2.828408069189  , 1.725499389985  , -1.832855304902  , -1.785170059692  , -1.178009967033  , -0.688588892494  , -0.549086948163  , 0.406860165507  , 0.279740002353  , -0.09944041387  , -0.340819423784  , -0.311227520648  , -0.106840961236  , -0.186972214795  , -0.137457321757  , -0.166590022032  , -0.077261338861  , -0.053089712085  , 0.129650395728  , -0.405884236867  , -0.290523274333  , -0.163424479959  , 0.419564533134  , 0.121244196514  , -0.017876129572  , -0.522995143037  , -0.614511778956  , -0.627337048088  , -0.556030890681  , -0.344255402681  , 1.498339533666  , 1.464230247137  , -0.13923394793  , 0.195177912935  , 0.140605517837  , 0.867466951199  , 1.350028105533  , 0.942114787141  , 0.928200940859  , 0.872602359096  , 0.748048086894  , 0.910280995537  , 1.073869242057  , 1.20224312097  , 1.087181742708  , 1.107139307622  , 0.924106538589  , 0.887436865707  , 0.8922994004  , 1.162268587503  , 0.979995941319  , 0.860570608018  , 0.885670187753  , 1.123691652371  , 0.771058959451  , 1.140685755306  , 0.969812585003  , 0.958383185445  , 0.798896731777  , 0.9408813784  , 0.6330742547 );
	kernels[38] = compute_kernel(x,   0.083367530854  , -0.613420460861  , -0.43377465031  , -1.022112639819  , -1.070276559387  , -0.846885145264  , -0.550931448324  , -0.196487266595  , -0.117951074154  , 0.082631351826  , 0.069650430195  , 0.166816214724  , 0.027762626254  , -0.119660546583  , 0.158074074788  , -0.017427497432  , 0.12028516465  , 0.124465916502  , 0.141385090599  , 0.228693462698  , -0.014282495058  , 0.12048377899  , 0.013095629733  , -0.068372193005  , -0.021668815517  , 0.177985451832  , 0.044152255293  , -0.034198093086  , 0.063695870259  , 0.115721536808  , -0.189188885655  , 3.332881045374  , 2.755907535798  , -0.229034106712  , -1.404441535191  , -1.700508165068  , -1.623479845315  , -0.885725996787  , -0.505970964825  , -0.295553986564  , 0.20759093699  , 0.121696276309  , 0.057816472375  , 0.069019642846  , -0.323506363039  , 0.18381843291  , -0.364089162306  , -0.029827599947  , -0.240511530082  , -0.266826099299  , -0.296651161693  , 0.21817097498  , 0.099523853982  , -0.577553786987  , 0.023899136449  , -0.421484280743  , 0.036373490615  , 0.088831236562  , 0.499180106588  , -0.024681290837  , -0.053691514674  , -0.020076563775  , 1.660845058178  , 0.577163196131  , -0.070487690972  , 0.146813447215  , 0.53097379994  , 1.130432648904  , 1.11474916686  , 0.718267410895  , 0.869254808898  , 0.869872193288  , 0.644738505817  , 1.04602161322  , 1.013058563156  , 1.00959826943  , 1.111678216466  , 1.03043915154  , 0.844573292261  , 0.926078912697  , 1.126758397489  , 0.834187309016  , 1.047418340756  , 0.868124753292  , 0.956279015295  , 0.934947115391  , 0.967525450748  , 0.924072358827  , 0.895209791543  , 1.107574323366  , 1.029069778846  , 1.25145127919  , 1.129913709995 );
	kernels[39] = compute_kernel(x,   -0.554165805859  , -2.31011904766  , -1.693467490836  , -0.916446257376  , -0.739873127595  , -0.189762620718  , -0.162713978269  , 0.017047098052  , 0.188164840795  , 0.050707082914  , 0.162681044917  , 0.278662147801  , 0.014915328292  , 0.104611787864  , 0.515690176051  , 0.364209523418  , 0.141686463448  , -0.160847082065  , 0.003344931505  , -0.17416954234  , -0.178399731643  , 0.157521356464  , 0.21565993142  , 0.176346642932  , 0.264667390116  , 0.159836181699  , 0.066524978953  , 0.201445776214  , -0.08205754311  , 0.014511364309  , -0.30076039962  , 4.051205681309  , 3.088081543679  , -2.554927146987  , -2.987998963906  , -1.993694301905  , -0.655730162795  , 0.305732141106  , -0.131600294891  , -0.939527212478  , -0.654726785938  , -0.251368924776  , 0.088310916295  , -0.232027085989  , -0.14805796234  , -0.489770572984  , -0.32748003728  , -0.311858690877  , -0.629383603348  , -0.278737667367  , -0.093854001061  , -0.007839946735  , -0.085372135666  , 0.21991387393  , 0.590923130036  , -1.165469538899  , -0.109008482662  , -0.627465190789  , -0.577283983428  , -0.258676233782  , -0.616550661757  , -0.476468540449  , 2.027985217528  , 0.930669349607  , -1.817702047153  , 0.414425037395  , 0.597403009264  , 0.936921736734  , 0.616295217468  , 0.89622788981  , 0.388692428761  , 0.679128893477  , 0.945560874489  , 0.893109834711  , 1.173503122916  , 0.838138326003  , 0.83876793091  , 0.955681787798  , 0.832628867966  , 0.923252572306  , 1.318852660982  , 0.836675180502  , 1.02789597401  , 0.870074364258  , 1.112825513217  , 0.959136150396  , 0.84887408997  , 1.169600582979  , 0.851855312823  , 0.954826184514  , 0.593561802507  , 0.547094931046  , 0.888102501942 );
	kernels[40] = compute_kernel(x,   -0.012080477475  , -0.470967813391  , -0.960388030905  , -0.612494186411  , -0.475089789193  , -0.145372404699  , -0.060384562618  , 0.130711954363  , -0.035534650091  , 0.010166456093  , 0.162964609824  , -0.116616579238  , 0.147585840284  , 0.170739442679  , 0.118041167314  , 0.142136031603  , 0.102841487118  , 0.167292207268  , 0.212423879596  , 0.043577588833  , 0.154547092616  , 0.024849719184  , 0.065549975139  , 0.002564983889  , -0.046227431852  , 0.107445333508  , 0.166588895453  , 0.110200915384  , -0.0123817696  , 0.185823552328  , -0.003758965807  , 2.653186314874  , 1.567833866853  , -0.733862812191  , -1.435348304867  , -1.909375566595  , -0.882220143794  , -0.284366001715  , -0.147984845039  , -0.497191286585  , -0.285413279824  , -0.586460495192  , -0.372022004403  , -0.427445556389  , -0.718768952244  , -0.324172476468  , -0.075132340936  , -0.477337462121  , -0.545166373893  , -0.422760720249  , -0.602256138189  , -0.528509628617  , -0.459425086188  , 0.079013657505  , -0.413159432883  , -0.072866628821  , -0.089160573881  , -0.558077993909  , -0.803311225998  , 0.420826239976  , 0.301897884823  , -0.492445377002  , 2.009763018533  , 1.339234233495  , 0.419934050559  , -0.227077173482  , 0.385882896275  , 0.970658290082  , 0.92213222041  , 0.742337132665  , 0.835915338124  , 0.840113147196  , 0.979934943318  , 0.711268733784  , 0.90369567029  , 0.695175035371  , 0.902958534111  , 1.147858454569  , 0.856986282204  , 1.046961598587  , 0.93505970401  , 0.876696518862  , 0.976332452406  , 0.824763817316  , 1.02302759899  , 1.038502527521  , 0.98398725334  , 1.11152595013  , 0.845853215844  , 0.810000032991  , 1.008084535346  , 0.929425457887  , 1.064852319193 );
	kernels[41] = compute_kernel(x,   0.232742236561  , 0.091933741669  , -0.001323073797  , -0.185578614574  , -0.071961763497  , -0.221910198469  , -0.138355734906  , 0.003456800571  , 0.039868188474  , 0.058947274039  , 0.104298675215  , 0.292535007614  , 0.259822349276  , 0.356687218886  , 0.409192735705  , 0.361960806618  , 0.20936491396  , 0.205420069423  , 0.158632006121  , 0.013146424611  , 0.13648368375  , 0.207108904666  , 0.228151015018  , 0.37251735952  , 0.305164874101  , 0.352426829143  , 0.183545960349  , 0.248481717751  , 0.304071946514  , 0.283793029321  , 0.176026393964  , 3.023370890001  , 1.961444993251  , 0.499844807686  , -0.329194905156  , -0.658781516813  , -0.755510389235  , -0.357621163018  , -0.48221281075  , -0.395446676523  , -0.313545965786  , -0.242899726058  , 0.459660965729  , -0.097520851734  , -0.300278080465  , -0.258983178822  , -0.345710420928  , -0.371156777626  , -0.614817125892  , -0.608625085641  , -0.276087890734  , -0.218942149926  , 0.373296042786  , 0.061604766025  , -0.107116661111  , 0.331546284282  , -0.286186532567  , 0.297915341177  , 0.162465237636  , 0.208628398985  , -0.179755108326  , 0.185123053853  , 3.143405858124  , 1.870660023828  , 0.698600138591  , 0.210974934189  , -0.083959700953  , 0.400236118456  , 0.598971025181  , 0.631362306512  , 1.127004979654  , 0.80406728089  , 0.735387824249  , 0.859654732195  , 0.886291751813  , 0.857268281244  , 0.727702332573  , 0.824187403563  , 1.08171569401  , 1.083279491628  , 1.069025353096  , 0.85968834234  , 0.54724978334  , 0.905603038692  , 0.81390959061  , 0.929741192262  , 1.259309017963  , 0.926438748038  , 1.21866986273  , 1.068263997842  , 0.881758069765  , 1.119786437625  , 0.924634965807 );
	kernels[42] = compute_kernel(x,   0.369579447817  , 0.38047329867  , -0.231270830268  , -1.437389730255  , -1.24061378823  , -0.83065912248  , -0.451632074787  , -0.389102795735  , -0.092774269587  , 0.094719352027  , 0.167395226616  , 0.088032227879  , 0.155269799467  , 0.289070670669  , 0.128451899531  , 0.150501298982  , 0.012911796601  , 0.136781781568  , 0.134852408028  , 0.044479624526  , 0.181974683074  , 0.223825799259  , 0.172718329222  , 0.225192655943  , 0.073837445442  , 0.045738614198  , 0.110992671131  , 0.218766776084  , 0.011260234848  , 0.018516599454  , 0.057572223436  , 3.191454443436  , 3.04055629855  , 2.900121978109  , -1.043515140195  , -2.946076092609  , -2.197622802346  , -0.8739212046  , -0.431899188918  , 0.16714410857  , -0.318548537891  , -0.475870583708  , -0.4088022875  , -0.374198363742  , -0.3929639439  , -0.507185872525  , -0.499512803207  , -0.04653295886  , 0.052006910029  , -0.520513454253  , -0.516551293488  , 0.212429356786  , 0.173743826373  , -0.186420393845  , -0.551039235163  , -0.003959243156  , -0.130058768941  , -0.278561271495  , -0.255197185689  , -0.336116980186  , -0.179710321519  , -0.920271435986  , 1.808423737011  , 1.494725862964  , 0.280820796451  , 0.24395329968  , 0.148744819079  , 0.450220961425  , 1.353000389591  , 0.486468882815  , 0.540125497591  , 0.841082317729  , 0.637011279036  , 0.683274209168  , 1.02459764997  , 0.992368764587  , 0.91661866271  , 0.990596497122  , 0.879078297872  , 0.974243952457  , 1.010197782489  , 0.8917266373  , 0.924896386263  , 0.861620059689  , 1.109320149983  , 0.96847576113  , 1.034329965386  , 0.867026739477  , 0.859264781427  , 0.839054125251  , 0.880437430911  , 0.804737521051  , 0.987985478548 );
	kernels[43] = compute_kernel(x,   0.28029610492  , 0.221065213233  , -0.110779802492  , -0.743422262493  , -1.060768134998  , -0.692735218101  , -0.638188389615  , -0.403486430201  , -0.490105936109  , -0.191900241382  , -0.33204480764  , -0.067502355969  , -0.218452289997  , 0.022517348381  , -0.093704066686  , 0.135044961718  , 0.347033702118  , 0.19353410534  , 0.23774241312  , 0.075995991601  , 0.313356165607  , 0.349334224253  , 0.405510804837  , 0.298569608595  , 0.32483110474  , 0.070726390814  , 0.306612332241  , 0.205070990074  , 0.416287439471  , 0.21988985903  , 0.141159994457  , 3.460991377837  , 3.738949180802  , 1.419090857348  , -0.453664001606  , -2.588689337865  , -1.474998322865  , -0.685061888404  , -0.503096264115  , -0.732552833259  , -0.108001445982  , -0.659974781221  , -0.81812138679  , -0.880660205021  , -0.832462674877  , -0.180782274849  , 0.349321505301  , 0.142114404072  , -0.735627086669  , -0.093763926565  , -0.47998787046  , -0.252095462648  , -0.019303312317  , -0.11016866738  , 1.202393777567  , 0.474843577599  , 0.216731702436  , -0.425802180414  , 0.412994954742  , 0.110152807734  , -0.332874419028  , 0.601873734691  , 1.653729471303  , 1.181325547662  , 0.167247534405  , -0.139376526086  , 0.204160645594  , -0.22544093557  , 1.341730153251  , 0.899747618886  , 0.806516248621  , 1.067342331196  , 0.401170611554  , 0.575492561679  , 0.790685477676  , 0.936112850365  , 0.634833093024  , 0.821395792182  , 0.81232232539  , 0.867225441142  , 0.891234880505  , 0.557477868102  , 1.179823072227  , 0.940722986457  , 1.004740852475  , 1.228960508587  , 0.86910306369  , 1.318820049754  , 1.054329544749  , 1.06123411426  , 1.257839980823  , 0.897766344386  , 1.013651164624 );
	kernels[44] = compute_kernel(x,   0.464017940739  , 0.441967668669  , -0.09278898556  , -0.826374362506  , -0.992641672919  , -0.794951878922  , -0.716187743931  , -0.593160136515  , -0.349606641084  , -0.058627414285  , -0.004589657907  , 0.108113075456  , 0.048331110702  , 0.225264973711  , 0.110909336391  , -0.006345777085  , 0.179437349774  , 0.056992259854  , -0.097575041597  , 0.076705763258  , -0.09168364999  , 0.321456855333  , -0.150348368433  , 0.027048023522  , 0.250844826997  , 0.378705803881  , 0.24210360992  , 0.357623543787  , 0.393831607077  , 0.219351359211  , 0.351007245818  , 2.628618939479  , 3.076793619809  , 1.514995594579  , -0.337973710209  , -1.876282927578  , -1.285183387317  , -0.957679752158  , -0.352519094687  , -0.542331579342  , -0.256422585156  , -0.16970084351  , -0.19210399255  , -0.328804810364  , -0.291135704314  , -0.219313791552  , -0.384448682714  , -0.248562673696  , -0.544690171189  , -0.0885573545  , 0.020778053503  , -0.236058159352  , -0.256452394317  , -0.567228769177  , -0.001058522091  , 0.29794400641  , -0.27184256249  , -0.061704389527  , -0.307529178313  , 0.308218145826  , 0.611544625543  , -0.034619447248  , 1.847156120813  , 1.365605414932  , 0.831368522535  , 0.486045838005  , -0.242104945838  , 0.231327048277  , 1.31628767781  , 0.962143457973  , 1.028074682816  , 0.713139450715  , 0.507182604241  , 0.741767751154  , 0.759181944833  , 1.059559712342  , 0.841764761454  , 0.953502198009  , 0.765467672456  , 0.908192781286  , 1.016341669211  , 0.948551566828  , 0.90576793702  , 0.841810462801  , 0.83613983747  , 0.952798330705  , 0.812478499444  , 0.841565985454  , 1.152150910354  , 0.864410908078  , 1.031853586715  , 1.002416893196  , 0.852935427361 );
	kernels[45] = compute_kernel(x,   -0.190894539411  , -0.470594251465  , -0.2633417416  , -0.271491222094  , -0.422362426284  , -0.332601577249  , -0.236403746668  , -0.12670292078  , -0.065813136179  , 0.037093427428  , 0.048276236076  , 0.016918360394  , 0.048525663246  , 0.026294290991  , 0.0072256248  , -0.002125846382  , 0.015193930644  , 0.035386874303  , 0.112209710197  , 0.195372004014  , 0.103070728244  , 0.036255356785  , 0.043531907452  , 0.039147745774  , 0.028160950364  , 0.096370672532  , -0.003498159802  , -0.025358029091  , -0.091661530785  , -0.073095439364  , 0.008146018572  , 3.086569411393  , 2.155601470242  , -1.258221844323  , -2.019349955857  , -1.367559014909  , -0.581673574218  , -0.548708891606  , -0.245792772213  , -0.245239983651  , -0.307001038776  , -0.467075182521  , -0.559517884082  , -0.023210706832  , -0.121172613624  , -0.459112274478  , -0.323871872614  , -0.168308389449  , -0.093046556822  , -0.170338127732  , -0.038383988008  , 0.020179270346  , -0.463460105781  , 0.030511638474  , -0.161833439984  , -0.213063296507  , -0.440870194825  , -0.514975806365  , 0.179669625507  , -0.581923970991  , -0.453658905311  , -0.014552289307  , 1.121349136484  , 0.680711010938  , -0.689984842579  , 0.284328470921  , 1.050130095843  , 1.595110707721  , 0.936539021731  , 1.164457701766  , 1.136370964319  , 0.851871483514  , 0.830251849178  , 0.992269267797  , 0.863405894183  , 0.936985479662  , 1.029574367979  , 0.935794710993  , 1.020876332964  , 1.025986885712  , 1.25050941645  , 0.842488943501  , 1.16359427453  , 1.150114113829  , 1.125253166372  , 1.075547851789  , 0.826239728158  , 0.944926067751  , 1.012542778086  , 0.953935738544  , 1.090226327575  , 1.056308990627  , 0.864857453845 );
	kernels[46] = compute_kernel(x,   0.762426974622  , 0.287622398676  , -1.211179470746  , -1.439363907112  , -1.665162201641  , -0.692210130568  , -0.361507976565  , -0.244383707952  , 0.261788736068  , -0.017402358234  , 0.038123143599  , -0.058052844572  , 0.15674053401  , -0.075060144199  , 0.134670960355  , -0.010294441098  , -0.330755480149  , 0.026820284415  , -0.098128981466  , 0.019735767498  , -0.113787197964  , 0.275416946692  , 0.300244441732  , 0.187535742432  , 0.084023310183  , 0.352437892517  , 0.174302382303  , 0.284499796305  , 0.0982416682  , -0.037618953082  , 0.324832070447  , 3.280846852509  , 3.192514951158  , -0.727191269014  , -2.72284471765  , -0.995478648344  , -0.8871186631  , -0.331994563342  , -0.30690304717  , 0.161976323469  , -0.20595396913  , -0.333954518204  , -0.486545561366  , -0.319496219459  , -0.042794064266  , -0.371551472507  , -0.976746801129  , -0.180625629501  , -0.134691224072  , -0.212396229519  , -0.081001983323  , -0.160574690894  , -0.287204273777  , 0.094968567868  , 0.210390990946  , -0.314258952736  , -0.454511284069  , -0.204897374364  , 0.402153652171  , -0.460156138102  , -0.00713937563  , -0.192734325476  , 1.152313275995  , 0.858846897486  , 0.452113512241  , -0.159557611631  , 0.816524228747  , 1.650960600693  , 0.452580226571  , 0.421890686484  , 0.803303175291  , 0.550724077923  , 0.794292782216  , 0.909978779858  , 0.947104405945  , 1.200905114248  , 1.055001012536  , 0.829692500183  , 0.885774765471  , 0.908944382163  , 0.952745170192  , 0.816877606453  , 1.122780060498  , 0.975602437285  , 0.741308192059  , 0.939874657131  , 0.945741334466  , 0.935116968556  , 1.086494878336  , 0.98668640483  , 0.891946648961  , 0.971687540581  , 0.797246381035 );
	kernels[47] = compute_kernel(x,   -0.627767998859  , -1.683536064727  , -2.115627039238  , -0.817465993015  , 0.171576612325  , 0.188546143638  , 0.117320202616  , -0.222852488975  , -0.347666913276  , 0.098582353162  , -0.346931243095  , -0.462898356607  , -0.229066642422  , -0.070089472076  , -0.096756669368  , -0.008926297561  , -0.080251988771  , -0.15041044201  , -0.294191159343  , -0.206315149008  , 0.206636298561  , -0.153177386667  , 0.051174693364  , -0.111256521257  , -0.156812897271  , -0.276768267333  , -0.234583871092  , -0.147934702671  , 0.025732585505  , -0.168686500759  , 0.046775394253  , 0.138988655113  , 0.431950927595  , -0.669702260315  , 0.737611242344  , 0.156202589322  , -0.021887613253  , -0.632267363506  , -0.251535189655  , 0.049569088165  , 0.119575338176  , 0.100685695004  , 0.343328195305  , 0.364879103154  , -0.140869567205  , 0.035136164311  , 0.19718734331  , -0.232609996977  , 0.185155436541  , 0.102889559027  , 0.029377088461  , 0.004779765259  , -0.02415996709  , 0.075058304246  , 0.077821384258  , 0.219787890209  , 0.027253812112  , 0.083038175719  , 0.217662641153  , 0.183572426417  , 0.060551850982  , 0.100822363494  , 3.867528069435  , 3.734187027369  , 1.17522287493  , -1.321232058675  , -3.349865917348  , -0.975171281957  , -1.058561137085  , -0.188263750555  , 1.788568272151  , 0.756113370573  , 0.114513174413  , 3.073866181107  , 1.504775424252  , 0.916305428754  , 1.932525221174  , 1.703724950562  , 0.377296546429  , 0.879312145268  , 1.048125326798  , 0.665129679403  , 0.751558071838  , 1.023944797597  , 0.853076768106  , 0.953464554908  , 0.460928805046  , 0.674519663938  , 0.502340200491  , 0.380454367008  , 1.821527193267  , 1.012615869243  , 0.919217322818 );
	kernels[48] = compute_kernel(x,   -0.846193274968  , -1.362321458782  , -1.907329324111  , -0.811844436704  , -0.043476831013  , 0.037737475974  , 0.036596019558  , 0.231704792646  , 0.214200351819  , 0.112242997366  , 0.10745427241  , -0.418745624797  , -0.325665067026  , -0.150838277739  , -0.191173041856  , -0.171854086508  , -0.056444604784  , -0.252167696198  , -0.005662036643  , -0.321633064615  , 0.093860658648  , -0.102927862023  , 0.029335429333  , 0.020930232877  , -0.061386497823  , 0.06083631305  , 0.044824439004  , -0.314428526044  , -0.050731387387  , -0.371990062968  , -0.087758915621  , -1.132314123025  , 1.525932862148  , -1.294178073114  , -1.315358513293  , -0.625972745195  , -0.998041273628  , -0.38149153109  , -0.127831562  , -0.105012297545  , -0.525206412746  , 0.241375439541  , -0.11293019803  , -0.645531741616  , 0.427771092627  , -0.183122820772  , 0.204765539419  , -0.494494120801  , -0.378329012533  , 0.022819315344  , 0.110643944905  , 0.232292472614  , -0.034346108087  , 0.125699070761  , -0.038000065569  , 0.092885433109  , 0.102101663144  , 0.096734054662  , 0.157376883931  , 0.005888971727  , 0.068802094844  , 0.296895115191  , 4.187589535326  , 4.19274204674  , 0.533477008398  , -2.305095838744  , -1.218250111394  , -1.232424578306  , -0.4533954962  , 0.168573659418  , 0.556914953783  , 0.213755609163  , 0.292698130211  , 1.016134925569  , 2.505576955848  , 1.989417418302  , 1.466974912567  , 0.891819287948  , 0.727475186746  , 0.659772088191  , 0.040638702702  , 1.408628778614  , 1.808181728372  , 1.118262376084  , 1.079838641155  , 0.252935149765  , 1.479286705902  , 1.266149917031  , 0.708580087408  , 0.74391288166  , 1.530554178234  , 0.775504642308  , 0.70031957201 );
	kernels[49] = compute_kernel(x,   -0.094312454308  , -1.76270154577  , -0.850518021064  , -0.004589548479  , -0.02870704104  , 0.164324075542  , 0.313260003979  , 0.703122514817  , 0.568986811642  , 0.600840761204  , 0.768470611595  , 0.483401153696  , 0.449223253637  , 0.30644229249  , 0.01640766772  , 0.404327454182  , 0.387568389618  , 0.156622029572  , 0.332949836993  , 0.257960741952  , -0.018383289704  , -0.039311333342  , -0.040237321474  , 0.221811572749  , 0.256586223717  , 0.11197208086  , 0.047932883094  , 0.095772857613  , 0.001730919423  , 0.108166618897  , 0.189052482953  , 0.744883144126  , 0.74608685155  , -0.610677512834  , -0.049856348079  , -0.191258424603  , -0.30944013243  , -0.186904670592  , -0.005394981303  , -0.082091268622  , 0.154317238542  , 0.014645209292  , 0.045937313896  , 0.173433701554  , -0.059799140901  , -0.167685777664  , 0.324503719127  , 0.062686349433  , 0.032875524558  , 0.071744281832  , 0.044061163324  , -0.049604378398  , 0.04078191339  , 0.095830816726  , 0.018508782562  , -0.051127024419  , 0.037304440078  , -0.000777978478  , 0.018364053909  , 0.112794907089  , 0.02018752792  , 0.102233399643  , 3.921046535475  , 2.641678991103  , -1.477131686192  , -0.666236393476  , -1.613451528221  , -0.355022603856  , 0.228864058837  , -0.384088990765  , 0.417457609765  , 0.233352093158  , -0.039982601897  , 0.151455374771  , 1.080216538445  , 0.698412789711  , 1.070114236426  , 2.227070266314  , 1.066845250721  , 0.675031381253  , 1.933633885835  , 0.927864038697  , 0.630040409469  , 0.952017141679  , 1.254551004612  , 0.189152131063  , 0.918770983809  , 0.828671518427  , 1.209327422096  , 0.847977128681  , 1.256930838355  , 1.141787127926  , 0.755122137909 );
	kernels[50] = compute_kernel(x,   0.107906677832  , -1.928076269698  , -2.220282179652  , -0.282624706924  , 0.116671885852  , 0.165884678705  , 0.225248837764  , 0.431771037043  , 0.781872808244  , 0.479043124188  , 0.365159220161  , 0.009103142733  , -0.184361594201  , 0.170825381796  , -0.157951223913  , -0.151513766273  , -0.320044241578  , 0.198147974893  , -0.397050436292  , 0.061614485499  , -0.507907267539  , -0.337561378877  , 0.030971383375  , -0.269536116532  , -0.356816912544  , -0.093386761647  , -0.122644189178  , -0.328259520683  , -0.040450719845  , -0.030983753638  , 0.072923608012  , 1.041532423008  , 1.168239095385  , -0.815667752789  , -0.72296836591  , -0.004813466107  , -0.327253988245  , -0.167823002598  , 0.122527834845  , -0.009999674968  , -0.046363627363  , 0.106192860317  , -0.011138471679  , 0.070798273485  , 0.261674043159  , 0.085479055644  , -0.027570395532  , 0.452266220156  , -0.079497774837  , 0.044140170418  , 0.023582212139  , 0.082978617034  , -0.019547746648  , -0.018032349802  , 0.075773849777  , -0.045014225238  , 0.189021083375  , 0.101891556099  , 0.151579097208  , 0.24740583146  , 0.0663068437  , 0.084118549692  , 3.277918395625  , 3.68854788418  , -0.169822120692  , -2.828381563939  , -0.889849120891  , -1.569110442914  , 0.517017923942  , 0.660389961088  , 0.150011622426  , 0.187829868372  , 0.850736995663  , 0.690719467383  , 1.22415874294  , 1.213765041493  , 1.06580058041  , 2.604287546175  , 1.463699614397  , 1.061032304459  , 1.376003491218  , 0.26070179701  , 0.819216866887  , 0.903231869022  , 0.985375491954  , 1.212626935286  , 0.632216949002  , 1.247314498273  , 0.700241657747  , 0.629382576629  , 0.989752162307  , 0.64338362595  , 1.729461197619 );
	kernels[51] = compute_kernel(x,   0.045577397071  , -0.450091731976  , -0.429490508883  , -0.150281947232  , -0.021202446186  , -0.116396037094  , -0.116426614419  , -0.041392661442  , -0.04398776907  , -0.007438845349  , 0.020251369907  , 0.022625684953  , 0.055631800418  , 0.081613454023  , 0.099874315047  , 0.148736399163  , 0.158451076279  , 0.141582876698  , 0.130760861023  , 0.088702446186  , 0.135380430512  , 0.123260861023  , 0.101171868861  , 0.074177984326  , 0.064969422675  , 0.04898776907  , 0.041803669279  , 0.015411007837  , 0.007911007837  , 0.013006115465  , 0.014303669279  , 0.544925342742  , 0.455883170325  , -0.334656898117  , 0.01238106635  , -0.139558414837  , -0.242629060605  , 0.001552299372  , 0.048766976489  , 0.034025097699  , 0.034527837512  , -0.041396037094  , 0.251932729884  , 0.131171868861  , 0.187941585163  , 0.12563517607  , 0.093892661442  , 0.086080136884  , 0.03234036207  , -0.008542808256  , -0.021868199582  , -0.179466682861  , -0.127503375652  , -0.064908268024  , -0.047374315047  , 0.042279207419  , -0.000190215256  , 0.00351223093  , 0.025886545977  , 0.004273091954  , 0.004904892372  , 0.047880430512  , 3.712445596653  , 2.205105431043  , 0.697245254442  , -0.110003375652  , -0.137686839604  , -0.047496624348  , 0.13648776907  , 0.410540068442  , 0.200227543885  , 0.293355968651  , 0.830227543885  , 0.761484393418  , 1.001576125394  , 1.224402152559  , 1.058379794673  , 1.372279207419  , 1.07271741693  , 1.045084980673  , 1.294718052768  , 1.130631800418  , 1.270540068442  , 1.160509491117  , 1.035981653605  , 1.074809784744  , 0.968671868861  , 0.866518346395  , 0.999904892372  , 0.942564530303  , 0.931993884535  , 0.995981653605  , 0.931993884535 );
	kernels[52] = compute_kernel(x,   -0.613674262703  , -1.410565826669  , -0.317361455378  , 0.173479716987  , 0.055910681637  , 0.235258112107  , 0.284087361134  , 0.814375497829  , 0.704884125427  , 0.575893305247  , 0.476780835602  , 0.489087695663  , 0.445453752484  , 0.219890168704  , 0.066485646549  , 0.088529986532  , 0.25467482113  , 0.071839375844  , 0.222996885679  , 0.068072388022  , 0.251371402572  , 0.16285966752  , 0.046883444681  , -0.023419282034  , 0.38647676399  , 0.11799984242  , 0.072362170514  , 0.14457772838  , 0.00520836511  , -0.126019540965  , 0.01043388082  , 0.189530168033  , -0.431820325275  , -0.501536675846  , 0.425662600094  , 0.149713342677  , -0.063000429621  , -0.157516638387  , -0.082898023528  , 0.166883219039  , -0.123674961435  , -0.075240474182  , 0.357690584782  , -0.046199421607  , 0.261069690274  , 0.192179583708  , 0.016715439949  , 0.154541450809  , 0.085028180033  , -0.039850801667  , 0.181106048952  , 0.162713089071  , -0.000455420965  , 0.211759170913  , -0.051691135807  , 0.284106622788  , 0.263269526668  , 0.034276072597  , 0.051411443946  , 0.030562179449  , 0.321721017286  , 0.119882927448  , 3.854953232118  , 2.247483349112  , -1.745066178173  , -0.949508237914  , -2.065102857969  , -0.888355323928  , 0.317235645065  , 0.015292405029  , 0.609035952961  , 0.846325246282  , 0.4456865804  , 1.766420911405  , 0.262184023541  , 1.836842476884  , 1.221711153291  , 1.347527573178  , 1.203508160054  , 0.740780475794  , 0.896735818947  , 1.159108922199  , 1.015863624679  , 1.356446410721  , 0.695746028147  , 0.728501416103  , 1.373302560986  , 0.999914145005  , 0.563002540209  , 1.336600773103  , 1.013273730573  , 0.689648514866  , 0.842755478343 );
	kernels[53] = compute_kernel(x,   -0.913488125114  , -2.419727018709  , -1.809730766956  , -0.596041735114  , -0.123600220435  , 0.210644747241  , 0.370931874839  , 0.601740048994  , 0.573623156188  , 0.65903445599  , 0.578893776519  , 0.300399554027  , -0.332144172211  , -0.152203092682  , -0.181828676109  , 0.172295994596  , -0.215043179286  , -0.033772096218  , -0.368973683641  , 0.080681705087  , -0.169212746984  , -0.133142254266  , -0.071420350713  , 0.026403898383  , -0.239645277499  , -0.234891448134  , -0.126500731886  , -0.115769064461  , -0.252802508622  , -0.34320892441  , -0.239843541475  , 0.657093673253  , 0.704611864513  , -1.058090773197  , -0.236870537952  , 0.036251769049  , -0.269521335701  , 0.232783170373  , 0.015379822315  , 0.117620160637  , 0.481525991269  , -0.115826201796  , -0.03517677996  , 0.171165158848  , 0.234878740017  , -0.069265877823  , 0.185671857645  , 0.173454848221  , -0.157135355455  , 0.184158979467  , -0.00116103873  , 0.090576118808  , 0.180625371545  , 0.115807485287  , -0.003585753761  , 0.085098945022  , -0.056190189883  , 0.042126665362  , 0.079874048179  , 0.172578808923  , 0.123020110565  , 0.269051176269  , 4.393543161265  , 3.955864217802  , -0.223702041474  , -0.498407070982  , -2.881728602295  , -0.426193542294  , 0.598387041969  , -0.28205753513  , 0.560459941169  , 1.804571062213  , 0.286879823568  , -0.267025034702  , 1.995224722328  , 2.017816133419  , 1.157434558138  , 2.240322460087  , 1.032144326651  , 0.981738630614  , 1.339406648264  , 0.806807298753  , 0.59756897072  , 0.699047308753  , 0.814877590362  , 0.521542893904  , 1.002123286972  , 0.802259548961  , 0.150370521049  , 0.678987862193  , 1.322427535164  , 0.952068093386  , 0.951483764611 );
	kernels[54] = compute_kernel(x,   -0.5268924129  , -0.622639962114  , -0.344927997963  , -0.175660661964  , -0.101406310085  , -0.262112718866  , -0.19519579749  , -0.086168971384  , 0.03493267113  , 0.219813812985  , 0.137497539018  , 0.049645247636  , 0.143525351616  , -0.023361920002  , 0.003710851289  , -0.013062097352  , 0.017143862837  , 0.061416192917  , 0.004037748759  , -0.039097826496  , 0.014116647538  , -0.011736931289  , -0.021362370047  , -0.075456593342  , -0.139555484005  , -0.14006859874  , -0.007458563631  , -0.089700594676  , -0.085603374024  , -0.033288662084  , -0.099532075623  , 0.275034540848  , 0.244277527732  , -0.068459665179  , 0.308300873385  , 0.10565528039  , -0.392892462317  , -0.055403180883  , 0.049069282553  , -0.112923252097  , 0.008760245514  , -0.014254952723  , 0.026447752723  , 0.351509111174  , -0.030197140765  , 0.147876592621  , -0.075646636622  , 0.015619491008  , 0.148669150451  , 0.183204557381  , -0.071725685005  , 0.093844553113  , 0.221205532288  , 0.049462614391  , 0.116448868015  , 0.1190934988  , 0.001301089314  , 0.298827912195  , 0.14324910053  , 0.169210595779  , 0.066773099056  , 0.141985772917  , 3.403900550199  , 2.952684335743  , 0.500026451101  , 0.087927807425  , -0.341116138592  , -0.59523906447  , 0.482870565627  , 0.061367416162  , 0.094851856014  , 0.661653944778  , 0.532559938494  , 0.85950976404  , 1.222515428833  , 1.214444303458  , 1.554654911889  , 1.263435598494  , 1.459237969934  , 1.308300022201  , 1.177897565114  , 1.079216895512  , 1.171863632895  , 1.534218559678  , 1.152148729103  , 1.468467225173  , 1.391606661985  , 0.891136697354  , 1.172209907257  , 0.700769969801  , 0.979116653292  , 0.700508708383  , 1.141176442849 );
	kernels[55] = compute_kernel(x,   0.060935570389  , -0.4437628144  , -0.423245976875  , -0.144628114198  , -0.021033675051  , -0.123568810346  , -0.12148974848  , -0.041898974848  , -0.044831624747  , -0.011658123733  , 0.016707176064  , 0.020853588032  , 0.053437775659  , 0.080685212779  , 0.101646411968  , 0.153124448682  , 0.161826498986  , 0.142764274645  , 0.133461199189  , 0.088533675051  , 0.136730599595  , 0.125961199189  , 0.103112736917  , 0.075696924544  , 0.067079061867  , 0.049831624747  , 0.041550512576  , 0.014651537728  , 0.007151537728  , 0.012584187627  , 0.014050512576  , 0.52247878174  , 0.450144951723  , -0.344530009535  , 0.027486082965  , -0.142427524139  , -0.24752342353  , 0.004843336512  , 0.051045386816  , 0.046092233877  , 0.039506586005  , -0.048568810346  , 0.256573936106  , 0.133112736917  , 0.185072475861  , 0.130107611157  , 0.094398974848  , 0.094349922517  , 0.029555638336  , -0.005589313387  , -0.024062224341  , -0.188664709738  , -0.134169835498  , -0.0712371856  , -0.049146411968  , 0.043713762069  , -0.000865299797  , 0.002668375253  , 0.026814787221  , 0.006129574443  , 0.004567350101  , 0.049230599595  , 3.72999779473  , 2.163334575042  , 0.694122988437  , -0.116669835498  , -0.131695464299  , -0.040830164502  , 0.137331624747  , 0.414674961258  , 0.212125908927  , 0.296393849088  , 0.842125908927  , 0.755661789248  , 0.989424603649  , 1.231152997973  , 1.045975116225  , 1.373713762069  , 1.064616402432  , 1.025423143404  , 1.300371885802  , 1.128437775659  , 1.274674961258  , 1.166754023125  , 1.03724743712  , 1.074134700203  , 0.970612736917  , 0.86525256288  , 0.999567350101  , 0.945011711765  , 0.932415812373  , 0.99724743712  , 0.932415812373 );
	kernels[56] = compute_kernel(x,   0.156712859848  , -0.975307811642  , -0.460071911801  , -0.111879665458  , 0.105039722554  , 0.142884146083  , 0.212759139665  , 0.426642439481  , 0.611203245189  , 0.565571433988  , 0.704280796832  , 0.645394728412  , 0.53042146313  , 0.482299697806  , 0.411355861851  , 0.108808154847  , 0.182400892382  , 0.246634352238  , 0.194425585229  , -0.009834753511  , 0.072028015373  , 0.125439613606  , 0.115713120689  , 0.177586528809  , 0.166959247818  , -0.01758054304  , 0.113174580779  , -0.058238701183  , -0.032108178628  , -0.022151742449  , -0.062321171977  , 0.99709163657  , 0.505062682218  , 0.107395631316  , -0.273004590023  , -0.01907449759  , -0.112540839258  , -0.012071528945  , -0.104036679171  , -0.105291837566  , -0.203710212874  , 0.560532944148  , -0.195006242641  , -0.187337362231  , 0.318512403508  , -0.197367370146  , -0.116359765966  , 0.406356604066  , 0.312354218235  , 0.021898560068  , 0.136097128257  , 0.176944298168  , -0.004189479517  , 0.03225961379  , 0.238284543786  , 0.066258611635  , -0.043378857526  , 0.08049113178  , -0.01120222434  , -0.060502063925  , 0.028907610927  , 0.091663532718  , 3.327408635035  , 2.360397911983  , 1.452147953299  , -0.384974751319  , -1.035488254001  , -1.135341057349  , -0.624706759926  , 0.098898923387  , -0.194255515622  , -1.185509040056  , 1.77258866059  , 0.158501916295  , -0.055144359024  , 1.998906629343  , 0.451892657506  , 0.463725637346  , 2.046674632911  , 1.541436453916  , 0.872794987457  , 1.584256414481  , 1.672666480922  , 1.044537180798  , 1.238060981206  , 1.851103274743  , 0.722380733692  , 0.679645685477  , 1.373781353137  , 1.303462866018  , 1.028212780067  , 0.95312370499  , 0.971116167356 );
