
#include <cstdarg>

/**
* Compute kernel between feature vector and support vector.
* Kernel type: rbf
*/
double compute_kernel(double x[], ...) {
	va_list w;
	va_start(w, 93);
	double kernel = 0.0;

	for (int i = 0; i < 93; i++) {
		kernel += pow(x[i] - va_arg(w, double), 2);
	}

	return exp(-0.01 * kernel);
}

/**
* Predict class for features vector
*/
int predict(double x[]) {
	double kernels[112] = { 0 };
	double decisions[15] = { 0 };
	int votes[6] = { 0 };
	kernels[0] = compute_kernel(x,   -0.3475  , -0.3675  , -0.4525  , -0.4675  , -0.3925  , -0.295  , -0.245  , -0.185  , -0.1575  , -0.1675  , -0.155  , -0.16  , -0.16  , -0.155  , -0.2  , -0.04  , -0.0825  , -0.0625  , -0.0325  , -0.1325  , -0.005  , -0.0325  , -0.035  , -0.0275  , -0.045  , -0.06  , -0.0325  , -0.03  , -0.025  , -0.025  , -0.0125  , -1.305  , -0.4425  , 0.5  , 0.8425  , 1.21  , 1.755  , 0.9375  , 0.7725  , 0.68  , -0.105  , -0.15  , -0.4  , -0.515  , -0.5075  , -0.6125  , -0.5175  , -0.505  , -0.4125  , -0.16  , -0.115  , 0.22  , 0.3075  , 0.2125  , 0.1525  , 0.1925  , 0.0725  , 0.015  , -0.05  , 0.0025  , -0.045  , -0.085  , 1.49  , 1.695  , 1.52  , 1.445  , 1.5125  , 0.945  , 0.8  , 0.2375  , -0.03  , 0.24  , 0.295  , 0.42  , 0.84  , 0.9475  , 0.9425  , 1.4975  , 1.3125  , 1.4475  , 1.415  , 1.04  , 1.2425  , 1.06  , 0.8775  , 1.0025  , 0.94  , 0.9  , 0.9225  , 0.975  , 1.0075  , 0.9525  , 0.985 );
	kernels[1] = compute_kernel(x,   -0.08  , -0.215  , -0.1275  , -0.015  , -0.0575  , -0.0525  , 0.0125  , -0.17  , -0.145  , -0.065  , -0.13  , -0.075  , -0.06  , -0.03  , -0.0525  , -0.06  , -0.05  , 0.005  , -0.0725  , -0.0  , -0.025  , -0.0675  , -0.0575  , -0.05  , -0.0525  , -0.0275  , 0.01  , -0.015  , 0.0175  , 0.0075  , -0.0025  , 1.16  , 0.555  , 0.6875  , 0.73  , 0.445  , 0.41  , 0.365  , -0.2925  , -0.3975  , -0.48  , -0.545  , -0.5025  , -0.2425  , -0.335  , -0.175  , -0.1375  , -0.335  , 0.135  , 0.0775  , 0.26  , 0.345  , 0.2375  , 0.0825  , 0.0575  , 0.0775  , 0.0075  , 0.06  , -0.0075  , 0.015  , -0.0175  , -0.0375  , 1.425  , 1.0  , 0.7075  , 0.6375  , 0.355  , 0.2825  , 0.525  , 0.36  , 0.52  , 0.9075  , 0.6875  , 1.025  , 1.1275  , 1.1925  , 1.445  , 1.31  , 1.34  , 1.3725  , 0.9575  , 1.1875  , 1.0625  , 0.93  , 0.97  , 1.0275  , 0.9  , 0.9675  , 1.0125  , 0.88  , 0.96  , 0.9475  , 0.9275 );
	kernels[2] = compute_kernel(x,   -0.085  , -0.0425  , 0.0275  , -0.08  , -0.1125  , -0.075  , -0.1275  , -0.0625  , 0.0125  , -0.0125  , -0.0225  , -0.09  , -0.005  , -0.055  , -0.1275  , -0.05  , -0.06  , 0.045  , -0.04  , -0.025  , -0.0525  , -0.0625  , -0.07  , -0.0075  , -0.0175  , -0.05  , -0.03  , -0.045  , -0.0525  , -0.0225  , -0.025  , -0.45  , 0.1525  , 0.5975  , 0.6075  , 0.6475  , 0.7275  , 0.625  , 0.6125  , 0.5275  , 0.32  , 0.0125  , -0.2725  , -0.1625  , -0.4425  , -0.4925  , -0.42  , -0.2425  , -0.18  , -0.29  , -0.2675  , -0.3675  , -0.065  , -0.055  , 0.275  , 0.315  , 0.235  , 0.2275  , 0.1675  , 0.0925  , 0.0525  , 0.0125  , 1.39  , 1.57  , 1.7125  , 1.355  , 1.1925  , 1.0975  , 0.81  , 0.565  , 0.415  , 0.5075  , 0.3725  , 0.42  , 0.68  , 0.6125  , 0.825  , 1.09  , 0.98  , 1.23  , 1.1825  , 1.35  , 1.325  , 1.31  , 1.1575  , 1.15  , 1.0275  , 0.9325  , 0.99  , 0.96  , 0.9375  , 0.955  , 0.95 );
	kernels[3] = compute_kernel(x,   0.03  , -0.18  , -0.17  , -0.07  , -0.0725  , -0.0575  , -0.0575  , -0.06  , -0.0725  , -0.1225  , -0.14  , -0.1975  , -0.1225  , -0.0775  , -0.0425  , -0.02  , -0.045  , 0.025  , -0.1  , -0.0125  , -0.05  , -0.0675  , -0.045  , -0.075  , -0.0325  , -0.0325  , -0.04  , -0.0375  , -0.0075  , -0.0275  , -0.0275  , 1.1875  , 0.6  , 0.6275  , 0.6075  , 0.4675  , 0.3625  , 0.255  , 0.1625  , -0.2725  , -0.45  , -0.47  , -0.6975  , -0.4475  , -0.3375  , -0.285  , -0.25  , -0.2525  , 0.11  , 0.1675  , 0.3575  , 0.315  , 0.335  , 0.24  , 0.1825  , 0.195  , 0.09  , 0.0725  , -0.03  , 0.03  , 0.0125  , 0.01  , 1.485  , 1.1075  , 0.805  , 0.6775  , 0.5125  , 0.375  , 0.48  , 0.4525  , 0.445  , 0.71  , 0.775  , 0.91  , 1.215  , 1.2325  , 1.3875  , 1.33  , 1.1675  , 1.415  , 0.9575  , 1.1575  , 1.0425  , 0.94  , 0.9625  , 0.905  , 0.915  , 1.01  , 0.9875  , 0.955  , 1.0475  , 0.945  , 0.9725 );
	kernels[4] = compute_kernel(x,   0.0175  , -0.1375  , -0.12  , -0.1075  , -0.1375  , -0.0725  , -0.1025  , -0.0775  , -0.0175  , -0.11  , -0.035  , -0.15  , -0.0975  , -0.0525  , -0.085  , -0.045  , -0.0275  , -0.025  , 0.015  , -0.08  , -0.03  , -0.0575  , -0.055  , -0.03  , -0.04  , -0.0575  , -0.025  , -0.04  , -0.05  , -0.0075  , -0.0275  , 1.0275  , 0.8275  , 0.8275  , 0.75  , 0.53  , 0.36  , 0.1175  , 0.155  , -0.0375  , -0.31  , -0.3925  , -0.6125  , -0.3875  , -0.375  , -0.345  , -0.2175  , -0.22  , 0.0275  , 0.0675  , -0.1175  , 0.2525  , 0.2775  , 0.275  , 0.23  , 0.2375  , 0.14  , 0.17  , 0.0975  , 0.055  , 0.0975  , 0.0675  , 1.5675  , 1.2  , 1.1  , 0.9325  , 0.585  , 0.515  , 0.465  , 0.425  , 0.415  , 0.3525  , 0.88  , 0.745  , 0.91  , 1.2625  , 1.2325  , 1.3275  , 1.3825  , 1.195  , 1.2775  , 0.99  , 1.12  , 1.02  , 0.99  , 0.975  , 0.935  , 0.8975  , 0.99  , 0.98  , 0.9425  , 1.0025  , 0.965 );
	kernels[5] = compute_kernel(x,   -0.11  , -0.195  , -0.2275  , -0.155  , -0.1  , -0.1075  , -0.07  , -0.1225  , -0.0575  , -0.02  , -0.085  , -0.0875  , -0.0675  , -0.0175  , -0.0325  , 0.0425  , -0.055  , -0.0275  , 0.0  , -0.085  , -0.0225  , -0.0375  , -0.02  , -0.0475  , -0.0625  , -0.01  , -0.04  , -0.0425  , -0.0075  , -0.0275  , -0.01  , 1.4125  , 0.9825  , 0.8025  , 0.8275  , 0.6  , 0.3825  , 0.36  , -0.195  , -0.245  , -0.275  , -0.53  , -0.495  , -0.3975  , -0.355  , -0.2775  , -0.1925  , -0.4475  , -0.14  , -0.0275  , 0.0575  , 0.21  , 0.2625  , 0.375  , 0.2225  , 0.12  , 0.175  , 0.07  , 0.0175  , 0.015  , -0.005  , -0.0375  , 1.5625  , 1.4175  , 1.0  , 0.7025  , 0.5625  , 0.4725  , 0.425  , 0.3975  , 0.4275  , 0.5625  , 0.7375  , 0.7425  , 1.09  , 1.1475  , 1.135  , 1.4575  , 1.2  , 1.26  , 1.3325  , 0.98  , 1.0975  , 0.9725  , 1.1025  , 1.015  , 0.8675  , 1.0125  , 0.9525  , 0.905  , 0.975  , 0.9375  , 0.985 );
	kernels[6] = compute_kernel(x,   -0.2475  , -0.25  , -0.0675  , -0.1325  , -0.03  , -0.03  , -0.1  , -0.06  , -0.165  , -0.085  , -0.055  , -0.0375  , -0.0025  , -0.09  , -0.04  , 0.065  , 0.0325  , 0.0425  , 0.0175  , -0.0225  , -0.0575  , 0.0025  , -0.0325  , 0.015  , 0.0275  , -0.02  , -0.04  , -0.0325  , -0.055  , -0.065  , -0.035  , -1.0075  , 0.0025  , 0.7875  , 0.7725  , 0.955  , 0.86  , 0.655  , 0.6925  , -0.015  , 0.015  , 0.02  , -0.135  , -0.1325  , -0.5  , -0.375  , -0.2775  , -0.2775  , -0.235  , -0.1225  , -0.3025  , -0.24  , -0.04  , -0.0625  , 0.1925  , 0.21  , 0.265  , 0.19  , 0.1975  , 0.085  , 0.045  , 0.0775  , 1.3025  , 1.4175  , 1.6925  , 1.48  , 1.2175  , 1.02  , 0.765  , 0.5975  , 0.52  , 0.3675  , 0.46  , 0.5575  , 0.5075  , 0.825  , 0.805  , 1.055  , 1.185  , 1.15  , 1.2425  , 1.2825  , 1.205  , 1.25  , 1.0075  , 0.965  , 1.0275  , 1.065  , 0.975  , 1.015  , 0.9475  , 0.895  , 0.9825 );
	kernels[7] = compute_kernel(x,   -0.13  , -0.125  , -0.2425  , -0.3875  , -0.425  , -0.41  , -0.36  , -0.295  , -0.2075  , -0.115  , -0.08  , -0.0925  , -0.085  , -0.1375  , -0.1125  , -0.1625  , -0.15  , -0.1425  , -0.16  , -0.165  , -0.175  , -0.115  , -0.095  , -0.055  , -0.08  , -0.0825  , -0.0375  , -0.0275  , -0.05  , -0.0425  , -0.02  , -1.1375  , -0.445  , -0.055  , 0.9  , 1.295  , 1.325  , 0.985  , 0.7975  , 0.6075  , 0.4975  , 0.1825  , 0.0425  , -0.2275  , -0.26  , -0.38  , -0.6125  , -0.6075  , -0.8025  , -0.7625  , -0.6325  , 0.1425  , 0.6575  , 0.6325  , 0.5225  , 0.285  , 0.2275  , 0.1775  , 0.045  , -0.01  , -0.065  , -0.0675  , 0.8725  , 0.94  , 1.4525  , 1.745  , 1.97  , 1.705  , 1.1125  , 0.775  , 0.4175  , 0.28  , 0.1975  , 0.25  , 0.3725  , 0.3675  , 0.6975  , 0.735  , 0.9725  , 1.205  , 1.3475  , 1.5425  , 1.595  , 1.5075  , 1.135  , 1.135  , 0.9025  , 0.8825  , 0.9325  , 0.8475  , 0.9975  , 0.9725  , 0.9675 );
	kernels[8] = compute_kernel(x,   -0.3125  , -0.2375  , -0.26  , -0.3725  , -0.3  , -0.29  , -0.2075  , -0.1675  , -0.145  , -0.135  , -0.1425  , -0.1525  , -0.1175  , -0.1575  , -0.125  , -0.2075  , -0.2775  , -0.35  , -0.31  , -0.3  , -0.2525  , -0.2525  , -0.215  , -0.115  , -0.1075  , -0.08  , -0.0675  , -0.0425  , -0.05  , -0.055  , -0.0625  , -0.9675  , -0.3075  , -0.1575  , 0.06  , 1.0475  , 0.95  , 1.155  , 0.9375  , 0.8325  , 0.5975  , 0.3975  , 0.29  , 0.0725  , -0.115  , -0.3125  , -0.6025  , -0.9775  , -0.9575  , -0.6825  , -0.7125  , 0.0225  , 0.0625  , 0.5125  , 0.645  , 0.3275  , 0.3425  , 0.31  , 0.255  , 0.1025  , 0.075  , -0.01  , 1.32  , 1.58  , 1.52  , 1.59  , 1.53  , 1.36  , 1.0875  , 0.7575  , 0.4275  , 0.32  , 0.2325  , 0.285  , 0.285  , 0.2825  , 0.6575  , 0.585  , 0.745  , 1.375  , 1.4275  , 1.6525  , 1.855  , 1.555  , 1.315  , 0.855  , 0.9525  , 0.865  , 0.81  , 0.895  , 0.8725  , 0.9425  , 0.9725 );
	kernels[9] = compute_kernel(x,   -0.375  , -0.54  , -0.56  , -0.4675  , -0.4125  , -0.32  , -0.2825  , -0.2075  , -0.2075  , -0.1475  , -0.2025  , -0.215  , -0.135  , -0.19  , -0.175  , -0.1975  , -0.145  , -0.145  , -0.2975  , -0.24  , -0.2525  , -0.1875  , -0.1025  , -0.145  , -0.0925  , -0.075  , -0.09  , -0.1025  , -0.065  , -0.0525  , -0.0325  , -1.285  , -0.71  , 0.23  , 1.2925  , 1.21  , 1.505  , 1.0625  , 0.9575  , 0.73  , 0.3925  , 0.0675  , 0.075  , -0.2075  , -0.45  , -0.5  , -0.87  , -0.59  , -0.655  , -0.785  , 0.215  , -0.04  , 0.29  , 0.6575  , 0.43  , 0.4225  , 0.3225  , 0.1825  , 0.135  , 0.13  , 0.0275  , 0.09  , 1.18  , 1.2725  , 1.975  , 1.945  , 1.4075  , 1.0275  , 0.855  , 0.4825  , 0.3525  , 0.26  , 0.1975  , 0.28  , 0.325  , 0.675  , 0.685  , 0.8275  , 1.0925  , 1.2775  , 1.4925  , 1.8275  , 1.6025  , 1.2175  , 1.1225  , 0.935  , 0.8675  , 0.905  , 0.8375  , 1.0125  , 0.99  , 0.915  , 0.9675 );
	kernels[10] = compute_kernel(x,   -0.3975  , -0.52  , -0.4975  , -0.59  , -0.585  , -0.355  , -0.385  , -0.335  , -0.2625  , -0.265  , -0.19  , -0.1625  , -0.28  , -0.22  , -0.25  , -0.165  , -0.1725  , -0.1325  , -0.1975  , -0.2725  , -0.23  , -0.27  , -0.1325  , -0.14  , -0.1475  , -0.1025  , -0.0825  , -0.0625  , -0.0525  , -0.0525  , -0.06  , -1.78  , -1.0825  , 0.235  , 0.5925  , 1.2525  , 1.6875  , 0.925  , 0.9725  , 0.9425  , 0.36  , 0.3925  , 0.0125  , -0.4375  , -0.475  , -0.7775  , -0.69  , -0.8725  , -0.5775  , -0.77  , -0.68  , 0.0425  , 0.24  , 0.6875  , 0.3075  , 0.2875  , 0.25  , 0.1175  , 0.015  , -0.0525  , -0.0525  , -0.04  , 1.0375  , 1.125  , 1.6  , 1.9375  , 1.7875  , 1.67  , 1.3775  , 0.7725  , 0.5575  , 0.265  , 0.055  , 0.245  , 0.2225  , 0.6475  , 0.8  , 0.725  , 0.855  , 1.4425  , 1.2725  , 1.4925  , 1.635  , 1.1175  , 1.1925  , 1.1525  , 0.9425  , 0.915  , 0.9425  , 0.83  , 0.855  , 0.99  , 0.935 );
	kernels[11] = compute_kernel(x,   -0.285  , -0.245  , -0.175  , -0.2  , -0.2425  , -0.2325  , -0.09  , -0.0325  , -0.0325  , -0.0175  , -0.005  , -0.0425  , -0.035  , 0.0325  , -0.05  , -0.0175  , -0.0825  , -0.1075  , -0.1325  , -0.2025  , -0.19  , -0.06  , -0.05  , -0.095  , -0.0725  , -0.0575  , -0.06  , -0.06  , -0.0525  , -0.04  , -0.0425  , -0.85  , -0.04  , 0.5075  , 0.6725  , 0.93  , 0.91  , 0.995  , 0.9475  , 0.5025  , 0.1075  , -0.205  , -0.1875  , -0.25  , -0.1025  , -0.3675  , -0.3475  , -0.5575  , -0.75  , -0.81  , -1.0075  , -0.3225  , 0.9375  , 0.68  , 0.205  , 0.245  , 0.22  , 0.125  , 0.0025  , 0.01  , 0.025  , -0.02  , 1.0875  , 1.485  , 1.8975  , 1.995  , 1.7575  , 1.4625  , 0.845  , 0.4475  , 0.155  , 0.085  , 0.185  , 0.37  , 0.7375  , 0.665  , 0.75  , 0.965  , 0.92  , 1.1575  , 1.1975  , 1.09  , 1.245  , 1.5075  , 1.3775  , 1.1275  , 1.11  , 0.97  , 0.915  , 0.985  , 0.94  , 0.9675  , 0.97 );
	kernels[12] = compute_kernel(x,   -0.12  , -0.13  , -0.0775  , -0.0175  , 0.015  , 0.015  , -0.0275  , -0.06  , -0.03  , -0.015  , 0.0825  , 0.05  , 0.0  , 0.005  , -0.01  , -0.0125  , -0.005  , -0.01  , -0.0075  , 0.0075  , -0.0025  , -0.01  , -0.0225  , -0.0525  , -0.055  , -0.0325  , -0.025  , -0.0225  , -0.03  , -0.0175  , -0.03  , 0.9375  , 0.9025  , 1.0925  , 0.8825  , 0.625  , 0.4475  , 0.1075  , -0.0075  , -0.105  , -0.345  , -0.235  , -0.3775  , -0.5975  , -0.4475  , -0.4075  , -0.375  , -0.005  , -0.0425  , 0.085  , 0.295  , 0.175  , 0.205  , 0.195  , 0.11  , 0.0275  , 0.09  , 0.0175  , 0.055  , 0.0075  , 0.0675  , 0.0025  , 1.81  , 1.615  , 1.2125  , 0.825  , 0.3925  , 0.3575  , 0.3  , 0.29  , 0.515  , 0.4075  , 0.5725  , 0.665  , 0.8525  , 1.115  , 1.2775  , 1.2425  , 1.3575  , 1.2  , 1.17  , 1.13  , 1.0475  , 1.0525  , 1.1075  , 1.045  , 1.0225  , 1.0025  , 0.9725  , 0.9875  , 0.99  , 0.985  , 0.995 );
	kernels[13] = compute_kernel(x,   -0.0875  , -0.1175  , -0.135  , -0.0775  , -0.0275  , -0.0325  , 0.0075  , -0.0125  , 0.035  , 0.0375  , 0.065  , 0.07  , 0.0575  , 0.035  , 0.0075  , 0.0675  , 0.0675  , 0.0675  , 0.045  , 0.03  , 0.0125  , 0.015  , -0.025  , 0.0  , 0.0  , -0.035  , -0.025  , -0.015  , -0.0225  , -0.0025  , -0.0075  , 0.7125  , 0.685  , 0.69  , 1.03  , 0.915  , 0.61  , 0.525  , 0.3525  , 0.0675  , 0.1  , -0.0175  , -0.1825  , -0.0725  , -0.41  , -0.66  , -0.5375  , -0.4625  , -0.295  , -0.16  , -0.04  , -0.1875  , 0.2175  , 0.1275  , 0.41  , 0.3825  , 0.345  , 0.2775  , 0.23  , 0.1475  , 0.1325  , 0.11  , 1.955  , 1.7125  , 1.4625  , 1.2  , 0.84  , 0.605  , 0.49  , 0.42  , 0.4075  , 0.36  , 0.5825  , 0.4925  , 0.74  , 0.7  , 0.815  , 1.0  , 1.0325  , 1.205  , 1.2775  , 1.2475  , 1.2625  , 1.3125  , 1.225  , 1.1075  , 1.04  , 0.97  , 0.9125  , 0.9325  , 0.9025  , 0.94  , 0.9825 );
	kernels[14] = compute_kernel(x,   -0.12  , -0.1075  , -0.1175  , -0.105  , -0.1175  , -0.0275  , -0.0025  , 0.03  , 0.075  , 0.025  , -0.01  , -0.0925  , -0.095  , -0.13  , -0.0775  , -0.07  , -0.055  , -0.0575  , -0.1  , -0.075  , -0.075  , -0.0525  , -0.06  , -0.0925  , -0.08  , -0.0825  , -0.0775  , -0.075  , -0.0775  , -0.0625  , -0.0625  , 1.1525  , 1.095  , 0.8175  , 0.615  , 0.43  , 0.345  , 0.205  , 0.2175  , 0.11  , -0.185  , -0.3275  , -0.53  , -0.66  , -0.72  , -0.59  , -0.4275  , -0.1725  , -0.18  , 0.1225  , 0.145  , 0.1675  , 0.485  , 0.28  , 0.1625  , 0.1075  , 0.09  , 0.0425  , 0.015  , -0.005  , 0.0725  , -0.035  , 1.6225  , 1.395  , 1.0975  , 0.8925  , 0.65  , 0.4825  , 0.33  , 0.2625  , 0.325  , 0.41  , 0.6125  , 0.7475  , 0.9325  , 1.035  , 1.09  , 1.2325  , 1.2375  , 1.2825  , 1.365  , 1.215  , 1.16  , 1.1325  , 1.025  , 1.025  , 1.025  , 0.99  , 1.0175  , 0.99  , 0.9525  , 1.005  , 0.935 );
	kernels[15] = compute_kernel(x,   -0.08  , -0.055  , -0.0975  , -0.0375  , -0.03  , -0.0375  , -0.0275  , -0.05  , -0.04  , -0.0275  , 0.045  , -0.0025  , -0.025  , -0.025  , -0.01  , -0.0475  , -0.04  , -0.025  , -0.0325  , -0.04  , -0.0675  , -0.095  , -0.09  , -0.0875  , -0.075  , -0.0575  , -0.0475  , -0.05  , -0.0525  , -0.045  , -0.0375  , 0.92  , 0.8175  , 0.8325  , 0.76  , 0.555  , 0.445  , 0.385  , 0.2325  , 0.1425  , 0.0175  , -0.08  , -0.185  , -0.4275  , -0.59  , -0.575  , -0.6925  , -0.32  , -0.5275  , -0.4125  , -0.04  , 0.16  , 0.3325  , 0.2125  , 0.17  , 0.1225  , 0.0825  , 0.015  , -0.0075  , -0.04  , -0.0575  , -0.025  , 1.59  , 1.3175  , 1.085  , 0.875  , 0.6375  , 0.505  , 0.44  , 0.465  , 0.58  , 0.5125  , 0.5125  , 0.675  , 0.7575  , 0.7825  , 0.85  , 1.025  , 1.1925  , 1.2  , 1.2925  , 1.3625  , 1.32  , 1.2825  , 1.1375  , 1.0475  , 0.9925  , 0.92  , 0.875  , 0.92  , 0.94  , 0.945  , 0.98 );
	kernels[16] = compute_kernel(x,   -0.1125  , -0.115  , -0.0575  , 0.0  , -0.0075  , -0.0225  , 0.0175  , 0.035  , -0.0825  , -0.0325  , -0.07  , -0.0775  , -0.07  , -0.035  , -0.0525  , -0.0725  , -0.0725  , -0.075  , -0.045  , -0.04  , -0.045  , -0.0425  , -0.06  , -0.0675  , -0.05  , -0.04  , -0.045  , -0.0275  , -0.0225  , -0.03  , -0.0275  , 0.8725  , 0.72  , 0.6775  , 0.5525  , 0.26  , 0.1525  , 0.1375  , -0.005  , -0.2475  , -0.47  , -0.65  , -0.5375  , -0.505  , -0.5575  , -0.5575  , -0.2175  , -0.285  , 0.0275  , 0.28  , 0.3  , 0.2625  , 0.225  , 0.18  , 0.12  , -0.0025  , 0.05  , -0.075  , -0.055  , 0.0225  , -0.0425  , -0.0475  , 1.2625  , 0.925  , 0.74  , 0.505  , 0.3575  , 0.495  , 0.4575  , 0.4225  , 0.4975  , 0.6025  , 0.675  , 0.9525  , 1.0625  , 1.135  , 1.1825  , 1.3775  , 1.2725  , 1.2475  , 1.25  , 1.1775  , 1.0575  , 1.045  , 1.045  , 0.975  , 0.9325  , 1.0  , 0.93  , 0.9475  , 0.9925  , 0.9775  , 0.9525 );
	kernels[17] = compute_kernel(x,   -0.205  , -0.1925  , -0.1375  , -0.0625  , -0.03  , 0.015  , 0.0025  , -0.0075  , 0.075  , 0.0625  , 0.0125  , -0.045  , -0.065  , -0.015  , -0.005  , 0.05  , 0.0125  , 0.02  , -0.0825  , -0.05  , -0.06  , -0.0325  , -0.02  , -0.025  , -0.015  , -0.025  , -0.0325  , -0.0275  , -0.0375  , -0.0375  , -0.0275  , 0.5925  , 0.6525  , 0.9675  , 0.9675  , 0.6725  , 0.59  , 0.2975  , 0.1025  , 0.1575  , 0.0825  , -0.1125  , -0.2775  , -0.6325  , -0.7125  , -0.385  , -0.42  , -0.3575  , -0.245  , -0.525  , 0.0175  , 0.0125  , 0.385  , 0.335  , 0.2875  , 0.28  , 0.2525  , 0.1325  , 0.085  , 0.0425  , -0.035  , 0.0  , 1.78  , 1.45  , 1.2825  , 0.82  , 0.3975  , 0.415  , 0.335  , 0.355  , 0.53  , 0.505  , 0.585  , 0.78  , 0.715  , 0.7425  , 0.9325  , 1.0275  , 1.17  , 1.3625  , 1.2375  , 1.3825  , 1.2775  , 1.2075  , 1.125  , 0.9575  , 0.9575  , 0.9775  , 0.945  , 0.985  , 1.005  , 1.0175  , 1.0275 );
	kernels[18] = compute_kernel(x,   -0.1125  , -0.1475  , -0.1075  , 0.0275  , 0.05  , 0.005  , 0.0025  , -0.0325  , -0.0075  , 0.035  , 0.06  , 0.0125  , -0.09  , -0.0775  , -0.0875  , -0.025  , -0.025  , -0.05  , -0.08  , -0.02  , -0.02  , -0.0125  , -0.0175  , -0.03  , -0.0425  , -0.0475  , -0.03  , -0.0275  , -0.02  , -0.0225  , -0.0125  , 0.8975  , 0.6175  , 0.8075  , 1.0625  , 0.665  , 0.5525  , 0.38  , 0.15  , 0.315  , 0.2425  , -0.055  , -0.2325  , -0.4875  , -0.555  , -0.625  , -0.5875  , -0.555  , -0.5475  , -0.4525  , 0.0825  , 0.0025  , 0.235  , 0.3  , 0.235  , 0.2325  , 0.115  , 0.07  , 0.09  , 0.065  , -0.0725  , -0.0325  , 1.9625  , 1.665  , 1.2925  , 0.955  , 0.545  , 0.44  , 0.4675  , 0.355  , 0.43  , 0.455  , 0.27  , 0.605  , 0.68  , 0.8925  , 0.9525  , 1.07  , 1.16  , 1.3225  , 1.3425  , 1.4175  , 1.2525  , 1.165  , 1.0725  , 1.05  , 1.025  , 0.985  , 0.9525  , 0.99  , 1.005  , 0.9375  , 0.97 );
	kernels[19] = compute_kernel(x,   -0.1075  , -0.1525  , -0.1525  , -0.1025  , -0.08  , -0.0625  , 0.0025  , 0.03  , -0.0025  , 0.0425  , 0.0875  , 0.0325  , 0.055  , -0.015  , -0.035  , -0.0325  , -0.015  , 0.0075  , -0.0525  , -0.07  , -0.08  , -0.0875  , -0.0625  , -0.055  , -0.07  , -0.0625  , -0.04  , -0.0225  , -0.0275  , -0.0425  , -0.0325  , 0.8425  , 0.7275  , 0.77  , 0.715  , 0.535  , 0.2375  , 0.265  , 0.1925  , -0.0425  , -0.19  , -0.2225  , -0.27  , -0.32  , -0.4075  , -0.2825  , -0.3975  , -0.585  , -0.5825  , -0.425  , -0.465  , -0.17  , -0.065  , 0.115  , 0.2125  , 0.0875  , 0.175  , 0.18  , 0.19  , 0.065  , 0.0  , 0.0225  , 1.6775  , 1.4475  , 1.23  , 0.97  , 0.6975  , 0.58  , 0.4525  , 0.4125  , 0.4925  , 0.4525  , 0.445  , 0.545  , 0.59  , 0.74  , 0.91  , 1.0525  , 1.1375  , 1.2175  , 1.3175  , 1.25  , 1.2325  , 1.28  , 1.2  , 1.1725  , 1.075  , 0.9875  , 0.995  , 0.915  , 0.925  , 0.94  , 0.9725 );
	kernels[20] = compute_kernel(x,   -0.3025  , -0.255  , -0.265  , -0.235  , -0.18  , -0.115  , -0.075  , 0.0075  , 0.0325  , 0.065  , 0.1125  , 0.085  , 0.1375  , 0.0325  , 0.0725  , 0.0725  , 0.0875  , 0.0475  , 0.0425  , 0.0475  , 0.0425  , 0.0425  , 0.0275  , 0.0075  , 0.0075  , 0.0125  , 0.015  , 0.0075  , 0.015  , 0.0275  , 0.03  , 0.7775  , 0.985  , 0.9875  , 0.8475  , 0.7975  , 0.6075  , 0.5575  , 0.56  , 0.3875  , 0.15  , -0.08  , -0.19  , -0.31  , -0.31  , -0.3225  , -0.3625  , -0.425  , -0.3425  , -0.2375  , -0.2225  , -0.1825  , -0.18  , 0.0675  , -0.04  , 0.195  , 0.1875  , 0.16  , 0.1575  , 0.1175  , 0.1  , 0.0675  , 1.8475  , 1.8225  , 1.5  , 1.075  , 0.7175  , 0.625  , 0.4625  , 0.38  , 0.395  , 0.415  , 0.43  , 0.5475  , 0.7575  , 0.835  , 1.0225  , 0.96  , 1.02  , 1.1575  , 1.1925  , 1.2275  , 1.2  , 1.16  , 1.225  , 1.1325  , 1.125  , 1.015  , 0.98  , 0.96  , 0.9575  , 0.9575  , 0.965 );
	kernels[21] = compute_kernel(x,   -0.195  , -0.1875  , -0.18  , -0.22  , -0.2275  , -0.22  , -0.2325  , -0.1525  , -0.0775  , -0.02  , 0.0125  , 0.015  , 0.02  , 0.125  , 0.0725  , 0.08  , 0.1025  , 0.025  , 0.09  , 0.08  , 0.075  , 0.05  , -0.005  , 0.0  , 0.0075  , 0.0175  , 0.0025  , 0.0275  , 0.01  , 0.0  , 0.0  , -0.96  , -0.41  , 0.21  , 0.7375  , 1.2975  , 1.1575  , 0.9225  , 0.8975  , 0.725  , 0.25  , 0.12  , -0.18  , -0.21  , -0.02  , -0.195  , -0.1475  , -0.335  , -0.455  , -0.4725  , -0.355  , -0.215  , -0.265  , -0.265  , -0.3225  , 0.145  , 0.31  , 0.2175  , 0.2375  , 0.1225  , 0.0275  , 0.075  , 1.4575  , 1.53  , 1.74  , 1.7175  , 1.57  , 1.27  , 0.8475  , 0.5725  , 0.3925  , 0.3775  , 0.2975  , 0.405  , 0.5125  , 0.59  , 0.745  , 0.79  , 0.9125  , 0.96  , 1.0325  , 1.1  , 1.105  , 1.2075  , 1.2  , 1.125  , 1.195  , 1.1825  , 1.1975  , 1.2  , 1.0575  , 0.9725  , 0.9425 );
	kernels[22] = compute_kernel(x,   -0.155  , -0.1925  , -0.2225  , -0.205  , -0.1475  , -0.0775  , -0.0425  , -0.0375  , 0.0225  , 0.0075  , 0.0525  , 0.0325  , 0.055  , 0.0725  , 0.0525  , 0.11  , 0.0925  , 0.125  , 0.08  , 0.08  , 0.0425  , 0.0375  , 0.005  , 0.015  , 0.02  , 0.0175  , 0.02  , 0.0325  , 0.035  , 0.05  , 0.05  , 0.565  , 0.6175  , 0.745  , 0.76  , 0.785  , 0.59  , 0.635  , 0.3925  , 0.29  , 0.0175  , -0.1075  , -0.2125  , -0.3075  , -0.425  , -0.4325  , -0.565  , -0.44  , -0.29  , -0.2475  , -0.2  , -0.0925  , 0.015  , -0.2175  , 0.03  , -0.0275  , 0.0275  , 0.015  , 0.0  , 0.115  , 0.02  , -0.015  , 1.875  , 1.655  , 1.4325  , 0.945  , 0.795  , 0.6375  , 0.435  , 0.4725  , 0.355  , 0.3725  , 0.515  , 0.4825  , 0.7025  , 0.795  , 0.925  , 1.015  , 1.0775  , 1.2  , 1.2925  , 1.205  , 1.1975  , 1.2325  , 1.11  , 1.1175  , 1.105  , 0.9875  , 0.97  , 1.0  , 0.8975  , 1.035  , 0.9725 );
	kernels[23] = compute_kernel(x,   -0.235  , -0.335  , -0.3525  , -0.2975  , -0.2975  , -0.2825  , -0.2025  , -0.1525  , -0.065  , -0.0125  , 0.0275  , 0.0575  , 0.1  , 0.12  , 0.025  , 0.0425  , 0.045  , 0.115  , 0.095  , 0.03  , -0.02  , 0.075  , 0.0775  , -0.0025  , 0.0075  , -0.01  , -0.0025  , 0.0175  , 0.025  , 0.04  , 0.025  , -1.225  , -0.165  , 0.515  , 1.0475  , 1.02  , 1.0125  , 0.7925  , 0.7875  , 0.59  , 0.06  , -0.1025  , -0.35  , -0.2175  , -0.11  , -0.3  , -0.515  , -0.4675  , -0.4825  , -0.4425  , -0.35  , -0.5525  , -0.165  , -0.255  , -0.035  , 0.2825  , 0.2425  , 0.33  , 0.1875  , 0.1125  , 0.0675  , 0.055  , 1.35  , 1.405  , 1.8575  , 1.9925  , 1.7525  , 1.1725  , 0.805  , 0.4825  , 0.2475  , 0.1075  , 0.07  , 0.2675  , 0.4875  , 0.7075  , 0.8675  , 1.0175  , 1.035  , 1.0025  , 1.0875  , 1.18  , 1.285  , 1.34  , 1.2025  , 1.0575  , 1.2025  , 1.1125  , 1.0825  , 1.03  , 0.9325  , 0.9575  , 0.99 );
	kernels[24] = compute_kernel(x,   -0.1825  , -0.255  , -0.305  , -0.3975  , -0.3775  , -0.37  , -0.4025  , -0.3375  , -0.2525  , -0.2  , -0.155  , -0.135  , -0.1075  , -0.03  , 0.01  , -0.0425  , 0.065  , 0.045  , 0.0525  , 0.045  , 0.0425  , 0.015  , 0.06  , -0.015  , -0.03  , -0.04  , -0.04  , 0.0225  , 0.0425  , 0.0775  , 0.04  , -1.6075  , -0.605  , -0.39  , 0.1625  , 1.0075  , 1.035  , 1.29  , 1.2475  , 1.1075  , 0.715  , 0.55  , 0.0675  , 0.1  , -0.07  , -0.365  , -0.3625  , -0.6125  , -0.6775  , -0.775  , -0.71  , -0.605  , -0.4925  , -0.255  , -0.415  , 0.015  , -0.065  , 0.1125  , 0.515  , 0.32  , 0.265  , 0.15  , 1.0075  , 1.4375  , 1.9975  , 2.0875  , 1.9625  , 1.6475  , 1.2975  , 0.865  , 0.4975  , 0.1  , -0.09  , 0.26  , -0.015  , 0.1975  , 0.37  , 0.4175  , 0.4975  , 0.675  , 0.945  , 1.05  , 1.29  , 1.1875  , 1.4525  , 1.4375  , 1.4675  , 1.55  , 1.0625  , 1.325  , 1.055  , 0.9825  , 1.0475 );
	kernels[25] = compute_kernel(x,   -0.2825  , -0.3275  , -0.2975  , -0.2425  , -0.13  , -0.025  , -0.0225  , -0.0125  , 0.025  , -0.0475  , -0.05  , -0.155  , -0.07  , -0.0775  , -0.035  , -0.015  , 0.015  , 0.035  , -0.025  , -0.0675  , -0.055  , -0.0275  , -0.015  , 0.0  , -0.01  , -0.0125  , 0.0125  , -0.0125  , 0.0025  , 0.0175  , 0.0125  , 0.9025  , 1.27  , 1.4775  , 0.9525  , 0.8125  , 0.5275  , 0.1375  , 0.1575  , 0.0125  , -0.3325  , -0.59  , -0.9375  , -1.055  , -0.7975  , -0.495  , -0.315  , 0.1225  , 0.335  , 0.0575  , 0.3  , 0.1425  , 0.085  , 0.085  , 0.0575  , -0.0675  , -0.03  , 0.02  , -0.1275  , -0.0325  , -0.015  , 0.04  , 2.025  , 1.81  , 1.2175  , 0.675  , 0.2425  , 0.0175  , -0.05  , 0.1925  , 0.2075  , 0.4325  , 0.7825  , 0.7575  , 1.16  , 1.2525  , 1.3825  , 1.49  , 1.3375  , 1.2575  , 1.0725  , 1.14  , 1.075  , 0.8975  , 0.985  , 0.98  , 0.9225  , 1.0025  , 1.005  , 0.96  , 0.985  , 0.985  , 0.9675 );
	kernels[26] = compute_kernel(x,   -0.0825  , -0.2275  , -0.3875  , -0.53  , -0.5225  , -0.4525  , -0.345  , -0.35  , -0.3  , -0.2675  , -0.215  , -0.2675  , -0.125  , -0.06  , 0.105  , 0.1175  , 0.105  , -0.0125  , -0.055  , -0.1175  , -0.13  , -0.075  , -0.0925  , -0.08  , -0.055  , -0.0425  , -0.0325  , -0.0325  , -0.0475  , -0.0425  , -0.03  , 1.255  , 0.24  , -0.44  , -0.9425  , -1.0975  , -1.0925  , -0.8525  , -0.855  , -0.5825  , -0.1775  , -0.0725  , 0.215  , 0.74  , 0.6225  , 1.3675  , 0.85  , 0.71  , 0.4375  , 0.3175  , 0.0575  , -0.15  , -0.1975  , -0.0225  , -0.0475  , 0.035  , 0.0125  , 0.045  , 0.0625  , 0.05  , 0.05  , 0.0425  , 1.065  , 1.35  , 1.5525  , 1.7475  , 1.5925  , 1.2525  , 1.0075  , 0.715  , 0.5175  , 0.2575  , 0.14  , 0.1125  , 0.1775  , 0.3275  , 0.7375  , 0.96  , 1.1675  , 1.305  , 1.3725  , 1.445  , 1.3625  , 1.1875  , 1.185  , 1.0225  , 0.955  , 0.925  , 0.8975  , 0.9275  , 0.9775  , 0.9675  , 0.97 );
	kernels[27] = compute_kernel(x,   -0.355  , -0.3425  , -0.285  , -0.2375  , -0.2075  , -0.15  , -0.1825  , -0.245  , -0.1625  , -0.1175  , -0.05  , 0.025  , 0.01  , 0.04  , 0.13  , 0.025  , 0.14  , -0.045  , -0.08  , -0.0825  , -0.085  , -0.0625  , -0.0425  , -0.0325  , -0.0325  , -0.0125  , -0.0175  , -0.0175  , -0.0375  , -0.035  , -0.0575  , -0.6025  , -0.8625  , -0.95  , -0.7475  , -0.665  , -0.465  , -0.5575  , -0.4325  , 0.3375  , 0.5325  , 0.6925  , 0.7325  , 0.8175  , 0.475  , 0.49  , 0.58  , 0.4475  , 0.1925  , -0.12  , -0.23  , -0.2025  , -0.0925  , -0.03  , 0.0375  , 0.0025  , 0.01  , -0.0175  , -0.0175  , -0.08  , -0.0175  , -0.05  , 1.7375  , 1.6625  , 1.225  , 0.965  , 0.6275  , 0.445  , 0.41  , 0.21  , 0.26  , 0.31  , 0.425  , 0.73  , 0.925  , 0.985  , 1.0675  , 1.175  , 1.22  , 1.2075  , 1.415  , 1.235  , 1.1925  , 1.135  , 0.99  , 0.985  , 0.9675  , 0.94  , 0.9325  , 0.9325  , 0.96  , 0.99  , 1.0175 );
	kernels[28] = compute_kernel(x,   -0.2125  , -0.225  , -0.2075  , -0.2125  , -0.1625  , -0.1225  , -0.1775  , -0.1925  , -0.07  , -0.105  , -0.0475  , 0.06  , 0.1  , 0.085  , 0.0675  , 0.0675  , 0.0225  , -0.0025  , -0.0875  , -0.0625  , -0.0925  , -0.0575  , -0.0625  , -0.0425  , -0.0425  , -0.03  , -0.0225  , -0.015  , -0.02  , -0.0275  , -0.02  , -0.94  , -0.915  , -0.705  , -0.7225  , -0.4  , -0.2025  , -0.58  , 0.0775  , 0.45  , 0.0075  , 0.5725  , 0.7425  , 1.06  , 0.8375  , 0.6575  , 0.4975  , 0.325  , 0.1175  , -0.0325  , -0.195  , -0.1575  , -0.215  , -0.2025  , -0.0775  , -0.13  , -0.0125  , -0.05  , 0.0  , -0.09  , -0.02  , -0.02  , 1.5525  , 1.27  , 1.2675  , 0.895  , 0.68  , 0.5775  , 0.3925  , 0.3425  , 0.2725  , 0.2025  , 0.4175  , 0.51  , 0.88  , 0.9975  , 1.065  , 1.2025  , 1.2775  , 1.445  , 1.435  , 1.205  , 1.195  , 1.04  , 1.0275  , 0.98  , 0.925  , 0.95  , 0.9025  , 0.92  , 0.9125  , 0.9675  , 1.005 );
	kernels[29] = compute_kernel(x,   -0.2525  , -0.3025  , -0.245  , -0.165  , -0.12  , -0.0925  , -0.1125  , -0.145  , -0.085  , -0.0025  , 0.06  , 0.0625  , 0.0025  , 0.0775  , 0.095  , -0.05  , 0.035  , -0.0475  , -0.0775  , -0.0475  , -0.0325  , -0.0125  , -0.025  , -0.045  , -0.035  , -0.0125  , -0.015  , -0.01  , -0.02  , -0.0125  , -0.02  , -0.9775  , -1.0975  , -0.7275  , -0.2825  , -0.28  , 0.0525  , 0.0825  , 0.1575  , 0.53  , 1.0575  , 0.885  , 0.6575  , 0.5725  , 0.5075  , 0.43  , 0.26  , 0.0025  , -0.2775  , -0.26  , -0.1425  , -0.0525  , -0.1225  , -0.1375  , -0.135  , -0.1175  , -0.0025  , -0.0125  , -0.0375  , -0.0575  , -0.0325  , -0.055  , 0.995  , 0.75  , 0.5925  , 0.44  , 0.3975  , 0.3  , 0.4025  , 0.3625  , 0.35  , 0.6675  , 0.735  , 1.05  , 1.25  , 1.165  , 1.2575  , 1.3975  , 1.2125  , 1.25  , 1.26  , 1.17  , 1.085  , 0.9125  , 0.91  , 0.9075  , 0.9175  , 0.92  , 0.97  , 0.96  , 0.965  , 0.97  , 0.9875 );
	kernels[30] = compute_kernel(x,   0.07  , -0.11  , -0.3675  , -0.4575  , -0.4825  , -0.35  , -0.3075  , -0.3075  , -0.2975  , -0.3475  , -0.2525  , -0.1525  , -0.0725  , 0.0525  , 0.1075  , 0.0775  , 0.0775  , 0.1575  , 0.1125  , 0.0425  , 0.0  , -0.085  , -0.085  , -0.0425  , 0.0025  , -0.0025  , -0.015  , -0.04  , -0.0375  , -0.0125  , -0.0075  , 1.6275  , 0.69  , -0.315  , -0.955  , -1.515  , -1.44  , -1.285  , -1.0  , -0.2975  , -0.48  , 0.2075  , 0.585  , 0.545  , 0.9925  , 0.4475  , 0.525  , 0.5575  , 0.585  , 0.545  , 0.4575  , -0.045  , -0.2725  , -0.1975  , -0.0525  , -0.125  , -0.075  , -0.1  , -0.18  , -0.07  , -0.035  , -0.0225  , 1.0  , 1.1825  , 1.6675  , 1.9675  , 1.6875  , 1.245  , 0.8575  , 0.545  , 0.305  , 0.205  , 0.0225  , 0.1675  , 0.1125  , 0.48  , 0.7175  , 0.875  , 1.2025  , 1.25  , 1.3525  , 1.555  , 1.3825  , 1.2975  , 1.2775  , 1.0825  , 0.895  , 0.835  , 0.88  , 0.8925  , 0.9575  , 0.955  , 0.9275 );
	kernels[31] = compute_kernel(x,   -0.16  , -0.21  , -0.2275  , -0.2225  , -0.245  , -0.225  , -0.165  , -0.195  , -0.1425  , -0.035  , 0.045  , 0.155  , 0.1875  , 0.155  , 0.04  , -0.06  , -0.0975  , -0.1125  , -0.0825  , -0.04  , 0.0125  , 0.0  , -0.0125  , -0.0025  , 0.0075  , 0.0075  , 0.0  , 0.0025  , -0.005  , 0.0075  , 0.0025  , -0.94  , -1.075  , -1.025  , -0.7675  , -0.5875  , -0.3225  , 0.2175  , 0.07  , 0.525  , 0.52  , 0.8925  , 1.1975  , 1.05  , 0.6425  , 0.4175  , -0.0125  , -0.3725  , -0.3  , -0.195  , -0.1875  , -0.09  , -0.0375  , -0.04  , 0.0325  , 0.05  , -0.06  , 0.005  , 0.0175  , -0.0075  , -0.005  , -0.0075  , 1.4325  , 1.215  , 0.8725  , 0.655  , 0.4075  , 0.1675  , 0.295  , 0.0925  , 0.205  , 0.445  , 0.66  , 1.1225  , 1.1775  , 1.29  , 1.445  , 1.52  , 1.445  , 1.375  , 1.1725  , 0.995  , 0.85  , 0.8425  , 0.8725  , 0.9175  , 0.9475  , 0.945  , 0.9725  , 1.0075  , 0.9875  , 0.9925  , 1.01 );
	kernels[32] = compute_kernel(x,   -0.08  , -0.3375  , -0.3325  , -0.2625  , -0.1475  , -0.1325  , -0.12  , -0.1725  , -0.2175  , -0.1375  , -0.1975  , -0.26  , -0.215  , -0.2525  , -0.1  , 0.0325  , 0.1475  , 0.1425  , 0.1525  , 0.135  , 0.02  , 0.1225  , 0.0775  , 0.095  , 0.0675  , 0.035  , 0.05  , 0.035  , 0.055  , 0.04  , 0.05  , 1.8725  , 0.9  , -0.11  , -0.93  , -1.1575  , -1.3125  , -1.2  , -1.23  , -0.8625  , -0.335  , -0.4025  , 0.0725  , 0.31  , 0.285  , 0.945  , 0.7775  , 1.0825  , 0.875  , 0.72  , 0.365  , 0.2425  , 0.1375  , 0.0525  , 0.0525  , -0.21  , -0.165  , -0.14  , -0.0975  , 0.0125  , -0.06  , 0.035  , 1.005  , 1.595  , 1.8825  , 1.875  , 1.6575  , 1.4075  , 1.025  , 0.6625  , 0.535  , 0.455  , 0.2175  , 0.305  , 0.135  , 0.05  , 0.3975  , 0.455  , 0.85  , 1.1675  , 1.285  , 1.51  , 1.5325  , 1.15  , 1.265  , 1.1075  , 1.04  , 1.1075  , 1.06  , 1.015  , 0.9625  , 0.9725  , 0.96 );
	kernels[33] = compute_kernel(x,   -0.035  , -0.3575  , -0.2725  , -0.085  , -0.095  , -0.175  , -0.1875  , -0.195  , -0.28  , -0.2075  , -0.1575  , -0.2075  , -0.1225  , -0.1425  , -0.015  , 0.1275  , 0.0975  , 0.0625  , 0.1475  , 0.065  , 0.135  , 0.21  , 0.075  , 0.045  , 0.0675  , 0.0475  , 0.0425  , 0.0575  , 0.055  , 0.0625  , 0.0525  , 1.96  , 1.0025  , -0.0975  , -0.655  , -1.04  , -1.41  , -1.2975  , -1.1775  , -0.825  , -0.14  , -0.1625  , -0.0675  , 0.4125  , 0.145  , 0.965  , 0.81  , 0.7  , 0.7575  , 0.5375  , 0.72  , 0.5575  , 0.2725  , 0.22  , -0.2175  , -0.1525  , -0.165  , -0.2875  , -0.12  , -0.0925  , 0.035  , -0.005  , 1.105  , 1.3075  , 1.65  , 1.9225  , 1.8275  , 1.665  , 1.1025  , 0.66  , 0.4  , 0.25  , 0.1225  , 0.04  , 0.0875  , 0.29  , 0.5925  , 0.7875  , 0.9825  , 0.9975  , 1.0525  , 1.23  , 1.2025  , 1.3575  , 1.37  , 1.245  , 1.305  , 1.1625  , 0.965  , 0.9225  , 0.9275  , 0.9375  , 0.9425 );
	kernels[34] = compute_kernel(x,   -0.125  , -0.3225  , -0.3375  , -0.2025  , -0.12  , -0.09  , -0.105  , -0.1725  , -0.1925  , -0.235  , -0.27  , -0.1875  , -0.1725  , -0.18  , 0.035  , 0.1475  , 0.1825  , 0.2025  , 0.055  , 0.105  , 0.075  , 0.105  , 0.0675  , 0.0575  , 0.0525  , 0.0325  , 0.035  , 0.0125  , 0.0425  , 0.04  , 0.0475  , 1.31  , 0.25  , -0.4325  , -0.9975  , -1.22  , -1.34  , -1.1875  , -1.0025  , -0.655  , -0.4275  , -0.305  , 0.3925  , 0.1775  , 0.4075  , 0.95  , 0.6  , 0.8275  , 0.805  , 0.4725  , 0.465  , 0.34  , 0.005  , -0.2625  , -0.2075  , -0.2925  , -0.265  , -0.19  , -0.125  , -0.075  , -0.06  , -0.0475  , 1.0975  , 1.555  , 1.9625  , 1.895  , 1.45  , 1.14  , 0.8425  , 0.5875  , 0.62  , 0.4375  , 0.2825  , 0.4075  , 0.24  , 0.27  , 0.515  , 0.4925  , 0.865  , 1.1625  , 1.28  , 1.635  , 1.4325  , 1.2275  , 1.2225  , 1.255  , 1.105  , 1.005  , 0.9625  , 0.97  , 0.9375  , 0.9175  , 0.9525 );
	kernels[35] = compute_kernel(x,   0.005  , -0.1475  , -0.2225  , -0.265  , -0.2875  , -0.275  , -0.29  , -0.3025  , -0.42  , -0.4825  , -0.4025  , -0.2625  , -0.32  , -0.2175  , -0.035  , -0.065  , 0.1025  , 0.0775  , 0.205  , 0.065  , 0.11  , 0.0875  , -0.0725  , 0.0  , 0.025  , 0.0325  , 0.005  , -0.005  , 0.0025  , 0.01  , 0.02  , 1.4975  , 0.5475  , -0.4275  , -0.875  , -1.0125  , -1.375  , -1.4625  , -1.1375  , -1.0875  , -0.85  , -0.02  , 0.2375  , 0.1025  , 0.9775  , 0.8075  , 0.73  , 1.27  , 1.0375  , 0.955  , 0.72  , 0.3875  , -0.135  , -0.2175  , -0.3575  , -0.145  , -0.1375  , -0.175  , -0.15  , -0.1475  , -0.015  , -0.0175  , 1.0575  , 1.1575  , 1.6475  , 2.4  , 1.99  , 1.67  , 1.1325  , 0.6575  , 0.3625  , 0.0125  , -0.2025  , -0.1475  , -0.3675  , 0.0875  , 0.325  , 0.405  , 1.1125  , 1.2125  , 1.23  , 1.3575  , 1.325  , 1.4325  , 1.505  , 1.3475  , 1.2825  , 1.0825  , 0.955  , 0.9875  , 0.915  , 0.99  , 0.975 );
	kernels[36] = compute_kernel(x,   0.0675  , -0.08  , -0.1725  , -0.18  , -0.135  , -0.075  , -0.0725  , -0.12  , -0.1975  , -0.12  , -0.1375  , -0.1475  , -0.015  , -0.06  , 0.01  , 0.13  , 0.05  , 0.1675  , 0.14  , 0.185  , 0.0575  , 0.095  , 0.1  , 0.025  , 0.0475  , 0.0475  , 0.04  , 0.0325  , 0.0375  , 0.05  , 0.0475  , 1.3825  , 0.2475  , -0.795  , -1.255  , -1.2375  , -1.02  , -0.8775  , -0.775  , -0.6225  , -0.2  , -0.2375  , 0.0525  , 0.5725  , 0.3325  , 0.5125  , 1.0175  , 0.775  , 0.935  , 0.6325  , 0.21  , -0.135  , -0.11  , -0.3025  , -0.3475  , -0.3225  , -0.1425  , 0.01  , -0.11  , 0.08  , 0.005  , -0.0575  , 1.095  , 1.2425  , 1.6825  , 1.7175  , 1.535  , 1.2375  , 0.8825  , 0.69  , 0.4725  , 0.4925  , 0.305  , 0.03  , 0.285  , 0.235  , 0.62  , 0.955  , 0.9275  , 1.16  , 1.2  , 1.1975  , 1.4675  , 1.51  , 1.39  , 1.275  , 0.9825  , 0.935  , 0.9275  , 0.865  , 0.9325  , 0.9425  , 0.9375 );
	kernels[37] = compute_kernel(x,   -0.225  , -0.2075  , -0.17  , -0.225  , -0.195  , -0.1575  , -0.1575  , -0.0875  , -0.11  , -0.005  , -0.02  , 0.0275  , 0.0725  , -0.095  , -0.015  , 0.0825  , -0.02  , 0.0  , -0.0525  , -0.03  , -0.0175  , -0.0125  , -0.0325  , -0.02  , -0.0075  , -0.0025  , -0.015  , 0.0  , -0.0025  , 0.02  , 0.0225  , -0.895  , -1.0275  , -1.05  , -0.96  , -0.59  , -0.415  , -0.135  , 0.2225  , 0.405  , 0.7125  , 0.405  , 0.8175  , 0.785  , 0.6525  , 0.905  , 0.545  , 0.39  , -0.2075  , -0.455  , -0.22  , -0.24  , -0.05  , -0.07  , 0.01  , 0.0075  , -0.0575  , -0.01  , -0.0275  , -0.045  , 0.0525  , -0.045  , 1.8425  , 1.5825  , 1.1875  , 0.7525  , 0.515  , 0.4125  , 0.13  , 0.065  , 0.2275  , 0.3  , 0.3  , 0.7625  , 1.2575  , 1.2125  , 1.335  , 1.305  , 1.33  , 1.27  , 1.205  , 1.215  , 1.0725  , 0.96  , 0.9225  , 0.99  , 0.9125  , 0.9025  , 0.9825  , 0.955  , 0.93  , 1.015  , 0.9175 );
	kernels[38] = compute_kernel(x,   0.0075  , -0.08  , -0.0775  , -0.14  , -0.185  , -0.2125  , -0.225  , -0.2925  , -0.2975  , -0.29  , -0.35  , -0.3025  , -0.37  , -0.075  , 0.05  , 0.0075  , 0.1875  , 0.07  , 0.135  , 0.08  , 0.1175  , 0.14  , 0.015  , -0.01  , -0.0525  , -0.0525  , -0.0275  , 0.01  , 0.025  , -0.0075  , 0.015  , 1.13  , 0.4375  , -0.32  , -0.8175  , -1.3075  , -1.4525  , -1.205  , -1.16  , -0.9325  , -0.44  , -0.1425  , 0.105  , 0.4575  , 1.44  , 0.7325  , 0.4925  , 0.845  , 0.6825  , 0.705  , 0.8025  , 0.59  , 0.5025  , 0.415  , -0.2925  , -0.2475  , -0.3825  , -0.275  , -0.16  , -0.0525  , -0.11  , -0.045  , 1.18  , 1.2475  , 1.5625  , 1.67  , 1.5425  , 1.5325  , 1.0175  , 0.5475  , 0.3125  , 0.125  , 0.1125  , 0.16  , 0.1  , 0.5975  , 0.445  , 0.46  , 0.755  , 0.86  , 1.1075  , 1.2375  , 1.2425  , 1.395  , 1.3375  , 1.245  , 1.31  , 1.2525  , 1.095  , 1.055  , 0.93  , 0.87  , 0.9 );
	kernels[39] = compute_kernel(x,   -0.01  , -0.14  , -0.1725  , -0.16  , -0.21  , -0.19  , -0.175  , -0.22  , -0.2475  , -0.1375  , -0.1975  , -0.1  , -0.01  , -0.09  , 0.0575  , 0.0575  , 0.0175  , 0.1475  , 0.0875  , 0.0525  , 0.19  , 0.0225  , 0.1075  , 0.1075  , -0.0125  , 0.0425  , 0.03  , 0.0225  , 0.035  , 0.0275  , 0.0375  , 1.1025  , 0.115  , -0.5375  , -0.855  , -1.1825  , -1.18  , -0.8925  , -0.935  , -0.7075  , -0.1175  , -0.3875  , 0.495  , 0.25  , 0.16  , 0.8625  , 0.2575  , 0.885  , 1.22  , 0.755  , 0.79  , 0.7025  , 0.4125  , 0.2675  , 0.185  , -0.14  , -0.2725  , -0.1775  , -0.215  , -0.175  , -0.085  , -0.1575  , 1.0475  , 1.5625  , 1.9775  , 2.1925  , 1.7225  , 1.24  , 0.895  , 0.585  , 0.4525  , 0.3525  , 0.1775  , 0.13  , 0.245  , 0.1525  , 0.4625  , 0.4125  , 0.68  , 1.01  , 1.03  , 1.06  , 1.2625  , 1.3075  , 1.355  , 1.39  , 1.24  , 1.185  , 1.235  , 0.975  , 0.95  , 0.97  , 0.8725 );
	kernels[40] = compute_kernel(x,   -0.1875  , -0.23  , -0.25  , -0.23  , -0.23  , -0.2725  , -0.2575  , -0.1875  , -0.1625  , -0.1225  , -0.1025  , -0.12  , -0.17  , -0.075  , 0.09  , 0.0225  , 0.0975  , 0.1125  , 0.005  , 0.1  , 0.02  , 0.0475  , 0.0425  , 0.045  , 0.0625  , 0.045  , 0.0625  , 0.055  , 0.0475  , 0.0475  , 0.0475  , -0.4925  , -1.0375  , -1.2925  , -1.0075  , -0.885  , -0.885  , -0.5275  , -0.205  , -0.1425  , 0.15  , 0.6275  , 0.55  , 0.7125  , 0.7775  , 1.155  , 0.7675  , 0.45  , 0.4575  , 0.18  , -0.06  , -0.4025  , -0.3675  , -0.35  , -0.12  , -0.12  , -0.1325  , -0.0425  , -0.04  , 0.0  , -0.13  , -0.055  , 2.2025  , 2.0525  , 1.6575  , 1.225  , 0.79  , 0.445  , 0.15  , 0.0325  , -0.115  , 0.0225  , 0.28  , 0.455  , 0.8575  , 0.9325  , 1.22  , 1.13  , 0.965  , 1.425  , 1.5525  , 1.3425  , 1.36  , 1.2025  , 1.095  , 1.065  , 0.9375  , 0.9425  , 0.915  , 0.9075  , 0.9625  , 0.94  , 0.94 );
	kernels[41] = compute_kernel(x,   -0.0375  , -0.1125  , -0.21  , -0.265  , -0.265  , -0.3025  , -0.205  , -0.1325  , -0.04  , 0.1525  , 0.0425  , 0.15  , 0.1475  , 0.05  , 0.135  , 0.0  , -0.0625  , -0.02  , 0.0  , 0.0075  , 0.0125  , 0.0275  , 0.0025  , 0.0275  , 0.04  , 0.0375  , 0.065  , 0.0525  , 0.04  , 0.0475  , 0.0475  , -0.9925  , -0.945  , -0.9825  , -0.515  , -0.215  , 0.0025  , 0.67  , 0.435  , 0.795  , 0.9075  , 0.665  , 0.5825  , 0.4975  , 0.3425  , 0.17  , 0.1425  , -0.4225  , -0.4  , -0.1225  , -0.2825  , -0.19  , -0.0775  , -0.1875  , -0.02  , -0.03  , -0.055  , -0.0175  , 0.01  , 0.005  , -0.1275  , -0.0925  , 1.2375  , 0.895  , 0.5725  , 0.355  , 0.2275  , 0.0575  , 0.255  , 0.1825  , 0.3975  , 0.835  , 1.0225  , 1.2125  , 1.37  , 1.38  , 1.46  , 1.5275  , 1.29  , 1.0925  , 1.065  , 1.03  , 0.905  , 0.8775  , 0.875  , 0.8975  , 1.015  , 0.955  , 0.9525  , 1.005  , 1.04  , 0.9475  , 0.965 );
	kernels[42] = compute_kernel(x,   -0.1575  , -0.21  , -0.2075  , -0.21  , -0.2225  , -0.2075  , -0.135  , -0.1475  , -0.075  , 0.005  , -0.085  , 0.0125  , 0.05  , -0.0175  , 0.1175  , 0.1825  , 0.165  , 0.0625  , 0.1025  , -0.0575  , -0.035  , 0.025  , 0.0225  , 0.0175  , -0.01  , -0.0025  , 0.0125  , 0.0275  , 0.0475  , 0.0375  , 0.045  , -0.9175  , -1.1125  , -1.2075  , -1.0175  , -0.7625  , -0.265  , 0.0175  , -0.015  , 0.5075  , 0.2825  , 0.205  , 0.7075  , 0.3175  , 0.7975  , 1.18  , 1.0  , 0.5425  , 0.47  , 0.09  , -0.305  , -0.35  , -0.3825  , -0.2475  , -0.215  , -0.2275  , -0.195  , -0.21  , -0.0925  , -0.125  , -0.1675  , -0.03  , 1.91  , 1.705  , 1.115  , 0.7075  , 0.4625  , 0.3625  , 0.3675  , 0.125  , 0.2775  , 0.305  , 0.1375  , 0.725  , 0.7775  , 0.99  , 1.6025  , 1.0775  , 1.01  , 1.2175  , 1.3425  , 1.3725  , 1.385  , 1.075  , 1.085  , 1.055  , 0.9625  , 0.9125  , 0.875  , 0.97  , 0.885  , 0.92  , 1.045 );
	kernels[43] = compute_kernel(x,   0.025  , -0.0425  , -0.1075  , -0.2325  , -0.255  , -0.3025  , -0.1875  , -0.085  , -0.145  , -0.12  , -0.13  , -0.065  , 0.055  , 0.025  , 0.1725  , 0.0425  , 0.015  , 0.0975  , -0.05  , 0.115  , 0.0075  , -0.0675  , 0.01  , -0.025  , 0.02  , 0.0125  , 0.015  , 0.01  , 0.025  , 0.045  , 0.065  , -0.6275  , -0.915  , -1.105  , -1.2375  , -0.895  , -0.8175  , -0.07  , 0.245  , -0.015  , 0.4425  , 0.4475  , 0.745  , 1.0275  , 0.995  , 0.89  , 0.3  , 0.2175  , 0.18  , 0.15  , 0.2425  , -0.22  , -0.4975  , -0.375  , -0.355  , -0.33  , -0.3275  , -0.2275  , -0.24  , -0.1775  , -0.1475  , -0.1225  , 2.0425  , 1.8325  , 1.4525  , 0.9475  , 0.675  , 0.18  , 0.255  , 0.0775  , 0.1125  , 0.1  , 0.14  , 0.73  , 0.9025  , 1.1625  , 1.3125  , 1.2475  , 1.1525  , 1.3275  , 1.2625  , 1.135  , 1.08  , 1.21  , 1.2225  , 1.2075  , 1.06  , 0.9175  , 0.9025  , 0.835  , 0.905  , 0.8875  , 0.8975 );
	kernels[44] = compute_kernel(x,   -0.1375  , -0.1725  , -0.1975  , -0.185  , -0.19  , -0.1975  , -0.175  , -0.0825  , -0.13  , -0.1  , 0.0775  , 0.02  , 0.18  , -0.0125  , -0.0925  , 0.04  , 0.0075  , 0.1025  , -0.09  , -0.13  , -0.0625  , -0.06  , -0.0425  , -0.05  , -0.0575  , -0.025  , -0.015  , 0.015  , 0.005  , -0.0075  , 0.0  , -1.145  , -1.0275  , -0.995  , -0.7425  , -0.33  , -0.3825  , -0.21  , 0.1225  , 0.0425  , 0.5125  , 0.6675  , 0.705  , 1.015  , 0.6225  , 0.5225  , 0.4275  , 0.4075  , 0.0275  , -0.52  , -0.525  , -0.33  , -0.2575  , -0.1025  , -0.065  , -0.0625  , -0.1175  , -0.0425  , 0.05  , -0.0775  , -0.0375  , -0.01  , 1.485  , 1.445  , 0.905  , 0.8075  , 0.725  , 0.44  , 0.3  , 0.1325  , -0.0475  , 0.2175  , 0.3775  , 0.695  , 1.23  , 1.415  , 1.4975  , 1.185  , 1.3175  , 1.2675  , 1.3675  , 1.3975  , 1.0775  , 1.0125  , 0.8875  , 0.865  , 0.89  , 0.8625  , 0.925  , 1.0025  , 0.96  , 0.9975  , 1.015 );
	kernels[45] = compute_kernel(x,   0.0075  , -0.1325  , -0.245  , -0.205  , -0.2075  , -0.245  , -0.2575  , -0.2375  , -0.235  , -0.38  , -0.2425  , -0.275  , -0.415  , -0.0525  , -0.055  , -0.135  , 0.0225  , 0.0325  , 0.0775  , 0.1475  , -0.05  , -0.0475  , -0.1  , -0.1875  , -0.1475  , -0.0775  , -0.04  , -0.06  , -0.04  , -0.02  , -0.03  , 1.275  , 0.3525  , -0.5875  , -1.02  , -1.1  , -1.14  , -1.1825  , -0.685  , -0.6475  , -0.875  , -0.0675  , -0.145  , 0.4075  , 1.095  , 0.3025  , 0.6075  , 1.245  , 1.06  , 1.125  , 0.675  , 0.34  , -0.045  , -0.4125  , -0.3875  , -0.4725  , -0.3775  , -0.1625  , -0.2225  , -0.0925  , -0.0825  , -0.1025  , 0.9475  , 1.3175  , 1.7875  , 2.035  , 1.8725  , 1.335  , 0.8075  , 0.5375  , 0.4775  , 0.0875  , 0.155  , 0.2  , -0.02  , 0.6075  , 0.4725  , 0.7175  , 0.9225  , 1.015  , 1.055  , 1.2675  , 1.3175  , 1.345  , 1.55  , 1.55  , 1.2225  , 1.0925  , 1.04  , 0.84  , 0.87  , 0.875  , 0.9 );
	kernels[46] = compute_kernel(x,   -0.1425  , -0.215  , -0.28  , -0.22  , -0.2225  , -0.2375  , -0.2025  , -0.12  , 0.0125  , 0.01  , 0.115  , 0.1325  , 0.05  , 0.1375  , -0.07  , -0.0425  , -0.0725  , -0.1225  , -0.085  , -0.055  , -0.0225  , -0.0325  , -0.0375  , -0.03  , -0.0375  , -0.01  , -0.0175  , -0.005  , -0.02  , -0.0325  , -0.0175  , -0.8  , -0.8025  , -0.9925  , -0.6875  , -0.535  , -0.3975  , -0.0425  , 0.615  , 0.7475  , 0.69  , 0.8075  , 0.4675  , 0.395  , 0.2575  , 0.06  , 0.135  , -0.305  , -0.4  , -0.3875  , -0.265  , -0.1425  , -0.16  , -0.15  , -0.0875  , -0.05  , -0.0975  , -0.0825  , -0.04  , -0.1375  , -0.0875  , -0.075  , 1.6725  , 1.3525  , 0.705  , 0.525  , 0.36  , 0.085  , 0.22  , 0.215  , 0.3075  , 0.54  , 0.775  , 1.0025  , 1.195  , 1.4025  , 1.5975  , 1.535  , 1.3475  , 1.215  , 1.065  , 0.9675  , 0.93  , 0.8675  , 0.89  , 0.8975  , 0.975  , 0.9525  , 0.945  , 0.9875  , 0.9775  , 1.0325  , 0.9725 );
	kernels[47] = compute_kernel(x,   0.5675  , -2.61  , -4.0  , -2.5325  , -1.545  , -0.8575  , -0.7025  , -0.78  , -0.78  , -0.765  , -0.72  , -0.715  , -0.7025  , -0.7425  , -0.77  , -0.765  , -0.75  , -0.745  , -0.72  , -0.71  , -0.7025  , -0.6925  , -0.7  , -0.7025  , -0.695  , -0.6825  , -0.665  , -0.6875  , -0.695  , -0.68  , -0.685  , -0.74  , -1.15  , 0.9325  , 0.68  , -0.42  , 0.245  , 0.0075  , 0.145  , 0.1275  , -0.05  , 0.01  , 0.0575  , 0.055  , 0.055  , 0.0525  , 0.0425  , 0.1225  , 0.045  , 0.1325  , 0.0675  , 0.0675  , 0.0975  , 0.0025  , 0.085  , 0.08  , 0.02  , 0.0375  , 0.085  , 0.0525  , -0.005  , 0.115  , -3.585  , -3.635  , 2.9725  , 0.795  , 1.56  , 0.7875  , 0.4925  , 0.7475  , 0.4525  , 0.5675  , 0.5625  , 0.535  , 0.555  , 0.7  , 0.61  , 0.655  , 0.72  , 0.645  , 0.68  , 0.6325  , 0.6625  , 0.69  , 0.6275  , 0.73  , 0.74  , 0.6375  , 0.7125  , 0.8  , 0.6925  , 0.755  , 0.8675 );
	kernels[48] = compute_kernel(x,   0.5925  , -3.3  , -3.7675  , -2.0  , -1.2875  , -0.74  , -0.65  , -0.7475  , -0.7575  , -0.7375  , -0.7275  , -0.695  , -0.6775  , -0.6775  , -0.68  , -0.715  , -0.7125  , -0.7225  , -0.7125  , -0.705  , -0.695  , -0.68  , -0.68  , -0.6875  , -0.675  , -0.68  , -0.6625  , -0.67  , -0.66  , -0.65  , -0.6425  , -0.1  , -1.7825  , 1.47  , -0.5675  , 0.1725  , 0.2075  , 0.1075  , 0.065  , 0.1325  , 0.0325  , -0.0325  , 0.0925  , 0.0175  , 0.0475  , 0.08  , 0.0675  , 0.0825  , 0.0325  , 0.0925  , 0.06  , 0.0325  , 0.08  , 0.0425  , 0.065  , 0.0775  , 0.0325  , 0.055  , 0.0575  , 0.0725  , 0.035  , 0.03  , -3.7  , -3.005  , 3.6825  , -0.5275  , 1.41  , 0.935  , 0.6625  , 0.6675  , 0.675  , 0.625  , 0.6825  , 0.6725  , 0.6275  , 0.6775  , 0.6125  , 0.77  , 0.6725  , 0.685  , 0.6975  , 0.735  , 0.675  , 0.725  , 0.6875  , 0.715  , 0.7225  , 0.745  , 0.64  , 0.79  , 0.71  , 0.685  , 0.6975 );
	kernels[49] = compute_kernel(x,   0.205  , -3.5875  , -3.3775  , -1.965  , -1.6125  , -1.075  , -0.8675  , -0.8225  , -0.8275  , -0.72  , -0.665  , -0.65  , -0.485  , -0.4175  , -0.2925  , -0.2425  , -0.1575  , -0.115  , -0.1025  , 0.0025  , 0.0075  , 0.0875  , 0.105  , 0.1425  , 0.2075  , 0.215  , 0.17  , 0.2075  , 0.17  , 0.185  , 0.195  , -0.62  , -0.87  , 1.76  , 0.0  , 0.3325  , 0.1025  , 0.03  , 0.085  , 0.3675  , -0.095  , 0.0125  , 0.0925  , -0.105  , 0.135  , -0.0575  , 0.015  , 0.0425  , -0.015  , 0.0225  , -0.06  , 0.0275  , -0.0075  , -0.025  , -0.06  , -0.0325  , -0.0175  , 0.0675  , -0.07  , -0.0175  , 0.0175  , -0.0075  , -3.7675  , -2.015  , 3.9275  , -0.0775  , 1.62  , 1.155  , 0.7925  , 0.9375  , 1.015  , 0.645  , 1.14  , 0.5525  , 0.8775  , 0.8425  , 0.4925  , 1.05  , 0.77  , 0.8775  , 1.0975  , 0.6875  , 1.1075  , 0.7625  , 0.9575  , 0.8925  , 0.77  , 0.8375  , 1.0275  , 0.7775  , 1.0175  , 0.97  , 0.92 );
	kernels[50] = compute_kernel(x,   0.4675  , 0.035  , -0.93  , -0.7025  , -0.3225  , 0.1  , 0.2275  , -0.055  , -0.1775  , -0.1  , -0.04  , 0.025  , 0.035  , -0.005  , -0.0025  , 0.0375  , 0.0175  , 0.0175  , 0.025  , 0.0225  , 0.02  , 0.035  , 0.05  , 0.0625  , 0.0875  , 0.0925  , 0.0925  , 0.1125  , 0.1175  , 0.095  , 0.065  , -0.1225  , -0.4075  , 0.135  , 0.41  , 0.07  , 0.1  , 0.115  , 0.255  , 0.1075  , -0.0775  , -0.04  , 0.11  , 0.085  , 0.075  , 0.125  , 0.0475  , 0.0525  , 0.0625  , 0.145  , 0.06  , 0.055  , 0.0875  , 0.08  , 0.0575  , 0.0625  , 0.0525  , -0.03  , -0.0375  , -0.05  , 0.0425  , 0.0825  , -2.0775  , -1.4425  , 1.97  , 3.175  , 3.6275  , 2.1725  , 0.67  , 0.8975  , 0.97  , 0.8425  , 0.925  , 0.845  , 0.96  , 1.025  , 0.985  , 0.905  , 0.9625  , 0.9375  , 0.9475  , 0.9975  , 1.065  , 1.1075  , 1.105  , 1.0875  , 1.0  , 1.0125  , 1.0025  , 0.98  , 0.9475  , 0.9225  , 1.005 );
	kernels[51] = compute_kernel(x,   0.2675  , -0.47  , -0.6375  , -0.3025  , -0.0675  , 0.1025  , -0.0275  , -0.2175  , -0.235  , -0.1225  , -0.03  , -0.0225  , -0.0175  , 0.0025  , -0.015  , -0.01  , 0.085  , 0.0925  , 0.08  , 0.0825  , 0.08  , 0.12  , 0.1325  , 0.08  , 0.1275  , 0.12  , 0.105  , 0.14  , 0.13  , 0.1325  , 0.115  , -0.4875  , -0.0875  , 0.13  , -0.265  , -0.09  , 0.145  , 0.2575  , -0.035  , -0.2075  , -0.0825  , -0.03  , -0.05  , -0.0275  , -0.11  , -0.2225  , -0.125  , -0.07  , -0.1175  , -0.0575  , -0.0825  , -0.085  , -0.0725  , -0.0475  , -0.0175  , -0.155  , -0.0575  , 0.0075  , -0.07  , -0.065  , -0.0575  , -0.0675  , -1.9325  , 0.5675  , 3.2075  , 3.2575  , 2.855  , 1.0875  , 0.6525  , 0.8675  , 0.9125  , 0.98  , 0.9875  , 1.1725  , 1.29  , 1.21  , 1.23  , 1.16  , 0.9625  , 0.875  , 0.8675  , 0.7725  , 0.845  , 0.725  , 0.735  , 1.06  , 0.8025  , 0.89  , 0.9675  , 0.83  , 0.915  , 0.8875  , 0.9475 );
	kernels[52] = compute_kernel(x,   0.8475  , -0.905  , -4.0  , -3.105  , -1.355  , -0.72  , -0.49  , -0.5625  , -0.6575  , -0.66  , -0.655  , -0.6475  , -0.6425  , -0.6225  , -0.6425  , -0.655  , -0.655  , -0.6425  , -0.63  , -0.6  , -0.6075  , -0.5825  , -0.495  , -0.4  , -0.3575  , -0.3325  , -0.235  , -0.2025  , -0.04  , 0.055  , 0.175  , 0.68  , -0.6575  , 0.0175  , 1.57  , -0.895  , 0.4  , 0.06  , 0.2575  , 0.1675  , 0.0  , 0.0225  , -0.005  , 0.0425  , 0.0425  , 0.0575  , 0.1  , 0.0575  , 0.125  , 0.035  , -0.0325  , -0.0375  , 0.0825  , 0.015  , -0.015  , 0.155  , 0.09  , 0.0125  , -0.1675  , 0.0875  , 0.1175  , -0.0775  , -3.055  , -4.0  , -0.48  , 1.3375  , 1.2125  , 1.1825  , 0.7575  , 0.8225  , 0.84  , 0.6625  , 0.7625  , 0.6575  , 0.7675  , 0.7325  , 0.7825  , 0.805  , 0.805  , 0.9275  , 0.815  , 0.9025  , 0.835  , 0.99  , 0.9325  , 1.2  , 1.195  , 0.8825  , 0.8375  , 0.9525  , 0.425  , 1.055  , 0.6775 );
	kernels[53] = compute_kernel(x,   0.2275  , -0.465  , -0.71  , -0.1125  , 0.31  , 0.23  , 0.0075  , -0.0575  , -0.035  , 0.0475  , 0.0775  , 0.03  , 0.01  , 0.04  , 0.015  , 0.03  , 0.095  , 0.1025  , 0.0875  , 0.0925  , 0.095  , 0.105  , 0.1425  , 0.1625  , 0.09  , 0.075  , -0.0325  , -0.185  , -0.0425  , -0.0375  , -0.0375  , -0.585  , -0.205  , 0.0875  , 0.0075  , 0.11  , 0.31  , 0.19  , 0.0225  , -0.1  , 0.085  , 0.0925  , -0.01  , 0.01  , -0.01  , -0.035  , -0.0675  , -0.0025  , 0.1775  , 0.03  , -0.125  , -0.0825  , 0.0625  , 0.0875  , -0.08  , -0.05  , -0.0825  , -0.1175  , 0.235  , -0.13  , 0.0075  , -0.02  , -2.3775  , -0.18  , 3.0975  , 3.1725  , 1.985  , 1.4225  , 1.31  , 1.155  , 0.975  , 0.84  , 0.8375  , 0.95  , 1.0075  , 0.9075  , 1.03  , 1.0725  , 1.11  , 1.25  , 1.23  , 1.095  , 1.015  , 0.9825  , 0.885  , 0.6775  , 0.79  , 0.615  , 0.6625  , 1.7275  , 0.79  , 0.9425  , 0.9675 );
	kernels[54] = compute_kernel(x,   0.3725  , -0.6625  , -0.4375  , -0.165  , 0.125  , 0.195  , -0.0325  , -0.195  , -0.0925  , 0.015  , 0.025  , 0.0275  , 0.0  , 0.015  , -0.005  , -0.0125  , 0.0225  , 0.05  , 0.1075  , 0.09  , 0.0975  , 0.125  , 0.1075  , 0.105  , 0.1075  , 0.075  , 0.0775  , 0.0725  , 0.0475  , 0.06  , 0.0825  , -0.6  , 0.3825  , 0.0025  , -0.2525  , 0.175  , 0.2325  , 0.2025  , -0.1325  , -0.2025  , -0.0575  , -0.08  , -0.1625  , -0.0375  , -0.04  , -0.115  , -0.15  , -0.125  , -0.0425  , -0.0625  , -0.0425  , -0.0825  , -0.095  , -0.1025  , -0.19  , -0.16  , -0.035  , -0.0325  , -0.065  , -0.1775  , -0.135  , -0.075  , -2.28  , 2.315  , 2.6675  , 3.555  , 2.0275  , 0.5325  , 0.82  , 0.9175  , 0.725  , 0.7525  , 0.97  , 1.155  , 1.2425  , 1.0725  , 1.06  , 1.115  , 1.16  , 1.21  , 1.0475  , 1.0925  , 1.01  , 0.8075  , 0.8575  , 0.8275  , 0.7475  , 0.8675  , 0.835  , 0.83  , 0.895  , 0.925  , 0.9625 );
	kernels[55] = compute_kernel(x,   0.7775  , -0.095  , -3.6625  , -3.7225  , -1.81  , -1.3675  , -0.8325  , -0.66  , -0.705  , -0.7625  , -0.765  , -0.7575  , -0.755  , -0.7075  , -0.695  , -0.7075  , -0.695  , -0.655  , -0.665  , -0.6575  , -0.625  , -0.575  , -0.5225  , -0.47  , -0.4125  , -0.335  , -0.2775  , -0.255  , -0.1925  , -0.1225  , -0.1  , 0.325  , -0.7075  , -0.905  , 1.7975  , -0.0625  , 0.22  , 0.225  , 0.05  , 0.215  , 0.0175  , -0.0975  , -0.0175  , -0.0125  , -0.055  , 0.0225  , 0.09  , 0.04  , 0.1475  , 0.1175  , -0.095  , 0.08  , 0.075  , -0.0675  , -0.0375  , 0.0475  , -0.06  , -0.1425  , -0.035  , -0.1  , -0.085  , -0.0325  , -1.7875  , -3.2225  , -2.4175  , 3.8775  , -0.235  , 1.355  , 0.7125  , 0.5775  , 0.6225  , 0.62  , 0.5425  , 0.6625  , 0.65  , 0.6175  , 0.74  , 0.705  , 0.765  , 0.86  , 0.7725  , 0.8225  , 0.7825  , 0.93  , 0.9475  , 0.9425  , 0.93  , 0.77  , 0.93  , 1.02  , 0.885  , 0.89  , 1.0825 );
	kernels[56] = compute_kernel(x,   0.075  , -0.93  , -1.195  , -0.5975  , -0.105  , 0.0375  , -0.1825  , -0.3825  , -0.31  , -0.195  , -0.1525  , -0.1525  , -0.165  , -0.1525  , -0.175  , -0.165  , -0.06  , -0.04  , -0.06  , -0.03  , 0.0225  , 0.0225  , 0.0225  , 0.075  , 0.08  , 0.095  , 0.09  , 0.085  , 0.0875  , 0.09  , 0.105  , -0.59  , -0.2625  , 0.275  , -0.1075  , 0.0775  , 0.4125  , 0.255  , -0.1725  , -0.255  , -0.16  , -0.055  , 0.035  , -0.0975  , -0.0925  , -0.115  , -0.2  , -0.185  , -0.1675  , -0.12  , -0.155  , -0.14  , -0.105  , -0.1175  , -0.1675  , -0.0725  , -0.1625  , -0.2175  , -0.1875  , -0.23  , -0.2025  , -0.205  , -1.7475  , 0.615  , 3.7775  , 3.2625  , 2.0525  , 0.8925  , 0.885  , 1.0525  , 0.89  , 0.8925  , 0.9375  , 1.1025  , 1.1225  , 1.07  , 1.14  , 1.1775  , 1.0775  , 1.0425  , 1.2175  , 1.0525  , 0.84  , 0.815  , 0.8325  , 0.675  , 0.775  , 0.775  , 0.8225  , 0.885  , 0.9  , 0.95  , 0.91 );
	kernels[57] = compute_kernel(x,   -0.9375  , -4.0  , -3.0375  , -1.82  , -1.0925  , -0.5925  , -0.5125  , -0.56  , -0.63  , -0.6625  , -0.64  , -0.6425  , -0.655  , -0.6675  , -0.6525  , -0.6675  , -0.68  , -0.66  , -0.6675  , -0.6575  , -0.6425  , -0.66  , -0.645  , -0.6325  , -0.6325  , -0.6275  , -0.645  , -0.635  , -0.65  , -0.64  , -0.6325  , 0.265  , 0.21  , -0.2225  , 0.17  , -0.12  , 0.0825  , 0.065  , 0.1425  , 0.0575  , -0.0125  , 0.035  , 0.05  , 0.07  , -0.0525  , 0.055  , 0.095  , 0.0325  , 0.145  , 0.0425  , 0.03  , 0.1275  , 0.005  , 0.0575  , 0.0975  , 0.0325  , 0.0725  , 0.045  , 0.07  , 0.02  , 0.0225  , 0.0825  , -3.97  , -0.24  , 3.4975  , -1.0925  , 1.5775  , 0.47  , 0.48  , 0.8225  , 0.635  , 0.485  , 0.6825  , 0.825  , 0.6  , 0.8075  , 0.7525  , 0.695  , 0.7875  , 0.84  , 0.6475  , 0.73  , 0.7975  , 0.665  , 0.7625  , 0.73  , 0.7125  , 0.7725  , 0.6925  , 0.78  , 0.74  , 0.7975  , 0.6875 );
	kernels[58] = compute_kernel(x,   -1.9525  , -4.0  , -2.3975  , -1.605  , -1.055  , -0.765  , -0.715  , -0.71  , -0.7725  , -0.7725  , -0.7475  , -0.7175  , -0.7225  , -0.6375  , -0.5275  , -0.4675  , -0.3575  , -0.3  , -0.2075  , -0.145  , -0.035  , 0.015  , 0.075  , 0.1075  , 0.125  , 0.1475  , 0.1575  , 0.1675  , 0.1825  , 0.1725  , 0.175  , -0.8975  , 0.1875  , 0.5675  , -0.3775  , 0.155  , 0.2375  , -0.0725  , 0.235  , 0.17  , -0.0125  , 0.1  , 0.22  , 0.0375  , -0.04  , 0.3525  , -0.0525  , 0.1075  , 0.25  , 0.06  , 0.12  , -0.005  , 0.13  , 0.0675  , 0.18  , 0.1525  , 0.0425  , 0.1525  , 0.13  , 0.1075  , 0.1675  , 0.1275  , -4.0  , 1.81  , 2.99  , 0.28  , 1.4875  , 0.2525  , 0.61  , 0.745  , 0.595  , 0.735  , 0.9625  , 0.915  , 0.92  , 0.8225  , 0.9325  , 0.7375  , 1.03  , 0.8175  , 0.96  , 0.6775  , 0.9275  , 0.9  , 0.71  , 1.0025  , 0.8675  , 0.7575  , 1.03  , 0.9375  , 0.835  , 1.0825  , 0.905 );
	kernels[59] = compute_kernel(x,   -0.33  , -0.7575  , -0.765  , 0.015  , 0.185  , -0.0225  , -0.3175  , -0.395  , -0.1625  , 0.0225  , 0.045  , -0.02  , -0.0625  , -0.1  , -0.07  , -0.02  , 0.04  , 0.05  , 0.025  , 0.01  , 0.095  , 0.0925  , 0.1075  , 0.14  , 0.14  , 0.1575  , 0.1675  , 0.1425  , 0.1525  , 0.1725  , 0.18  , -0.6725  , -0.085  , 1.14  , -1.2675  , -1.1375  , -0.1875  , 0.5125  , -0.0225  , -0.6475  , -0.26  , 0.03  , -0.07  , -0.0975  , -0.0875  , -0.1225  , -0.0575  , -0.0825  , -0.01  , 0.025  , 0.0475  , 0.1125  , 0.135  , 0.0775  , 0.055  , 0.16  , 0.0475  , -0.0075  , 0.0225  , -0.04  , 0.0475  , 0.085  , -2.7175  , -0.8625  , 2.56  , 3.345  , 3.16  , 0.3825  , 0.28  , 1.22  , 1.4475  , 1.1875  , 0.8125  , 0.8475  , 1.0375  , 1.0925  , 1.03  , 1.11  , 1.165  , 1.235  , 1.4575  , 1.25  , 1.1575  , 1.0275  , 0.84  , 0.5125  , 0.7375  , 0.56  , 0.6775  , 0.7975  , 0.765  , 0.94  , 1.0225 );
	kernels[60] = compute_kernel(x,   -0.8475  , -1.135  , -0.68  , -0.1975  , -0.0725  , -0.335  , -0.5025  , -0.3275  , -0.18  , -0.155  , -0.1925  , -0.25  , -0.2475  , -0.23  , -0.18  , -0.15  , -0.165  , -0.1625  , -0.1225  , -0.0925  , -0.0575  , -0.0025  , 0.0225  , 0.0975  , 0.16  , 0.1525  , 0.1875  , 0.195  , 0.1975  , 0.255  , 0.25  , -0.0775  , 0.6975  , -0.78  , -1.0125  , 0.515  , 0.5575  , -0.1275  , -0.0325  , 0.02  , -0.1475  , 0.07  , 0.175  , 0.1375  , 0.0725  , 0.0675  , 0.215  , 0.205  , 0.1275  , 0.245  , 0.28  , 0.345  , 0.2975  , 0.2175  , 0.48  , 0.2525  , 0.23  , 0.4225  , 0.255  , 0.33  , 0.39  , 0.0975  , -0.295  , 1.2175  , 3.375  , 3.45  , 0.7275  , 0.375  , 0.9975  , 0.8225  , 1.285  , 1.305  , 0.86  , 0.8875  , 0.955  , 1.1025  , 1.175  , 1.085  , 1.1775  , 1.3625  , 1.0875  , 1.1125  , 1.1225  , 0.8675  , 0.8025  , 0.8175  , 0.6325  , 0.635  , 0.745  , 0.645  , 0.77  , 0.8875  , 0.7375 );
	kernels[61] = compute_kernel(x,   -0.145  , -0.765  , -2.045  , -2.3275  , -1.09  , -0.6075  , -0.5075  , -0.41  , -0.2825  , -0.205  , -0.1475  , -0.14  , -0.0875  , -0.105  , -0.135  , -0.1025  , -0.075  , -0.1225  , -0.05  , -0.03  , -0.125  , 0.0275  , -0.0625  , -0.1325  , -0.045  , -0.06  , -0.0325  , 0.0125  , 0.0375  , 0.0225  , 0.05  , -2.2275  , -2.305  , -1.2  , 0.89  , 2.6875  , 1.0675  , 0.2075  , 0.9  , 0.45  , 0.16  , 0.3725  , 0.0975  , 0.095  , 0.4125  , 0.155  , 0.03  , 0.4975  , 0.2075  , 0.08  , 0.3225  , 0.095  , -0.0875  , 0.2225  , -0.11  , -0.36  , -0.1825  , -0.3325  , -0.4075  , -0.2475  , -0.3125  , -0.365  , 0.455  , -0.0175  , 0.8925  , 1.0925  , 1.0025  , 1.4075  , 1.3325  , 0.8425  , 0.91  , 1.0075  , 1.005  , 1.05  , 0.97  , 0.9575  , 1.0875  , 0.89  , 0.905  , 1.015  , 1.135  , 0.965  , 0.6625  , 1.185  , 0.955  , 0.595  , 1.06  , 0.91  , 0.855  , 0.92  , 1.0075  , 0.975  , 0.8875 );
	kernels[62] = compute_kernel(x,   -0.5375  , -1.155  , -0.78  , -0.3175  , -0.025  , -0.005  , -0.1  , -0.12  , -0.035  , -0.025  , -0.055  , -0.0475  , -0.03  , -0.0225  , -0.06  , -0.0525  , -0.0175  , -0.0225  , -0.0275  , -0.0325  , -0.0275  , -0.035  , -0.025  , -0.0275  , -0.0775  , -0.0975  , -0.05  , 0.0275  , 0.0575  , 0.0975  , 0.1275  , -2.8875  , 0.1325  , 2.905  , 0.7825  , -0.36  , -0.3575  , 0.2525  , 0.04  , 0.0775  , 0.0675  , 0.06  , 0.1  , -0.1675  , -0.055  , 0.07  , -0.0875  , -0.115  , -0.0125  , -0.0775  , -0.065  , 0.065  , 0.01  , 0.1  , 0.3  , 0.31  , 0.2025  , -0.085  , -0.31  , -0.245  , -0.39  , -0.345  , 0.3325  , 0.265  , 2.315  , 1.3225  , 0.7875  , 0.49  , 1.0775  , 1.2225  , 0.8425  , 1.155  , 1.1625  , 0.9175  , 0.8475  , 1.0325  , 0.9975  , 1.0025  , 0.9875  , 0.9825  , 0.98  , 1.01  , 0.95  , 1.02  , 1.0675  , 1.1275  , 1.1925  , 0.8975  , 0.9075  , 0.8375  , 0.93  , 0.8975  , 0.8725 );
	kernels[63] = compute_kernel(x,   -0.345  , -1.0725  , -2.9175  , -3.755  , -1.8325  , -0.635  , -0.11  , -0.0125  , -0.0375  , -0.0575  , 0.02  , -0.01  , -0.0175  , -0.015  , -0.0425  , -0.0075  , -0.05  , -0.0575  , -0.0825  , -0.1125  , -0.075  , -0.1825  , -0.1325  , -0.0875  , -0.14  , -0.025  , -0.0075  , 0.0175  , 0.06  , 0.065  , 0.0775  , -2.8975  , -2.84  , -1.7675  , 1.435  , 3.7775  , 1.3725  , -0.185  , 0.085  , 0.1375  , 0.175  , 0.1125  , 0.12  , 0.1675  , 0.0425  , 0.16  , 0.0675  , 0.12  , 0.395  , 0.2875  , 0.1775  , 0.3375  , 0.425  , -0.045  , 0.1425  , -0.0275  , -0.4025  , -0.08  , -0.3  , -0.2925  , -0.07  , -0.1475  , 0.425  , 0.3175  , -0.035  , 2.5575  , 0.2575  , 1.83  , 0.8425  , 0.6175  , 0.975  , 1.28  , 0.8675  , 0.9025  , 1.165  , 0.8175  , 1.025  , 1.045  , 0.7925  , 0.9925  , 0.9625  , 1.02  , 1.0125  , 1.1125  , 1.025  , 0.8275  , 0.93  , 0.94  , 1.055  , 0.9975  , 0.9225  , 0.92  , 1.015 );
	kernels[64] = compute_kernel(x,   -0.38  , -1.2375  , -1.3625  , -0.8525  , -0.2525  , -0.1075  , -0.02  , 0.0375  , 0.075  , 0.04  , 0.05  , 0.075  , 0.0325  , 0.045  , 0.07  , 0.065  , 0.0475  , 0.04  , 0.04  , 0.045  , 0.0425  , 0.0375  , 0.04  , 0.055  , 0.04  , 0.0475  , 0.045  , 0.02  , 0.0525  , 0.0675  , 0.05  , -3.2375  , -1.07  , 0.8425  , 1.935  , 1.8675  , 0.67  , 0.15  , -0.285  , 0.075  , -0.075  , -0.07  , 0.0475  , -0.0325  , 0.0575  , -0.0325  , -0.0375  , -0.0425  , 0.1225  , 0.08  , 0.1  , 0.2325  , 0.0125  , 0.1  , 0.275  , 0.12  , 0.085  , -0.055  , 0.0575  , -0.19  , -0.0625  , 0.17  , 0.5375  , 0.51  , 0.9725  , 1.5225  , 0.85  , 1.29  , 0.915  , 0.8475  , 0.9825  , 1.0975  , 1.0675  , 0.99  , 0.9875  , 1.0425  , 0.9225  , 0.92  , 0.9925  , 0.9825  , 0.985  , 1.0025  , 0.985  , 1.025  , 0.985  , 1.01  , 1.0125  , 0.975  , 0.8525  , 0.8975  , 1.1125  , 0.9625  , 0.9375 );
	kernels[65] = compute_kernel(x,   -0.3375  , -0.505  , -0.37  , 0.0425  , 0.2025  , 0.175  , 0.1375  , 0.1675  , 0.205  , 0.18  , 0.1675  , 0.1875  , 0.2025  , 0.2075  , 0.1925  , 0.1725  , 0.1475  , 0.1375  , 0.1825  , 0.21  , 0.2175  , 0.1975  , 0.225  , 0.1875  , 0.205  , 0.225  , 0.215  , 0.195  , 0.2025  , 0.1775  , 0.1475  , -2.2875  , -2.105  , 0.845  , 1.8175  , 1.5925  , 0.6675  , 0.5175  , 0.3725  , 0.1875  , -0.015  , -0.085  , 0.0325  , -0.025  , 0.0325  , 0.025  , -0.055  , 0.04  , 0.035  , 0.14  , 0.1875  , 0.075  , 0.095  , 0.0525  , 0.0425  , 0.07  , -0.03  , -0.0175  , -0.1075  , -0.0  , -0.125  , -0.105  , 0.845  , 1.2325  , 1.225  , 0.8825  , 0.98  , 0.8525  , 0.83  , 0.8075  , 0.835  , 0.96  , 1.06  , 1.0325  , 0.9875  , 1.0375  , 1.02  , 0.965  , 0.9525  , 0.965  , 0.945  , 0.9275  , 0.96  , 1.0375  , 0.9375  , 1.0  , 0.965  , 0.845  , 0.95  , 0.93  , 0.905  , 0.9275  , 1.0625 );
	kernels[66] = compute_kernel(x,   -0.3575  , -0.645  , -0.605  , -0.2475  , -0.04  , 0.13  , 0.075  , 0.06  , 0.1275  , 0.1325  , 0.1475  , 0.17  , 0.1975  , 0.1925  , 0.1225  , 0.14  , 0.14  , 0.16  , 0.19  , 0.1975  , 0.2275  , 0.145  , 0.1975  , 0.1725  , 0.145  , 0.215  , 0.1775  , 0.165  , 0.2075  , 0.1975  , 0.1875  , -2.775  , -2.3725  , 0.1975  , 1.3525  , 1.485  , 1.7425  , 0.66  , 0.4625  , 0.465  , 0.295  , 0.14  , -0.055  , 0.005  , -0.105  , -0.0175  , 0.1325  , 0.0825  , 0.105  , 0.0875  , 0.085  , 0.0675  , 0.095  , 0.0475  , -0.0225  , 0.05  , -0.0075  , -0.0825  , -0.2125  , -0.24  , -0.255  , -0.3025  , 0.7125  , 1.025  , 1.305  , 0.9175  , 1.215  , 1.345  , 0.81  , 0.95  , 0.765  , 0.8225  , 0.8725  , 0.89  , 0.9425  , 0.97  , 1.11  , 1.035  , 0.965  , 1.055  , 0.9425  , 0.91  , 0.91  , 1.0125  , 0.9075  , 0.835  , 0.98  , 0.9175  , 0.9475  , 1.08  , 1.0275  , 0.98  , 1.0525 );
	kernels[67] = compute_kernel(x,   -0.3325  , -0.6575  , -0.705  , -0.4525  , -0.25  , -0.1225  , -0.025  , -0.0375  , 0.065  , 0.12  , 0.155  , 0.1575  , 0.1425  , 0.13  , 0.1425  , 0.1375  , 0.13  , 0.12  , 0.0925  , 0.0975  , 0.11  , 0.0475  , 0.1275  , 0.0775  , 0.16  , 0.1375  , 0.055  , 0.0825  , 0.07  , 0.0675  , 0.06  , -2.435  , -2.0175  , -0.695  , 1.1125  , 0.915  , 1.6825  , 1.1525  , 0.6525  , 0.74  , 0.425  , 0.28  , 0.0725  , -0.04  , -0.12  , -0.105  , -0.04  , 0.0375  , 0.1425  , 0.125  , 0.22  , 0.2575  , 0.265  , 0.27  , 0.3025  , 0.425  , -0.0075  , -0.1625  , -0.37  , -0.5625  , -0.4725  , -0.55  , 0.675  , 1.0475  , 1.0725  , 1.2225  , 0.9525  , 1.0625  , 0.875  , 1.0325  , 1.01  , 0.8275  , 0.925  , 0.935  , 1.025  , 1.005  , 0.9875  , 1.055  , 1.055  , 1.015  , 0.9875  , 0.925  , 0.8925  , 0.9325  , 0.9725  , 1.02  , 0.95  , 0.7875  , 0.995  , 0.8625  , 0.7675  , 0.985  , 0.995 );
	kernels[68] = compute_kernel(x,   -0.1575  , -1.7975  , -1.755  , -0.57  , -0.2725  , -0.0875  , 0.0375  , -0.01  , -0.01  , 0.005  , 0.035  , 0.05  , -0.0075  , -0.01  , 0.0125  , -0.0225  , -0.0425  , 0.0025  , 0.0475  , 0.04  , 0.07  , 0.045  , 0.0675  , 0.0625  , 0.0625  , 0.09  , 0.0925  , 0.1075  , 0.11  , 0.1  , 0.0975  , -2.64  , -2.0425  , 1.4575  , 2.6975  , 0.6525  , -0.2075  , 0.1025  , 0.0075  , -0.0325  , 0.1825  , 0.055  , 0.0625  , 0.3275  , 0.3375  , 0.25  , 0.3  , 0.075  , -0.13  , -0.135  , -0.18  , -0.18  , -0.1025  , -0.2525  , -0.1875  , -0.23  , -0.235  , -0.2475  , -0.205  , -0.2275  , -0.215  , -0.1  , 0.19  , -0.6225  , 3.1375  , 0.4775  , 1.5475  , 1.4575  , 0.8525  , 0.6825  , 1.215  , 1.015  , 0.8025  , 1.095  , 0.9575  , 1.035  , 1.0625  , 1.035  , 0.8075  , 0.9475  , 0.9275  , 0.9225  , 0.9075  , 1.035  , 0.9025  , 0.93  , 0.975  , 1.0  , 1.015  , 0.965  , 0.9475  , 0.9875  , 0.965 );
	kernels[69] = compute_kernel(x,   -0.5625  , -3.0375  , -3.8175  , -1.54  , -0.9825  , -0.575  , -0.44  , -0.46  , -0.4075  , -0.38  , -0.3175  , -0.2925  , -0.3425  , -0.2575  , -0.2075  , -0.315  , -0.115  , -0.045  , -0.0825  , 0.0675  , 0.105  , 0.085  , 0.1275  , 0.1225  , 0.125  , 0.105  , 0.0925  , 0.1125  , 0.095  , 0.07  , 0.0825  , -3.1675  , -2.43  , 1.765  , 3.455  , 0.0225  , 0.3125  , 0.2975  , 0.075  , 0.095  , 0.1125  , 0.0775  , 0.1775  , 0.1875  , 0.2725  , 0.505  , -0.035  , -0.3925  , 0.0125  , -0.32  , -0.5625  , -0.0875  , -0.3125  , -0.3  , -0.305  , -0.26  , -0.0075  , -0.245  , -0.2975  , -0.1725  , -0.3075  , -0.2625  , -0.5375  , -1.23  , 1.64  , 2.405  , 1.585  , 1.3675  , 0.515  , 0.6975  , 1.2825  , 0.9725  , 0.8275  , 0.9675  , 1.0675  , 1.105  , 1.13  , 0.8025  , 0.7825  , 0.985  , 0.72  , 0.61  , 0.9975  , 0.825  , 0.79  , 1.05  , 0.8275  , 0.9725  , 1.165  , 0.7575  , 0.935  , 1.0375  , 0.7825 );
	kernels[70] = compute_kernel(x,   -0.99  , -2.6075  , -2.3325  , -0.6825  , -0.015  , 0.0325  , 0.08  , 0.095  , 0.14  , 0.1425  , 0.155  , 0.135  , 0.0825  , 0.0825  , 0.0575  , 0.0675  , 0.0375  , -0.055  , -0.0125  , -0.0125  , -0.01  , 0.05  , 0.0325  , 0.085  , 0.115  , 0.0825  , 0.085  , 0.08  , 0.06  , 0.0725  , 0.0775  , -3.705  , -2.2725  , 1.97  , 3.275  , 0.9825  , -0.3175  , 0.1425  , 0.01  , -0.3225  , -0.1675  , -0.22  , -0.2575  , -0.0575  , 0.1225  , -0.0125  , 0.0375  , 0.1375  , -0.275  , -0.0525  , 0.0575  , -0.315  , -0.1475  , -0.29  , -0.475  , -0.325  , -0.1825  , -0.385  , -0.2425  , -0.115  , -0.24  , -0.18  , 0.76  , 1.3825  , 2.6275  , 0.2425  , 0.4575  , 0.565  , 1.0325  , 0.625  , 0.975  , 1.1225  , 0.74  , 1.115  , 1.02  , 0.895  , 1.01  , 0.96  , 0.825  , 1.065  , 1.0825  , 1.04  , 1.0525  , 1.04  , 0.9825  , 0.9675  , 0.845  , 1.0975  , 0.925  , 0.95  , 1.0125  , 0.915  , 0.9525 );
	kernels[71] = compute_kernel(x,   -0.52  , -0.9475  , -0.7125  , -0.22  , -0.005  , 0.0125  , 0.015  , 0.0475  , 0.0325  , 0.0025  , 0.01  , 0.0375  , 0.075  , 0.0875  , 0.06  , 0.08  , 0.07  , 0.1225  , 0.12  , 0.09  , 0.145  , 0.1725  , 0.13  , 0.1325  , 0.0875  , 0.1175  , 0.115  , 0.1  , 0.1  , 0.11  , 0.1175  , -2.725  , -2.2525  , 0.2775  , 1.775  , 1.4825  , 0.8525  , 0.725  , 0.605  , 0.2  , -0.1  , -0.12  , -0.025  , 0.0525  , -0.0175  , 0.1975  , 0.2125  , 0.17  , 0.1925  , -0.02  , -0.0175  , 0.0775  , 0.005  , -0.025  , -0.2075  , -0.2425  , -0.1575  , -0.1325  , -0.145  , -0.145  , -0.0625  , -0.1925  , 0.6075  , 0.8475  , 1.335  , 1.26  , 1.2675  , 1.2625  , 1.0225  , 0.8225  , 0.7875  , 0.86  , 0.86  , 0.9075  , 0.945  , 0.9475  , 1.11  , 1.045  , 1.095  , 1.0425  , 0.99  , 1.1525  , 1.035  , 0.9175  , 0.985  , 0.92  , 0.9025  , 0.84  , 0.805  , 0.84  , 0.9425  , 0.9875  , 0.995 );
	kernels[72] = compute_kernel(x,   -0.5325  , -1.6  , -3.4825  , -3.165  , -0.8075  , -0.3875  , -0.0875  , -0.23  , -0.2175  , -0.19  , -0.23  , -0.075  , -0.1375  , -0.09  , -0.0625  , -0.0375  , -0.105  , -0.005  , -0.015  , -0.005  , 0.0125  , 0.0225  , 0.0275  , 0.0125  , 0.0375  , 0.05  , 0.0525  , 0.075  , 0.0925  , 0.085  , 0.095  , -2.9825  , -3.9825  , -2.4325  , 2.505  , 1.8825  , 0.72  , 0.645  , -0.07  , -0.115  , 0.0075  , -0.465  , -0.155  , -0.1025  , -0.41  , -0.21  , -0.27  , -0.655  , -0.3575  , -0.4325  , -0.8425  , -0.795  , -0.5675  , -0.49  , -0.3225  , -0.1825  , -0.2475  , -0.15  , -0.11  , -0.0725  , -0.1375  , -0.045  , 0.105  , -0.42  , 0.0925  , 3.1475  , 1.8925  , 0.735  , 0.4625  , 0.58  , 0.975  , 1.02  , 1.2025  , 0.975  , 0.8925  , 0.9225  , 0.6675  , 1.0425  , 1.06  , 0.9375  , 1.0825  , 1.0575  , 1.025  , 0.965  , 1.03  , 1.08  , 0.985  , 0.925  , 1.0525  , 0.99  , 0.98  , 0.9775  , 0.92 );
	kernels[73] = compute_kernel(x,   -0.875  , -2.5125  , -3.15  , -0.9025  , -0.185  , 0.0325  , -0.1825  , -0.3425  , -0.305  , -0.24  , -0.205  , -0.2525  , -0.27  , -0.2975  , -0.3825  , -0.4175  , -0.405  , -0.3125  , -0.195  , -0.1075  , -0.06  , -0.015  , 0.005  , -0.02  , 0.005  , 0.0525  , 0.09  , 0.1075  , 0.105  , 0.1  , 0.0875  , -3.5175  , -1.87  , 2.8775  , 2.2175  , 0.295  , -0.485  , 0.68  , 0.6675  , 0.52  , 0.39  , 0.3125  , 0.3125  , 0.635  , 0.87  , 0.7325  , 0.7225  , 0.31  , 0.04  , -0.5875  , -0.665  , -1.0525  , -0.805  , -0.5825  , -0.4375  , -0.295  , -0.33  , -0.275  , -0.22  , -0.2  , -0.1925  , -0.195  , -0.26  , -0.175  , 0.6975  , 3.0675  , 0.76  , 0.0675  , 0.59  , 1.06  , 1.2625  , 0.7225  , 0.9175  , 1.13  , 0.9075  , 1.1  , 1.1625  , 1.085  , 1.1125  , 0.8625  , 0.74  , 0.7  , 0.595  , 0.6  , 0.795  , 0.89  , 0.905  , 0.8725  , 0.835  , 0.925  , 0.9375  , 0.975  , 1.0 );
	kernels[74] = compute_kernel(x,   -0.735  , -1.7725  , -3.5  , -2.9675  , -0.64  , -0.32  , -0.1575  , -0.1425  , -0.145  , -0.14  , -0.185  , -0.105  , -0.1375  , -0.08  , -0.1175  , -0.0675  , -0.0225  , 0.0325  , 0.055  , 0.0725  , 0.1  , 0.1075  , 0.0875  , 0.075  , 0.09  , 0.09  , 0.095  , 0.0975  , 0.0875  , 0.0875  , 0.1  , -3.1925  , -3.1425  , -1.1525  , 3.0675  , 1.815  , 0.7  , 0.5825  , -0.0925  , 0.0975  , 0.2375  , -0.2625  , 0.0325  , 0.0575  , -0.1975  , -0.2325  , -0.395  , -0.6825  , -0.605  , -0.71  , -0.66  , -0.5575  , -0.5125  , -0.3925  , -0.3025  , -0.1475  , -0.15  , -0.07  , -0.0725  , -0.075  , -0.0825  , -0.045  , -0.1875  , 0.1925  , 0.7375  , 3.575  , 1.08  , 0.865  , 0.7375  , 0.6375  , 0.7375  , 0.7925  , 1.1175  , 0.87  , 0.84  , 0.97  , 1.035  , 1.1525  , 0.9775  , 1.2  , 1.0925  , 0.9625  , 1.0825  , 0.9525  , 0.96  , 0.9775  , 0.9575  , 0.925  , 0.9525  , 0.92  , 0.9875  , 0.9875  , 0.9575 );
	kernels[75] = compute_kernel(x,   -0.195  , -0.5625  , -1.9225  , -2.9675  , -1.195  , -0.6025  , -0.23  , -0.0825  , -0.1525  , -0.1425  , -0.085  , -0.1325  , -0.155  , -0.12  , -0.1225  , -0.0775  , -0.0725  , -0.09  , -0.075  , -0.2  , -0.27  , -0.2575  , -0.055  , 0.0225  , 0.0075  , 0.0225  , 0.0275  , 0.0325  , 0.05  , 0.0525  , 0.045  , -1.975  , -2.9225  , -2.2425  , 2.18  , 3.445  , 1.3725  , 0.1875  , 0.0625  , 0.055  , -0.015  , 0.1775  , 0.145  , 0.2125  , 0.3675  , 0.1875  , 0.1325  , 0.2025  , -0.105  , 0.3625  , 0.345  , 0.4325  , -0.2075  , -0.8125  , -0.7675  , -0.6075  , -0.4075  , -0.3275  , -0.29  , -0.325  , -0.275  , -0.275  , 1.1275  , 0.53  , 0.0075  , -0.1275  , 1.88  , 1.7275  , 0.865  , 0.585  , 1.3425  , 0.925  , 0.965  , 1.11  , 0.9725  , 1.03  , 1.035  , 0.9225  , 0.99  , 0.995  , 0.935  , 1.1025  , 0.8975  , 1.035  , 0.7025  , 0.725  , 0.935  , 0.875  , 0.925  , 0.9325  , 0.865  , 0.965  , 0.9675 );
	kernels[76] = compute_kernel(x,   -0.94  , -2.9775  , -2.4075  , -0.6925  , -0.26  , -0.18  , -0.1725  , -0.225  , -0.135  , -0.05  , -0.1325  , -0.115  , -0.0775  , -0.14  , -0.2875  , -0.1275  , -0.2975  , -0.0525  , 0.025  , 0.04  , 0.085  , 0.05  , 0.0575  , 0.08  , 0.0575  , 0.0925  , 0.1025  , 0.0925  , 0.11  , 0.1175  , 0.1125  , -3.5075  , -1.2625  , 3.3125  , 2.6  , 0.1525  , 0.1925  , 0.585  , 0.2625  , -0.03  , 0.1675  , 0.095  , -0.02  , 0.305  , 0.77  , -0.1675  , 0.1175  , -0.105  , -0.87  , -0.195  , -0.235  , -0.385  , -0.085  , -0.0425  , -0.175  , 0.1075  , -0.1425  , -0.26  , -0.0225  , -0.0625  , -0.1125  , -0.1275  , 0.0275  , 0.4525  , 2.46  , 0.5425  , 1.185  , 0.855  , 0.8275  , 1.0825  , 0.995  , 0.93  , 1.0225  , 1.0375  , 0.9125  , 1.05  , 1.125  , 0.5475  , 1.3975  , 0.8675  , 0.9425  , 1.105  , 0.81  , 1.0675  , 0.995  , 0.8675  , 1.025  , 0.9175  , 0.955  , 0.9375  , 0.995  , 0.9625  , 0.97 );
	kernels[77] = compute_kernel(x,   0.17  , 0.1025  , -0.0275  , -0.21  , -0.1875  , -0.2075  , -0.145  , 0.0525  , 0.0225  , 0.1075  , 0.155  , 0.25  , 0.3  , 0.3375  , 0.3725  , 0.3225  , 0.245  , 0.2275  , 0.1525  , 0.0725  , 0.1975  , 0.255  , 0.265  , 0.3375  , 0.305  , 0.295  , 0.27  , 0.2975  , 0.3225  , 0.2925  , 0.2475  , 2.9725  , 2.0875  , 0.5975  , -0.3025  , -0.7975  , -0.725  , -0.5825  , -0.4975  , -0.3075  , -0.415  , -0.2125  , -0.0025  , -0.1475  , -0.195  , -0.1175  , -0.185  , -0.2825  , -0.4175  , -0.35  , -0.22  , -0.3275  , 0.0525  , 0.0725  , 0.045  , 0.06  , -0.1775  , -0.025  , -0.0475  , 0.1725  , -0.045  , 0.2525  , 3.125  , 1.7475  , 0.8375  , 0.3825  , 0.045  , 0.435  , 0.7  , 0.6525  , 1.0025  , 0.82  , 0.825  , 0.85  , 0.845  , 0.9375  , 0.87  , 0.905  , 0.9875  , 0.8825  , 0.9775  , 0.87  , 0.6625  , 0.85  , 0.71  , 0.965  , 0.9825  , 0.91  , 1.05  , 0.97  , 0.9475  , 1.1075  , 0.88 );
	kernels[78] = compute_kernel(x,   0.4175  , 0.1375  , -0.69  , -1.1925  , -1.5075  , -1.32  , -0.8675  , -0.4975  , -0.3625  , -0.295  , -0.2725  , -0.2925  , -0.2825  , -0.255  , -0.275  , -0.26  , -0.3125  , -0.35  , -0.375  , -0.425  , -0.5425  , -0.525  , -0.3575  , -0.2675  , -0.2825  , -0.1275  , -0.11  , -0.04  , 0.095  , 0.12  , 0.1475  , 2.785  , 2.4275  , 0.645  , -1.4525  , -1.985  , -1.97  , -1.37  , -0.7025  , -0.435  , -0.39  , -0.37  , -0.5725  , -0.4175  , -0.3825  , -0.465  , -0.3225  , -0.5625  , -0.585  , -0.555  , -0.5925  , -0.9125  , -0.875  , -0.475  , -0.775  , -0.365  , -0.36  , -0.3225  , 0.3925  , 0.0475  , 0.0625  , 0.1825  , 0.2675  , -0.12  , 0.1575  , 0.1625  , -0.0025  , 1.6125  , 1.615  , 0.6325  , 0.7425  , 0.63  , 0.64  , 0.84  , 0.79  , 0.835  , 0.8325  , 0.8025  , 0.9525  , 0.99  , 0.935  , 0.9275  , 0.9325  , 0.7825  , 0.8625  , 0.58  , 0.62  , 0.67  , 0.755  , 1.1575  , 0.9325  , 0.9575  , 1.1425 );
	kernels[79] = compute_kernel(x,   -0.465  , -2.1825  , -1.7175  , -0.8975  , -0.67  , -0.2925  , 0.0325  , 0.045  , 0.0675  , 0.1025  , 0.115  , 0.1325  , 0.16  , 0.1575  , 0.1275  , 0.1375  , 0.135  , 0.115  , 0.1225  , 0.13  , 0.1225  , 0.125  , 0.0875  , 0.1125  , 0.125  , 0.135  , 0.1325  , 0.105  , 0.0575  , 0.0175  , -0.11  , 3.6675  , 3.1725  , -2.38  , -3.3325  , -1.9125  , -0.2175  , 0.23  , -0.3625  , -0.6075  , -0.375  , -0.38  , -0.4  , -0.3925  , -0.4075  , -0.4175  , -0.375  , -0.3725  , -0.41  , -0.3675  , -0.34  , -0.335  , -0.38  , -0.42  , -0.37  , -0.37  , -0.315  , -0.325  , -0.42  , -0.5475  , -0.6475  , -0.715  , 2.1975  , 0.945  , -2.1875  , 0.5625  , 0.6325  , 0.8975  , 0.4875  , 0.725  , 0.8025  , 0.86  , 1.01  , 1.0325  , 1.0  , 0.9275  , 0.935  , 0.955  , 0.9075  , 0.845  , 0.8575  , 0.9275  , 0.9425  , 0.8475  , 0.91  , 0.9425  , 0.8825  , 0.87  , 0.9075  , 0.9  , 0.935  , 0.7925  , 0.7625 );
	kernels[80] = compute_kernel(x,   -0.9925  , -2.375  , -2.45  , -1.045  , -0.645  , -0.2925  , -0.025  , 0.0225  , 0.005  , 0.0  , 0.01  , 0.0425  , 0.05  , 0.05  , 0.035  , 0.02  , 0.0275  , 0.04  , 0.0275  , 0.0025  , -0.0025  , 0.0025  , -0.045  , -0.0425  , 0.03  , -0.0075  , -0.0175  , 0.0025  , 0.1025  , 0.085  , 0.1275  , 4.0  , 2.9  , -2.18  , -3.3375  , -1.6825  , -0.305  , 0.0775  , -0.22  , -0.4825  , -0.39  , -0.3775  , -0.3425  , -0.39  , -0.38  , -0.425  , -0.37  , -0.38  , -0.3275  , -0.37  , -0.4125  , -0.4475  , -0.4725  , -0.5125  , -0.3875  , -0.27  , -0.54  , -0.6725  , -0.1025  , -0.4525  , -0.015  , 0.28  , 2.4825  , -0.905  , -0.7875  , 0.7975  , 1.0  , 1.2575  , 0.5825  , 0.6975  , 0.8375  , 0.875  , 0.9625  , 0.9825  , 1.035  , 0.9325  , 0.9375  , 0.985  , 0.9375  , 0.9175  , 0.8675  , 0.9425  , 0.9475  , 0.9225  , 0.8725  , 0.8975  , 0.8375  , 0.9125  , 0.8825  , 1.0025  , 0.76  , 0.88  , 1.0575 );
	kernels[81] = compute_kernel(x,   -0.18  , -1.7125  , -1.9575  , -0.825  , -0.4575  , -0.1175  , -0.045  , -0.035  , -0.0075  , 0.0325  , 0.0525  , 0.0775  , 0.06  , 0.07  , 0.0725  , 0.0475  , 0.0575  , 0.0825  , 0.08  , 0.0425  , 0.0525  , 0.055  , 0.03  , -0.015  , -0.07  , -0.105  , -0.0725  , -0.0025  , 0.0075  , 0.0475  , 0.115  , 3.35  , 3.2625  , -1.6175  , -3.35  , -1.67  , 0.26  , 0.1525  , -0.43  , -0.4275  , -0.32  , -0.2025  , -0.3025  , -0.465  , -0.3775  , -0.325  , -0.475  , -0.4075  , -0.285  , -0.3525  , -0.4475  , -0.3825  , -0.3675  , -0.3875  , -0.49  , -0.645  , -0.6675  , -0.51  , -0.3175  , -0.4025  , -0.1925  , 0.03  , 1.13  , 0.37  , -1.8325  , 1.165  , 0.7425  , 1.03  , 0.8475  , 0.6675  , 0.735  , 0.945  , 0.9175  , 0.9425  , 0.9425  , 0.9875  , 0.96  , 1.005  , 0.9475  , 0.8925  , 0.9225  , 0.985  , 0.99  , 0.915  , 0.9175  , 0.9025  , 0.885  , 0.975  , 0.87  , 0.8875  , 0.64  , 0.92  , 1.075 );
	kernels[82] = compute_kernel(x,   -0.245  , -0.6775  , -0.0725  , 0.08  , -0.1275  , -0.095  , 0.055  , 0.12  , 0.245  , 0.3125  , 0.3675  , 0.4175  , 0.475  , 0.5175  , 0.49  , 0.4875  , 0.48  , 0.4525  , 0.4325  , 0.3925  , 0.3175  , 0.2475  , 0.2175  , 0.2725  , 0.24  , 0.2525  , 0.24  , 0.2475  , 0.305  , 0.15  , 0.235  , 3.6325  , 2.5775  , -0.7625  , -1.055  , -0.9375  , -1.0675  , -0.565  , -0.16  , -0.0525  , 0.0275  , -0.0325  , -0.1225  , 0.0025  , 0.06  , 0.0075  , -0.0175  , -0.055  , -0.03  , -0.0525  , -0.175  , -0.205  , -0.1875  , -0.3125  , -0.24  , 0.0775  , -0.375  , 0.1425  , 0.215  , -0.24  , 0.155  , 0.02  , 2.175  , 1.195  , 0.0675  , 0.065  , 0.6075  , 1.07  , 0.7325  , 0.7875  , 0.755  , 0.7375  , 0.765  , 0.8  , 0.83  , 0.845  , 0.9125  , 0.975  , 0.915  , 0.915  , 0.885  , 0.8725  , 0.86  , 0.765  , 0.8925  , 0.5825  , 0.725  , 0.875  , 1.0075  , 0.885  , 0.79  , 1.615  , 0.835 );
	kernels[83] = compute_kernel(x,   0.0875  , -0.045  , -0.36  , -0.4225  , -0.5525  , -0.6975  , -0.5475  , -0.4925  , -0.4325  , -0.325  , -0.19  , -0.2175  , -0.2175  , -0.205  , -0.2125  , -0.1875  , -0.2075  , -0.2475  , -0.2575  , -0.2875  , -0.29  , -0.3125  , -0.285  , -0.1675  , -0.1275  , -0.145  , 0.0625  , 0.17  , 0.165  , 0.1925  , 0.185  , 1.99  , 1.65  , 0.385  , -1.275  , -1.245  , -1.2625  , -1.1725  , -1.0  , -0.87  , -0.645  , -0.4275  , -0.365  , -0.555  , -0.405  , -0.45  , -0.4625  , -0.4875  , -0.5525  , -0.6  , -0.7  , -1.015  , -0.8225  , -0.49  , -0.6125  , -0.69  , -0.07  , 0.4  , 0.2075  , 0.4  , 0.0975  , -0.1475  , 0.895  , 0.455  , -0.0875  , 0.4125  , 0.1725  , 1.3475  , 1.0  , 0.7825  , 1.1125  , 0.85  , 0.67  , 0.8375  , 0.815  , 0.825  , 0.895  , 0.88  , 0.86  , 0.895  , 0.9225  , 0.8725  , 0.8875  , 0.67  , 1.1225  , 0.9125  , 0.6825  , 1.0175  , 0.72  , 0.835  , 0.905  , 0.8925  , 0.7825 );
	kernels[84] = compute_kernel(x,   -0.085  , -0.375  , -0.19  , -0.2175  , -0.2575  , -0.175  , -0.0325  , -0.035  , -0.0475  , -0.0175  , 0.015  , 0.0675  , 0.105  , 0.08  , 0.0975  , 0.1225  , 0.115  , 0.1125  , 0.1025  , 0.1125  , 0.09  , 0.0575  , 0.0275  , -0.03  , -0.195  , -0.225  , -0.085  , 0.05  , 0.1775  , 0.145  , 0.1925  , 1.9625  , 1.98  , -0.16  , -1.29  , -1.365  , -1.0275  , -0.455  , -0.2475  , -0.4025  , -0.5275  , -0.4375  , -0.3625  , -0.36  , -0.435  , -0.305  , -0.3575  , -0.365  , -0.3175  , -0.3925  , -0.2625  , -0.295  , -0.415  , -0.475  , -0.6425  , -0.84  , -0.5775  , -0.345  , -0.01  , -0.2175  , 0.3875  , 0.3275  , 1.5675  , 0.94  , -0.145  , 0.5175  , 0.8175  , 0.9125  , 0.9125  , 0.82  , 0.9575  , 0.96  , 0.9225  , 0.965  , 0.8775  , 0.925  , 0.9675  , 0.9175  , 0.9375  , 0.9275  , 0.9125  , 0.9225  , 0.9175  , 0.9725  , 0.9675  , 0.805  , 1.065  , 0.82  , 0.7  , 0.955  , 0.5925  , 0.9125  , 1.185 );
	kernels[85] = compute_kernel(x,   0.005  , -0.085  , -0.2375  , -0.32  , -0.0775  , -0.0475  , -0.0125  , 0.0975  , 0.1525  , 0.2475  , 0.32  , 0.38  , 0.4375  , 0.435  , 0.45  , 0.4725  , 0.465  , 0.46  , 0.46  , 0.4525  , 0.4275  , 0.4125  , 0.4075  , 0.4175  , 0.3825  , 0.3425  , 0.2775  , 0.0875  , -0.0275  , 0.17  , 0.1925  , 2.4375  , 1.83  , 1.295  , 0.2175  , -0.59  , -0.3975  , -0.1675  , -0.0175  , 0.2025  , 0.3025  , 0.27  , 0.305  , 0.3525  , 0.34  , 0.3875  , 0.3425  , 0.2425  , 0.225  , 0.3125  , 0.2975  , 0.2075  , 0.1975  , 0.2575  , 0.2675  , 0.21  , 0.22  , 0.125  , -0.0725  , 0.175  , -0.0725  , -0.41  , 1.89  , 1.795  , 1.2975  , 0.41  , 0.1775  , 0.7125  , 0.9525  , 0.6225  , 0.585  , 0.605  , 0.705  , 0.81  , 0.7875  , 0.85  , 0.905  , 0.8775  , 0.8925  , 0.9125  , 0.8525  , 0.865  , 0.8825  , 0.8125  , 0.8125  , 0.7575  , 0.85  , 0.8925  , 0.8225  , 0.9  , 0.9125  , 0.5875  , 0.7 );
	kernels[86] = compute_kernel(x,   -0.2275  , -0.3  , -0.325  , -0.4525  , -0.3975  , -0.265  , -0.2  , -0.2075  , -0.1025  , -0.015  , 0.0275  , 0.0525  , 0.0275  , 0.0375  , 0.05  , 0.055  , 0.0475  , 0.05  , 0.07  , 0.0475  , 0.035  , 0.0525  , 0.04  , 0.025  , 0.035  , 0.0375  , 0.03  , 0.0375  , 0.0325  , 0.025  , 0.0375  , 2.945  , 1.4325  , -1.4575  , -1.87  , -1.235  , -0.5575  , -0.365  , -0.3925  , -0.4225  , -0.3375  , -0.295  , -0.32  , -0.41  , -0.36  , -0.2975  , -0.3775  , -0.325  , -0.2575  , -0.32  , -0.35  , -0.31  , -0.2825  , -0.255  , -0.2625  , -0.32  , -0.29  , -0.26  , -0.29  , -0.27  , -0.2825  , -0.2725  , 2.0325  , 0.2925  , 0.2475  , 0.7075  , 0.7825  , 0.7825  , 0.7125  , 0.935  , 0.8425  , 0.7375  , 0.79  , 0.8775  , 0.92  , 0.9825  , 0.9575  , 0.9725  , 0.965  , 0.985  , 0.9175  , 0.955  , 0.99  , 0.905  , 0.9375  , 0.9675  , 0.9225  , 0.9275  , 0.9475  , 0.93  , 0.9425  , 0.945  , 0.9575 );
	kernels[87] = compute_kernel(x,   0.085  , -0.0325  , -0.6375  , -1.375  , -1.1225  , -0.885  , -0.57  , -0.3225  , -0.12  , 0.035  , 0.1075  , 0.135  , 0.135  , 0.1275  , 0.11  , 0.0825  , 0.1  , 0.085  , 0.085  , 0.095  , 0.1075  , 0.1025  , 0.07  , 0.0625  , 0.0175  , -0.025  , -0.0625  , -0.085  , -0.075  , -0.1  , -0.045  , 1.8925  , 2.6275  , 2.5975  , 0.005  , -2.09  , -2.0575  , -1.145  , -0.345  , -0.0725  , 0.0275  , -0.1425  , -0.1825  , -0.125  , -0.195  , -0.1975  , -0.2  , -0.1  , -0.1475  , -0.205  , -0.0975  , -0.01  , -0.1175  , -0.13  , -0.1  , -0.1725  , -0.2375  , -0.2575  , -0.3375  , -0.4175  , -0.3375  , -0.2125  , 1.5075  , 1.905  , 1.0925  , 0.1875  , -0.0325  , 0.43  , 0.7425  , 0.89  , 0.94  , 0.86  , 0.85  , 0.89  , 0.9825  , 0.995  , 1.0925  , 1.06  , 1.0625  , 1.025  , 0.955  , 0.9525  , 0.9675  , 0.9425  , 0.985  , 0.9825  , 0.925  , 0.965  , 1.035  , 1.0225  , 0.95  , 0.8825  , 0.8325 );
	kernels[88] = compute_kernel(x,   0.29  , 0.1025  , -0.62  , -1.7325  , -2.14  , -1.975  , -0.9825  , -0.265  , 0.0175  , 0.0175  , -0.025  , 0.0325  , 0.03  , 0.015  , 0.01  , -0.01  , 0.04  , 0.04  , 0.0975  , 0.1775  , 0.18  , 0.145  , 0.195  , 0.1975  , 0.1825  , 0.185  , 0.175  , 0.1425  , 0.1175  , 0.1425  , 0.1225  , 2.005  , 3.15  , 3.1025  , 0.87  , -2.18  , -3.8425  , -1.635  , -0.0025  , 0.2675  , -0.2025  , -0.425  , -0.285  , -0.4  , -0.245  , -0.32  , -0.44  , 0.0325  , -0.4125  , -0.0375  , 0.0275  , -0.145  , 0.06  , 0.3225  , 0.1475  , 0.19  , 0.3125  , -0.045  , 0.1575  , 0.1075  , 0.1975  , 0.315  , 1.26  , 1.5775  , 0.455  , -0.3775  , -1.14  , 1.875  , 1.58  , 0.5925  , 0.5175  , 0.5875  , 0.775  , 0.98  , 0.9325  , 0.9975  , 1.055  , 0.82  , 1.1625  , 0.835  , 0.8025  , 1.03  , 0.7675  , 0.97  , 1.0575  , 0.85  , 1.025  , 1.065  , 0.8825  , 1.0725  , 1.0075  , 0.9375  , 1.09 );
	kernels[89] = compute_kernel(x,   0.325  , -0.24  , -1.7625  , -2.595  , -1.94  , -1.215  , -0.7025  , -0.4325  , -0.22  , -0.06  , -0.0325  , -0.0425  , -0.0125  , -0.01  , 0.02  , 0.1575  , 0.1025  , 0.1  , 0.1225  , 0.1  , 0.0975  , 0.13  , 0.14  , 0.1  , 0.1375  , 0.12  , 0.1025  , 0.0925  , 0.1  , 0.0875  , 0.075  , 2.745  , 3.895  , 2.1275  , -1.3325  , -3.2575  , -2.3525  , -0.925  , -0.695  , -0.56  , -0.4175  , -0.4525  , -0.7025  , -0.495  , -0.46  , -0.4125  , 0.2625  , -0.4525  , -0.26  , -0.0375  , -0.3625  , 0.045  , 0.0125  , -0.0025  , -0.03  , 0.22  , 0.0025  , -0.14  , -0.0025  , 0.045  , -0.0025  , -0.095  , 2.51  , 2.6975  , 0.375  , -1.185  , -1.5025  , 0.25  , 0.775  , 0.38  , 0.5175  , 0.545  , 0.575  , 0.7275  , 0.745  , 0.7625  , 0.8625  , 1.2425  , 0.7125  , 1.0775  , 1.0525  , 0.6675  , 1.225  , 1.0575  , 0.95  , 1.1575  , 1.0875  , 0.915  , 1.0375  , 0.955  , 1.0125  , 1.02  , 0.98 );
	kernels[90] = compute_kernel(x,   0.0975  , -0.505  , -0.8975  , -0.65  , -0.4425  , -0.185  , 0.03  , 0.0925  , 0.0375  , 0.0375  , 0.0625  , 0.09  , 0.1175  , 0.1025  , 0.105  , 0.1175  , 0.1  , 0.0975  , 0.0925  , 0.0625  , 0.0675  , 0.06  , 0.1375  , 0.095  , 0.0625  , 0.135  , 0.135  , 0.085  , 0.1275  , 0.175  , 0.1225  , 2.7425  , 1.6875  , -0.8875  , -1.765  , -1.5725  , -0.9725  , -0.36  , -0.3  , -0.5275  , -0.5675  , -0.5  , -0.42  , -0.3025  , -0.385  , -0.3575  , -0.3325  , -0.3425  , -0.325  , -0.3725  , -0.4475  , -0.43  , -0.3875  , -0.215  , -0.3525  , -0.345  , -0.1825  , -0.3275  , -0.4625  , 0.2075  , -0.1725  , -0.075  , 1.8125  , 1.285  , 0.4175  , -0.2075  , 0.42  , 1.0575  , 0.8875  , 0.7825  , 0.8575  , 0.825  , 0.9  , 0.925  , 0.8875  , 0.9275  , 0.9275  , 0.89  , 0.9075  , 0.96  , 0.905  , 0.94  , 0.9225  , 0.8325  , 0.9375  , 0.89  , 0.89  , 0.975  , 0.8825  , 0.8325  , 1.04  , 0.855  , 1.0075 );
	kernels[91] = compute_kernel(x,   0.38  , 0.415  , 0.4025  , 0.0925  , -0.3575  , -0.3125  , -0.2225  , -0.08  , 0.0325  , 0.045  , 0.13  , 0.225  , 0.22  , 0.22  , 0.225  , 0.2125  , 0.225  , 0.195  , 0.165  , 0.1825  , 0.1625  , 0.1075  , -0.015  , 0.0725  , 0.1375  , 0.1625  , 0.2075  , 0.11  , 0.21  , 0.24  , 0.2075  , 1.355  , 1.5325  , 1.3975  , 0.51  , -0.9525  , -1.235  , -0.7525  , -0.1075  , -0.26  , -0.1975  , -0.05  , 0.0725  , 0.0975  , 0.09  , -0.1  , 0.1175  , 0.2675  , 0.0425  , -0.1275  , 0.05  , 0.13  , -0.0125  , -0.1175  , -0.17  , 0.0975  , 0.4675  , 0.02  , 0.1425  , 0.11  , 0.0175  , 0.375  , 1.185  , 1.2225  , 0.8075  , 0.3275  , 0.835  , 1.18  , 1.36  , 1.2975  , 0.9625  , 0.7725  , 0.7425  , 0.6625  , 0.87  , 1.02  , 0.9925  , 1.1175  , 1.0  , 0.9325  , 1.02  , 1.0125  , 1.03  , 1.0375  , 1.1275  , 0.815  , 0.7925  , 0.87  , 0.71  , 1.0025  , 0.94  , 0.785  , 1.0375 );
	kernels[92] = compute_kernel(x,   0.365  , 0.4425  , 0.39  , 0.0875  , -0.2575  , -0.4175  , -0.34  , -0.1925  , -0.035  , 0.0125  , 0.065  , 0.0325  , 0.0525  , 0.0325  , -0.0175  , 0.0275  , -0.05  , 0.095  , 0.0625  , 0.05  , 0.1825  , 0.1525  , 0.2225  , 0.1775  , 0.2075  , 0.215  , 0.185  , 0.155  , 0.1725  , 0.17  , 0.145  , 1.3875  , 1.1775  , 0.8625  , 0.2075  , -0.8675  , -0.985  , -0.8225  , -0.8075  , -0.48  , -0.275  , -0.005  , -0.1625  , -0.375  , 0.0175  , 0.145  , -0.2225  , -0.11  , 0.255  , -0.08  , 0.185  , 0.2  , 0.4075  , 0.5775  , 0.2775  , 0.395  , 0.225  , 0.3  , 0.4275  , 0.25  , 0.1375  , 0.275  , 1.5075  , 1.37  , 1.015  , 0.4175  , 0.855  , 1.25  , 1.1325  , 1.1075  , 0.6575  , 0.71  , 0.7475  , 0.92  , 0.9075  , 0.9525  , 1.065  , 0.8525  , 1.025  , 0.905  , 0.835  , 1.1375  , 0.96  , 0.8775  , 1.05  , 0.815  , 1.125  , 0.8275  , 0.905  , 1.0575  , 0.94  , 0.9575  , 1.0575 );
	kernels[93] = compute_kernel(x,   0.4625  , 0.425  , 0.2275  , -0.235  , -0.62  , -0.5225  , -0.3325  , -0.18  , -0.07  , 0.005  , 0.0475  , 0.055  , 0.0625  , 0.0925  , 0.12  , 0.1  , 0.11  , 0.1175  , 0.1075  , 0.1075  , 0.1225  , 0.1275  , 0.115  , 0.0975  , 0.0875  , 0.1075  , 0.095  , 0.1025  , 0.1125  , 0.1075  , 0.1125  , 1.45  , 1.98  , 1.0925  , -0.2775  , -1.07  , -1.4875  , -1.115  , 0.11  , -0.28  , -0.4225  , -0.05  , -0.1025  , -0.08  , 0.0925  , 0.13  , -0.0175  , 0.005  , 0.04  , 0.1875  , 0.075  , 0.0525  , 0.2  , 0.1025  , -0.03  , 0.0525  , 0.085  , 0.04  , 0.1375  , 0.0175  , 0.0825  , 0.1075  , 1.1175  , 1.015  , 0.4975  , 0.76  , 1.6875  , 1.2075  , 0.7025  , 0.9725  , 0.6325  , 0.6225  , 0.9875  , 0.7625  , 0.805  , 1.025  , 0.9125  , 1.04  , 1.0975  , 0.9475  , 1.0325  , 1.0275  , 0.9775  , 0.9925  , 0.975  , 0.9775  , 1.025  , 0.9625  , 1.02  , 0.9075  , 0.995  , 0.97  , 0.8975 );
	kernels[94] = compute_kernel(x,   -0.2775  , -0.4025  , -0.19  , 0.0375  , -0.03  , -0.1725  , -0.16  , -0.1125  , -0.0125  , 0.065  , 0.085  , 0.1975  , 0.29  , 0.275  , 0.31  , 0.2675  , 0.1825  , 0.22  , 0.1875  , 0.1425  , 0.1175  , 0.1125  , 0.07  , 0.0675  , 0.0825  , 0.0575  , 0.0425  , 0.045  , 0.0325  , 0.03  , 0.0175  , 0.0875  , -0.1975  , -0.62  , 0.2625  , 0.16  , -0.1425  , 0.03  , -0.0325  , 0.2025  , 0.1125  , 0.1575  , -0.07  , 0.02  , 0.125  , 0.045  , 0.005  , -0.155  , -0.1375  , -0.015  , -0.0775  , -0.0725  , 0.0025  , -0.1025  , -0.085  , 0.0325  , -0.04  , 0.005  , 0.0025  , -0.0725  , -0.02  , -0.025  , 3.9775  , 1.95  , 0.345  , -0.555  , -0.5775  , -0.2025  , 0.1375  , 0.4625  , 0.6025  , 1.11  , 0.9125  , 0.75  , 1.2425  , 0.73  , 1.045  , 1.01  , 0.795  , 1.225  , 1.065  , 1.115  , 1.1275  , 1.0825  , 1.075  , 1.065  , 1.005  , 0.97  , 1.0675  , 0.995  , 0.99  , 0.9625  , 0.885 );
	kernels[95] = compute_kernel(x,   0.155  , -0.405  , -0.385  , -0.11  , -0.02  , -0.1675  , -0.1525  , -0.045  , -0.05  , -0.0375  , -0.005  , 0.01  , 0.04  , 0.075  , 0.1125  , 0.18  , 0.1825  , 0.15  , 0.15  , 0.0875  , 0.145  , 0.1425  , 0.115  , 0.085  , 0.08  , 0.055  , 0.04  , 0.01  , 0.0025  , 0.01  , 0.0125  , 0.385  , 0.415  , -0.405  , 0.12  , -0.16  , -0.2775  , 0.025  , 0.065  , 0.12  , 0.07  , -0.0925  , 0.285  , 0.145  , 0.1675  , 0.1575  , 0.0975  , 0.145  , 0.0125  , 0.0125  , -0.0375  , -0.245  , -0.175  , -0.11  , -0.06  , 0.0525  , -0.005  , -0.0025  , 0.0325  , 0.0175  , 0.0025  , 0.0575  , 3.8375  , 1.9075  , 0.675  , -0.1575  , -0.095  , 0.0  , 0.1425  , 0.44  , 0.285  , 0.315  , 0.915  , 0.72  , 0.915  , 1.2725  , 0.97  , 1.3825  , 1.015  , 0.905  , 1.335  , 1.115  , 1.3  , 1.205  , 1.045  , 1.07  , 0.9825  , 0.8575  , 0.9975  , 0.96  , 0.935  , 1.005  , 0.935 );
	kernels[96] = compute_kernel(x,   0.2475  , -0.84  , -0.475  , -0.2025  , 0.0825  , 0.09  , 0.22  , 0.4175  , 0.615  , 0.5675  , 0.71  , 0.79  , 0.4425  , 0.4525  , 0.3925  , 0.085  , 0.1925  , 0.23  , 0.1225  , 0.1575  , 0.1175  , 0.0875  , 0.1075  , 0.085  , 0.04  , 0.045  , 0.045  , 0.025  , 0.035  , 0.05  , 0.0325  , 0.98  , 0.4  , 0.025  , -0.405  , 0.0275  , -0.205  , -0.0775  , -0.0675  , -0.23  , -0.155  , 0.5175  , -0.1325  , -0.2475  , 0.355  , -0.1125  , -0.0775  , 0.37  , 0.16  , -0.025  , 0.095  , 0.1225  , 0.0475  , 0.025  , 0.0925  , -0.005  , -0.0125  , 0.0875  , 0.01  , 0.035  , 0.0625  , 0.0375  , 3.8125  , 2.0625  , 1.36  , -0.1475  , -0.9575  , -0.6075  , -0.7925  , -0.1125  , -0.295  , -1.135  , 1.6825  , -0.1525  , -0.42  , 1.88  , 0.31  , 0.17  , 2.025  , 1.325  , 1.075  , 1.675  , 1.2875  , 0.9225  , 1.105  , 1.0625  , 0.9  , 0.9775  , 1.0325  , 0.8925  , 0.9025  , 1.0375  , 0.94 );
	kernels[97] = compute_kernel(x,   -0.3  , -0.5925  , -0.57  , -0.2775  , -0.025  , 0.045  , -0.0025  , -0.03  , -0.025  , 0.0875  , 0.1  , 0.0625  , 0.105  , 0.1025  , 0.06  , 0.05  , 0.0825  , 0.115  , 0.07  , 0.0925  , 0.105  , 0.0625  , 0.0575  , 0.04  , 0.0175  , 0.03  , 0.0475  , 0.0325  , 0.025  , 0.0225  , 0.02  , 1.05  , 0.585  , -0.1125  , -0.3275  , -0.075  , -0.1325  , -0.0725  , -0.0025  , -0.2375  , -0.0775  , 0.12  , 0.1475  , 0.0875  , 0.2525  , 0.025  , 0.0825  , -0.1  , 0.095  , -0.075  , 0.0275  , 0.0275  , 0.0225  , 0.0775  , -0.0075  , 0.01  , 0.015  , 0.0225  , 0.005  , -0.0375  , 0.0125  , 0.0175  , 3.3175  , 3.145  , 0.7675  , 0.04  , -0.2725  , -0.1975  , 0.1175  , 0.3175  , -0.0675  , 0.225  , 0.5625  , 0.8925  , 1.275  , 1.0725  , 1.3375  , 1.34  , 1.255  , 1.4875  , 1.1675  , 1.18  , 1.1775  , 1.02  , 1.0075  , 1.09  , 0.925  , 0.895  , 1.0075  , 0.8875  , 0.9225  , 0.9675  , 0.9225 );
	kernels[98] = compute_kernel(x,   -0.24  , -3.0075  , -0.83  , 0.0575  , -0.0125  , 0.28  , 0.5575  , 0.7325  , 0.8175  , 0.8675  , 0.87  , 0.7825  , 0.695  , 0.5425  , 0.3125  , 0.355  , 0.3325  , 0.1825  , 0.25  , 0.1525  , 0.095  , 0.1375  , 0.065  , 0.0275  , 0.085  , 0.035  , 0.03  , 0.065  , 0.04  , 0.0375  , 0.045  , 1.5525  , 1.0725  , -1.265  , -0.1775  , -0.3575  , -0.215  , 0.035  , -0.0575  , 0.0025  , 0.01  , 0.0175  , -0.0525  , -0.0475  , -0.0275  , 0.0525  , 0.215  , 0.13  , -0.005  , 0.1325  , 0.0775  , -0.05  , 0.0725  , 0.08  , 0.02  , 0.035  , 0.1  , -0.0125  , 0.04  , 0.0375  , 0.03  , 0.0575  , 3.995  , 2.19  , -2.8825  , -1.035  , -1.335  , -0.6375  , 0.6125  , 0.3575  , 0.325  , 0.4025  , 0.0625  , 0.2175  , 0.54  , 0.3225  , 0.56  , 1.5175  , 1.0575  , 0.8425  , 1.725  , 1.035  , 0.7975  , 1.4025  , 1.0225  , 0.915  , 1.275  , 0.975  , 0.885  , 1.0225  , 0.925  , 0.9875  , 1.025 );
	kernels[99] = compute_kernel(x,   0.0775  , -0.395  , -0.5425  , -0.2825  , -0.025  , 0.0625  , -0.06  , -0.1225  , -0.0275  , 0.05  , 0.05  , 0.0775  , 0.175  , 0.1475  , 0.1725  , 0.14  , 0.2075  , 0.1225  , 0.0675  , 0.0675  , 0.0475  , 0.0525  , 0.0125  , -0.03  , -0.02  , -0.015  , -0.025  , -0.0025  , -0.01  , -0.025  , -0.015  , 0.6875  , 0.215  , -0.275  , -0.515  , -0.0025  , -0.035  , -0.235  , 0.015  , -0.065  , 0.03  , 0.01  , 0.0125  , 0.1025  , 0.0325  , 0.105  , 0.0325  , 0.01  , -0.105  , -0.1225  , -0.0375  , -0.0525  , -0.035  , 0.0075  , -0.05  , -0.0075  , 0.03  , 0.0175  , 0.065  , 0.0325  , -0.005  , -0.01  , 3.4825  , 2.8275  , 1.0425  , 0.3975  , -0.5125  , -0.4925  , -0.0375  , 0.1825  , 0.315  , 0.5675  , 0.915  , 0.94  , 1.0625  , 1.28  , 1.03  , 0.97  , 1.31  , 1.1525  , 1.135  , 1.155  , 0.9525  , 1.0275  , 1.0375  , 1.0025  , 1.0675  , 1.0925  , 0.9675  , 1.0375  , 1.005  , 0.91  , 0.9975 );
	kernels[100] = compute_kernel(x,   -0.1875  , -0.36  , -0.3  , -0.0725  , 0.005  , -0.0175  , -0.115  , -0.1925  , -0.0125  , 0.0675  , 0.065  , 0.135  , 0.215  , 0.2475  , 0.3075  , 0.1625  , 0.2025  , 0.18  , 0.145  , 0.135  , 0.1325  , 0.085  , 0.0725  , 0.0725  , 0.0375  , 0.03  , 0.0425  , 0.04  , 0.055  , 0.055  , 0.05  , 0.3025  , -0.1125  , 0.1125  , 0.045  , -0.1925  , -0.0425  , -0.195  , -0.0825  , -0.0325  , -0.0825  , 0.0675  , -0.1125  , 0.1275  , 0.1025  , 0.0925  , 0.35  , -0.1625  , 0.015  , 0.035  , -0.1375  , 0.0725  , 0.005  , -0.05  , 0.135  , 0.0125  , 0.01  , 0.0675  , -0.03  , 0.03  , 0.02  , 0.005  , 3.685  , 2.765  , 0.395  , 0.1375  , -0.51  , -0.4275  , -0.0125  , -0.0575  , 0.385  , 0.9075  , 0.7775  , 1.0925  , 1.2075  , 1.0225  , 1.3725  , 0.825  , 0.955  , 1.355  , 0.9575  , 1.185  , 1.2325  , 0.965  , 1.21  , 1.055  , 0.9975  , 1.1225  , 1.01  , 0.945  , 1.04  , 0.9225  , 0.8525 );
	kernels[101] = compute_kernel(x,   -0.66  , -1.9025  , -0.415  , -0.24  , -0.0525  , 0.3175  , 0.66  , 0.765  , 0.7975  , 0.78  , 0.7725  , 0.765  , 0.62  , 0.6625  , 0.605  , 0.48  , 0.4775  , 0.4075  , 0.2975  , 0.29  , 0.26  , 0.2075  , 0.18  , 0.135  , 0.1275  , 0.105  , 0.085  , 0.0975  , 0.0775  , 0.065  , 0.0725  , 0.6825  , -0.145  , 0.3625  , 0.2925  , -0.285  , -0.4275  , -0.025  , 0.0425  , 0.0025  , 0.055  , 0.005  , 0.0075  , -0.0825  , 0.0725  , -0.0075  , -0.0175  , 0.065  , -0.0925  , -0.015  , 0.0325  , -0.0575  , -0.02  , 0.07  , -0.0125  , 0.0825  , 0.1075  , 0.025  , 0.095  , 0.1  , 0.0175  , 0.0625  , 3.965  , 1.57  , -1.1975  , -2.1225  , -0.8675  , 0.125  , 0.555  , 0.425  , 0.265  , 0.415  , 0.62  , 0.35  , 0.7575  , 1.0325  , 0.315  , 1.19  , 1.06  , 0.35  , 1.3925  , 1.1825  , 0.6975  , 1.1775  , 1.1225  , 0.745  , 1.1525  , 1.135  , 0.8675  , 1.1375  , 1.0425  , 0.905  , 1.035 );
	kernels[102] = compute_kernel(x,   -1.26  , -3.725  , -2.2675  , -0.465  , 0.0  , 0.4325  , 0.71  , 0.8075  , 0.8575  , 0.8075  , 0.7075  , 0.71  , 0.6375  , 0.59  , 0.515  , 0.4275  , 0.4  , 0.36  , 0.3275  , 0.3075  , 0.27  , 0.1975  , 0.1875  , 0.155  , 0.1175  , 0.0975  , 0.06  , 0.0375  , 0.025  , -0.015  , -0.015  , 1.7125  , 0.3525  , -0.9275  , -0.135  , -0.2225  , -0.1075  , 0.155  , 0.0175  , 0.0225  , -0.105  , 0.1  , 0.19  , 0.0825  , 0.1275  , 0.0075  , 0.03  , -0.01  , -0.14  , -0.1775  , -0.1675  , -0.2  , -0.135  , -0.2125  , -0.2325  , -0.175  , -0.1875  , -0.0725  , -0.0425  , 0.085  , 0.0425  , 0.1375  , 4.0  , 2.465  , -1.695  , -3.2125  , -1.595  , -0.1875  , 0.6425  , 0.38  , 0.355  , 0.06  , 0.66  , 0.6575  , 0.4225  , 1.015  , 0.7175  , 1.0775  , 1.095  , 0.88  , 0.9625  , 1.0725  , 0.9875  , 0.91  , 1.16  , 0.9225  , 0.815  , 1.1225  , 0.87  , 0.9825  , 1.065  , 0.9425  , 1.13 );
	kernels[103] = compute_kernel(x,   -0.235  , -0.25  , -0.2925  , -0.205  , -0.14  , 0.0225  , 0.0725  , -0.0375  , -0.0975  , 0.025  , 0.085  , 0.085  , 0.1125  , 0.125  , 0.08  , 0.0675  , 0.095  , 0.0625  , 0.0725  , 0.07  , 0.0525  , 0.05  , 0.0325  , 0.0325  , 0.0325  , 0.04  , 0.0325  , 0.015  , 0.0075  , 0.015  , 0.0225  , 0.43  , 0.2675  , 0.115  , 0.04  , 0.0125  , -0.1225  , -0.2675  , -0.0775  , 0.2325  , -0.0475  , 0.125  , 0.1125  , 0.1325  , 0.3525  , 0.2225  , 0.2  , 0.195  , 0.1175  , 0.1125  , 0.095  , 0.2025  , 0.19  , 0.155  , 0.2525  , 0.19  , 0.11  , 0.155  , 0.245  , 0.13  , 0.1475  , 0.1725  , 2.6725  , 2.9025  , 1.6575  , 0.5075  , 0.21  , -0.14  , -0.6925  , -0.0525  , 0.4975  , 0.55  , 0.8775  , 0.865  , 0.88  , 0.885  , 1.13  , 1.2  , 1.1325  , 1.275  , 1.0625  , 1.0575  , 1.1125  , 1.015  , 1.015  , 1.1925  , 0.975  , 0.95  , 0.9975  , 0.9825  , 0.965  , 0.96  , 0.955 );
	kernels[104] = compute_kernel(x,   -0.5875  , -1.095  , -1.68  , -0.9425  , -0.08  , 0.0325  , 0.12  , 0.265  , 0.345  , 0.355  , 0.415  , 0.3475  , 0.1525  , 0.135  , 0.155  , 0.0075  , 0.015  , 0.015  , 0.0025  , 0.0125  , -0.0275  , -0.0225  , -0.0125  , -0.0675  , -0.06  , -0.0275  , -0.06  , -0.06  , -0.03  , -0.0725  , -0.065  , -1.62  , 0.41  , -1.2375  , -0.6675  , -0.43  , -0.48  , -0.625  , -0.245  , -0.61  , -0.8075  , -0.46  , -0.57  , -0.375  , -0.145  , -0.345  , -0.69  , -0.0925  , -0.2025  , -0.465  , -0.09  , -0.205  , -0.2875  , -0.0225  , -0.21  , -0.27  , 0.0125  , -0.115  , -0.16  , 0.06  , -0.095  , -0.09  , 3.1475  , 3.705  , 0.6  , -1.95  , -1.695  , -0.8275  , -0.4075  , 0.265  , 0.2975  , 0.025  , 0.695  , -0.0025  , 0.6325  , 1.71  , 0.8975  , 0.59  , 1.7175  , 1.1975  , 0.765  , 1.3725  , 1.1825  , 0.8475  , 1.065  , 1.1  , 0.9175  , 0.9925  , 1.0125  , 0.92  , 0.945  , 1.02  , 0.9075 );
	kernels[105] = compute_kernel(x,   -0.555  , -2.6325  , -0.7475  , 0.3875  , 0.2325  , 0.375  , 0.54  , 0.6125  , 0.38  , -0.08  , -0.615  , -0.1775  , 0.0175  , 0.0675  , 0.06  , 0.0425  , 0.065  , 0.0475  , 0.02  , 0.0375  , 0.0375  , 0.0225  , 0.0125  , -0.0025  , -0.0075  , 0.0  , 0.005  , -0.015  , -0.0225  , -0.025  , -0.025  , 1.1725  , 0.44  , -1.4025  , 0.2725  , -0.1575  , -0.225  , -0.0575  , -0.065  , -0.17  , -0.1775  , 0.145  , 1.0675  , 0.2475  , 0.06  , 0.335  , 0.0425  , 0.02  , 0.24  , 0.1175  , 0.03  , 0.1825  , 0.13  , 0.05  , 0.1975  , 0.1  , 0.0825  , 0.1675  , 0.095  , 0.0675  , 0.15  , 0.0725  , 3.8525  , 2.86  , -2.8475  , -0.665  , -0.7775  , -0.3625  , -0.12  , -0.5075  , -0.6  , -0.105  , 1.195  , 3.565  , 1.2425  , 1.0975  , 1.485  , 0.82  , 0.7875  , 1.2275  , 0.905  , 0.8525  , 1.0875  , 0.8325  , 0.8725  , 1.0575  , 0.9825  , 0.925  , 1.08  , 1.0125  , 1.0075  , 1.085  , 0.985 );
	kernels[106] = compute_kernel(x,   -0.1225  , -0.365  , -0.46  , -0.275  , -0.07  , -0.0975  , -0.315  , -0.2775  , 0.02  , 0.085  , 0.0225  , 0.055  , 0.13  , 0.2075  , 0.2175  , 0.155  , 0.1275  , 0.08  , 0.095  , 0.085  , 0.1  , 0.09  , 0.085  , 0.0625  , 0.05  , 0.04  , 0.035  , 0.03  , 0.03  , 0.0275  , 0.02  , 0.4075  , 0.4125  , -0.045  , 0.065  , 0.13  , -0.405  , -0.1975  , -0.16  , 0.06  , 0.265  , 0.245  , 0.245  , 0.2275  , 0.125  , 0.14  , 0.2675  , -0.0075  , 0.1025  , 0.175  , 0.0075  , 0.195  , 0.14  , 0.1325  , 0.2025  , 0.205  , 0.1775  , 0.21  , 0.33  , 0.275  , 0.3  , 0.275  , 2.945  , 2.9  , 1.475  , 0.3325  , -0.7775  , -0.8575  , -0.1125  , -0.075  , -0.0025  , 0.695  , 1.0525  , 1.2175  , 1.3375  , 1.275  , 1.1775  , 1.325  , 1.0925  , 1.3975  , 0.9975  , 0.9475  , 1.09  , 0.9375  , 1.0225  , 0.9325  , 0.9325  , 0.9375  , 0.935  , 0.93  , 0.955  , 0.8925  , 0.91 );
